{"learner":{"attributes":{"best_iteration":"64","best_score":"1.2503768709836325"},"feature_names":["threes_avg_3","threes_avg_5","threes_avg_10","threes_avg_season","threes_std_10","threes_volatility","fg3a_avg_10","is_home","threes_hot_streak","days_rest","is_back_to_back","games_in_last_week","win_streak","loss_streak","recent_win_pct","min_avg_10","usage"],"feature_types":[],"gradient_booster":{"model":{"cats":{"enc":[],"feature_segments":[],"sorted_idx":[]},"gbtree_model_param":{"num_parallel_tree":"1","num_trees":"75"},"iteration_indptr":[0,1,2,3,4,5,6,7,8,9,10,11,12,13,14,15,16,17,18,19,20,21,22,23,24,25,26,27,28,29,30,31,32,33,34,35,36,37,38,39,40,41,42,43,44,45,46,47,48,49,50,51,52,53,54,55,56,57,58,59,60,61,62,63,64,65,66,67,68,69,70,71,72,73,74,75],"tree_info":[0,0,0,0,0,0,0,0,0,0,0,0,0,0,0,0,0,0,0,0,0,0,0,0,0,0,0,0,0,0,0,0,0,0,0,0,0,0,0,0,0,0,0,0,0,0,0,0,0,0,0,0,0,0,0,0,0,0,0,0,0,0,0,0,0,0,0,0,0,0,0,0,0,0,0],"trees":[{"base_weights":[2.490814E-3,-5.6583923E-1,8.8692325E-1,-9.632175E-1,-1.4471383E-1,5.97306E-1,1.5452095E0,-1.2391424E0,-7.531302E-1,-4.3282112E-1,-4.9775653E-3,3.1049955E-1,7.1762496E-1,1.3457443E0,2.0161912E0,-1.3157807E-1,-1.1361502E0,-8.8379675E-1,-6.418027E-1,-5.1638025E-1,-3.149142E-1,-1.0901819E-1,8.77914E-2,-1.7241284E-1,3.31149E-1,6.682781E-1,9.838749E-1,9.5776236E-1,1.3982717E0,1.9098171E0,2.6458347E0,-1.0646759E0,-1.1988715E0,-9.446269E-1,-8.094772E-1,-7.075637E-1,-4.604927E-1,-4.8929816E-1,-8.297064E-1,-3.547201E-1,5.7409283E-2,-1.5769194E-1,1.6377018E-1,3.5577732E-1,4.3817915E-2,-3.3803803E-1,7.827508E-1,4.4898954E-1,2.6052678E-1,5.2773887E-1,7.3331124E-1,-1.8249784E-2,1.0474099E0,8.6121976E-1,1.722233E0,1.7216643E0,1.3514109E0,1.9401947E0,8.724056E-1,1.5905247E0,2.8758457E0,-1.1246504E-1,-9.212499E-2,-1.2129296E-1,-7.451057E-2,-6.6662915E-2,-9.599774E-2,-8.160989E-2,-2.5352363E-3,-5.780334E-2,-7.606706E-2,-5.0601102E-2,-1.7164534E-2,-8.99554E-3,-5.077411E-2,-8.61996E-2,-4.3179304E-3,-4.587242E-2,-2.2889454E-2,5.107196E-2,-2.6173934E-2,-2.5258696E-2,-5.234872E-3,7.017502E-2,8.4270295E-3,8.885766E-3,5.1869404E-2,-1.34506775E-2,1.09671205E-2,2.0939292E-2,-5.6388583E-2,1.0746477E-1,-0E0,4.1461255E-2,8.67387E-2,1.8683827E-2,4.8729118E-2,5.685084E-2,-1.0536581E-2,7.998366E-2,5.664698E-2,-5.9785802E-2,3.8889978E-2,1.0953488E-1,1.6281297E-2,1.3716558E-1,7.045449E-2,5.100235E-2,2.544524E-1,1.5278119E-1,2.3807752E-1,1.1792501E-1,1.4658956E-1,1.97588E-1,1.0720606E-1,1.4862908E-1,-5.5340644E-2,4.742452E-2,2.1873811E-1,2.2846992E-1,3.4262297E-1],"categories":[],"categories_nodes":[],"categories_segments":[],"categories_sizes":[],"default_left":[0,0,0,0,0,0,0,0,0,0,0,0,0,0,0,0,0,0,0,0,0,0,0,0,0,0,0,0,0,0,0,0,0,0,0,0,0,0,0,0,0,0,0,0,0,0,0,0,0,0,0,0,0,0,0,0,0,0,0,0,0,0,0,0,0,0,0,0,0,0,0,0,0,0,0,0,0,0,0,0,0,0,0,0,0,0,0,0,0,0,0,0,0,0,0,0,0,0,0,0,0,0,0,0,0,0,0,0,0,0,0,0,0,0,0,0,0,0,0,0,0],"id":0,"left_children":[1,3,5,7,9,11,13,15,17,19,21,23,25,27,29,-1,31,33,35,37,39,41,43,45,47,49,51,53,55,57,59,61,63,65,67,69,71,73,75,77,79,81,83,85,87,89,91,93,95,97,99,101,103,105,107,109,111,113,115,117,119,-1,-1,-1,-1,-1,-1,-1,-1,-1,-1,-1,-1,-1,-1,-1,-1,-1,-1,-1,-1,-1,-1,-1,-1,-1,-1,-1,-1,-1,-1,-1,-1,-1,-1,-1,-1,-1,-1,-1,-1,-1,-1,-1,-1,-1,-1,-1,-1,-1,-1,-1,-1,-1,-1,-1,-1,-1,-1,-1,-1],"loss_changes":[1.1058824E4,2.241183E3,1.6397964E3,3.9832715E2,2.6179883E2,2.0599902E2,2.4393115E2,2.1757812E1,5.6230957E1,2.068039E1,4.2295975E1,1.7713196E1,5.450415E1,3.612744E1,4.673413E1,0E0,4.2263184E0,7.1884766E0,2.4810547E1,9.992645E0,1.3151558E1,2.7456804E1,2.7236828E1,1.1768667E1,1.3934784E1,3.1987427E1,4.1889526E1,1.4790512E1,2.202246E1,1.917212E1,2.167987E1,3.9806519E0,3.1871948E0,3.3880005E0,4.137207E0,1.01026E1,7.300209E0,8.327515E0,2.3357315E0,1.0282257E1,1.2600483E1,1.7490223E1,1.3249068E1,1.4069489E1,2.3393112E1,7.942594E0,2.4992533E0,8.631142E0,1.762091E1,2.9247284E1,2.635913E1,9.692893E0,2.5860779E1,1.4900467E1,2.231971E1,2.1781372E1,2.6112793E1,1.7744629E1,1.9296795E1,1.3354176E1,2.05578E1,0E0,0E0,0E0,0E0,0E0,0E0,0E0,0E0,0E0,0E0,0E0,0E0,0E0,0E0,0E0,0E0,0E0,0E0,0E0,0E0,0E0,0E0,0E0,0E0,0E0,0E0,0E0,0E0,0E0,0E0,0E0,0E0,0E0,0E0,0E0,0E0,0E0,0E0,0E0,0E0,0E0,0E0,0E0,0E0,0E0,0E0,0E0,0E0,0E0,0E0,0E0,0E0,0E0,0E0,0E0,0E0,0E0,0E0,0E0,0E0],"parents":[2147483647,0,0,1,1,2,2,3,3,4,4,5,5,6,6,7,7,8,8,9,9,10,10,11,11,12,12,13,13,14,14,16,16,17,17,18,18,19,19,20,20,21,21,22,22,23,23,24,24,25,25,26,26,27,27,28,28,29,29,30,30,31,31,32,32,33,33,34,34,35,35,36,36,37,37,38,38,39,39,40,40,41,41,42,42,43,43,44,44,45,45,46,46,47,47,48,48,49,49,50,50,51,51,52,52,53,53,54,54,55,55,56,56,57,57,58,58,59,59,60,60],"right_children":[2,4,6,8,10,12,14,16,18,20,22,24,26,28,30,-1,32,34,36,38,40,42,44,46,48,50,52,54,56,58,60,62,64,66,68,70,72,74,76,78,80,82,84,86,88,90,92,94,96,98,100,102,104,106,108,110,112,114,116,118,120,-1,-1,-1,-1,-1,-1,-1,-1,-1,-1,-1,-1,-1,-1,-1,-1,-1,-1,-1,-1,-1,-1,-1,-1,-1,-1,-1,-1,-1,-1,-1,-1,-1,-1,-1,-1,-1,-1,-1,-1,-1,-1,-1,-1,-1,-1,-1,-1,-1,-1,-1,-1,-1,-1,-1,-1,-1,-1,-1,-1],"split_conditions":[4.3E0,2.2E0,6.8E0,8E-1,2.9E0,4.9E0,8.7E0,2E-1,1.5E0,1E0,1.3333334E0,6.666667E-1,6.4E0,2E0,2.3323808E0,-1.3157807E-1,1.23E1,1.2E0,1E0,3.26E1,1.4345213E2,1.5E0,-1.1347517E-1,1.2247449E2,-1.6363636E-1,1.9E0,2.34E1,2.1071308E0,-8.27957E-1,6.546537E1,5.4084843E1,3.3333334E-1,3.25E1,-6.1290324E-1,8E0,-4.680851E-1,8E-1,-1.1137255E0,3.448276E-1,2.6E0,1.7E1,2.42E1,1.024695E0,2.27E1,1.6666666E0,8.2608696E1,4.7E0,-2.0833333E-1,2.4E0,1.7888544E0,3E0,2E0,6E0,6.0078842E1,2.98E1,2.3333333E0,3E0,4.6E0,3.56E1,5E-1,1E1,-1.1246504E-1,-9.212499E-2,-1.2129296E-1,-7.451057E-2,-6.6662915E-2,-9.599774E-2,-8.160989E-2,-2.5352363E-3,-5.780334E-2,-7.606706E-2,-5.0601102E-2,-1.7164534E-2,-8.99554E-3,-5.077411E-2,-8.61996E-2,-4.3179304E-3,-4.587242E-2,-2.2889454E-2,5.107196E-2,-2.6173934E-2,-2.5258696E-2,-5.234872E-3,7.017502E-2,8.4270295E-3,8.885766E-3,5.1869404E-2,-1.34506775E-2,1.09671205E-2,2.0939292E-2,-5.6388583E-2,1.0746477E-1,-0E0,4.1461255E-2,8.67387E-2,1.8683827E-2,4.8729118E-2,5.685084E-2,-1.0536581E-2,7.998366E-2,5.664698E-2,-5.9785802E-2,3.8889978E-2,1.0953488E-1,1.6281297E-2,1.3716558E-1,7.045449E-2,5.100235E-2,2.544524E-1,1.5278119E-1,2.3807752E-1,1.1792501E-1,1.4658956E-1,1.97588E-1,1.0720606E-1,1.4862908E-1,-5.5340644E-2,4.742452E-2,2.1873811E-1,2.2846992E-1,3.4262297E-1],"split_indices":[6,6,6,6,6,6,6,6,6,1,0,0,6,1,4,0,15,6,0,15,5,2,8,5,8,2,15,4,8,5,5,0,15,8,12,8,14,8,8,6,15,15,4,15,0,5,6,8,1,4,9,1,9,5,15,0,0,2,15,14,6,0,0,0,0,0,0,0,0,0,0,0,0,0,0,0,0,0,0,0,0,0,0,0,0,0,0,0,0,0,0,0,0,0,0,0,0,0,0,0,0,0,0,0,0,0,0,0,0,0,0,0,0,0,0,0,0,0,0,0,0],"split_type":[0,0,0,0,0,0,0,0,0,0,0,0,0,0,0,0,0,0,0,0,0,0,0,0,0,0,0,0,0,0,0,0,0,0,0,0,0,0,0,0,0,0,0,0,0,0,0,0,0,0,0,0,0,0,0,0,0,0,0,0,0,0,0,0,0,0,0,0,0,0,0,0,0,0,0,0,0,0,0,0,0,0,0,0,0,0,0,0,0,0,0,0,0,0,0,0,0,0,0,0,0,0,0,0,0,0,0,0,0,0,0,0,0,0,0,0,0,0,0,0,0],"sum_hessian":[2.1999E4,1.3393E4,8.606E3,6.89E3,6.503E3,5.978E3,2.628E3,2.976E3,3.914E3,2.123E3,4.38E3,1.768E3,4.21E3,1.849E3,7.79E2,1.699E3,1.277E3,1.797E3,2.117E3,1.24E3,8.83E2,2.065E3,2.315E3,7.2E1,1.696E3,3.555E3,6.55E2,2.23E2,1.626E3,6.7E2,1.09E2,6.06E2,6.71E2,9.81E2,8.16E2,1.551E3,5.66E2,1.144E3,9.6E1,7.98E2,8.5E1,1.753E3,3.12E2,3.25E2,1.99E3,6.2E1,1E1,6.33E2,1.063E3,1.128E3,2.427E3,3.9E1,6.16E2,2E2,2.3E1,2.01E2,1.425E3,6.5E2,2E1,2.1E1,8.8E1,4.22E2,1.84E2,6.49E2,2.2E1,5.4E1,9.27E2,8.09E2,7E0,4.55E2,1.096E3,4.88E2,7.8E1,5.1E1,1.093E3,9.2E1,4E0,4.35E2,3.63E2,3.5E1,5E1,9.21E2,8.32E2,3.9E1,2.73E2,1.24E2,2.01E2,5.36E2,1.454E3,1.8E1,4.4E1,7E0,3E0,5.87E2,4.6E1,8.04E2,2.59E2,1.06E3,6.8E1,1.732E3,6.95E2,1.6E1,2.3E1,5.84E2,3.2E1,4.5E1,1.55E2,1E1,1.3E1,1.58E2,4.3E1,5.74E2,8.51E2,6.23E2,2.7E1,1.4E1,6E0,8E0,1.3E1,4.5E1,4.3E1],"tree_param":{"num_deleted":"0","num_feature":"17","num_nodes":"121","size_leaf_vector":"1"}},{"base_weights":[2.96765E-3,-5.511391E-1,7.1227527E-1,-9.173365E-1,-2.1631035E-1,4.3763995E-1,1.3743517E0,-1.1020019E0,-7.2696865E-1,-3.1035292E-1,6.974479E-2,2.505131E-1,6.578386E-1,1.1957883E0,1.7160636E0,-1.169029E0,-9.7076136E-1,-7.6747626E-1,-5.3659713E-1,-5.0332433E-1,-2.0751977E-1,5.26869E-3,3.4087145E-1,-2.3585168E-1,3.1453666E-1,5.519701E-1,8.2751155E-1,1.1846535E0,3.3628898E0,1.6167907E0,2.2042818E0,-1.0398221E0,-1.1797736E0,-9.923757E-1,-6.2880254E-1,-8.546404E-1,-7.226998E-1,-6.0771E-1,-2.2065672E-1,-6.652318E-1,-4.3585488E-1,-3.8969147E-1,-1.2720929E-1,-5.6801587E-2,1.706487E-1,-8.2102776E-1,3.9091796E-1,-4.7622022E-1,-5.251253E-2,2.2438423E-1,4.8066702E-1,3.2510892E-1,5.917155E-1,7.1402335E-1,1.0245236E0,8.480018E-1,1.230412E0,6.37361E-2,4.602761E-1,1.6480329E0,7.977059E-1,2.5707307E0,1.8233159E0,-1.0597946E-1,-3.2723874E-2,-1.181296E-1,-6.728671E-2,-1.02621235E-1,-9.083419E-2,-6.707824E-2,-0E0,-6.6858254E-2,-8.820527E-2,-7.896283E-2,-6.8173505E-2,-6.754606E-2,-4.1326202E-2,3.3367518E-4,-5.7115544E-2,-7.366174E-2,-5.3558636E-2,-5.0377574E-2,-3.5008084E-2,-5.6190174E-2,-3.171027E-2,-2.6347054E-2,-4.5269215E-3,-1.7127698E-2,1.0197107E-2,3.8003944E-2,-3.7966922E-3,-2.2303304E-2,-1.0509106E-1,4.335101E-2,-5.6521118E-2,-6.306216E-2,-2.5589142E-2,-8.496612E-3,1.5152346E-1,1.1123607E-2,3.3430155E-2,5.814392E-2,3.2748412E-2,1.5806766E-2,5.0581783E-2,1.2708262E-1,5.749188E-2,7.682225E-2,1.5808037E-2,2.1065734E-1,9.8641306E-2,4.060362E-2,1.10407926E-1,3.2636296E-2,1.252141E-1,1.6692963E-1,5.846061E-2,1.3633803E-1,-1.9831064E-3,1.644977E-1,2.9841495E-1,2.0272581E-1,5.6152947E-2],"categories":[],"categories_nodes":[],"categories_segments":[],"categories_sizes":[],"default_left":[0,0,0,0,0,0,0,0,0,0,0,0,0,0,0,0,0,0,0,0,0,0,0,0,0,0,0,0,0,0,0,0,0,0,0,0,0,0,0,0,0,0,0,0,0,0,0,0,0,0,0,0,0,0,0,0,0,0,0,0,0,0,0,0,0,0,0,0,0,0,0,0,0,0,0,0,0,0,0,0,0,0,0,0,0,0,0,0,0,0,0,0,0,0,0,0,0,0,0,0,0,0,0,0,0,0,0,0,0,0,0,0,0,0,0,0,0,0,0,0,0,0,0],"id":1,"left_children":[1,3,5,7,9,11,13,15,17,19,21,23,25,27,29,31,33,35,37,39,41,43,45,47,49,51,53,55,57,59,61,63,65,67,69,71,73,75,77,79,81,83,85,87,89,91,93,95,97,99,101,103,105,107,109,111,113,-1,-1,115,117,119,121,-1,-1,-1,-1,-1,-1,-1,-1,-1,-1,-1,-1,-1,-1,-1,-1,-1,-1,-1,-1,-1,-1,-1,-1,-1,-1,-1,-1,-1,-1,-1,-1,-1,-1,-1,-1,-1,-1,-1,-1,-1,-1,-1,-1,-1,-1,-1,-1,-1,-1,-1,-1,-1,-1,-1,-1,-1,-1,-1,-1],"loss_changes":[8.715896E3,1.5262253E3,1.7676919E3,2.0804443E2,1.7503906E2,2.8307056E2,1.7161719E2,2.518164E1,2.206018E1,9.697998E1,2.81083E1,1.1588724E2,5.6132446E1,4.0829346E1,4.335742E1,1.3154297E0,6.7973022E0,8.64624E0,1.1421188E1,1.8181366E1,4.6657166E1,1.3386346E1,1.8245995E1,1.9003979E1,4.905121E1,1.7280457E1,2.6170837E1,2.7524658E1,2.6956093E1,1.9296875E1,1.7489258E1,1.8200989E0,4.321289E-1,1.6125488E0,1.6918125E0,3.4016724E0,3.706726E0,5.171417E0,7.6741014E0,4.0871277E0,6.752548E0,1.1946945E1,2.4744064E1,1.7236652E1,1.559949E1,1.4253111E0,1.2326756E1,6.1115456E0,1.2552836E1,2.6446266E1,1.7547943E1,8.698111E0,1.7974487E1,2.3047546E1,1.5757233E1,2.509195E1,3.1689209E1,0E0,0E0,1.6526611E1,1.4960102E1,2.5246094E1,1.9961273E1,0E0,0E0,0E0,0E0,0E0,0E0,0E0,0E0,0E0,0E0,0E0,0E0,0E0,0E0,0E0,0E0,0E0,0E0,0E0,0E0,0E0,0E0,0E0,0E0,0E0,0E0,0E0,0E0,0E0,0E0,0E0,0E0,0E0,0E0,0E0,0E0,0E0,0E0,0E0,0E0,0E0,0E0,0E0,0E0,0E0,0E0,0E0,0E0,0E0,0E0,0E0,0E0,0E0,0E0,0E0,0E0,0E0,0E0,0E0,0E0],"parents":[2147483647,0,0,1,1,2,2,3,3,4,4,5,5,6,6,7,7,8,8,9,9,10,10,11,11,12,12,13,13,14,14,15,15,16,16,17,17,18,18,19,19,20,20,21,21,22,22,23,23,24,24,25,25,26,26,27,27,28,28,29,29,30,30,31,31,32,32,33,33,34,34,35,35,36,36,37,37,38,38,39,39,40,40,41,41,42,42,43,43,44,44,45,45,46,46,47,47,48,48,49,49,50,50,51,51,52,52,53,53,54,54,55,55,56,56,59,59,60,60,61,61,62,62],"right_children":[2,4,6,8,10,12,14,16,18,20,22,24,26,28,30,32,34,36,38,40,42,44,46,48,50,52,54,56,58,60,62,64,66,68,70,72,74,76,78,80,82,84,86,88,90,92,94,96,98,100,102,104,106,108,110,112,114,-1,-1,116,118,120,122,-1,-1,-1,-1,-1,-1,-1,-1,-1,-1,-1,-1,-1,-1,-1,-1,-1,-1,-1,-1,-1,-1,-1,-1,-1,-1,-1,-1,-1,-1,-1,-1,-1,-1,-1,-1,-1,-1,-1,-1,-1,-1,-1,-1,-1,-1,-1,-1,-1,-1,-1,-1,-1,-1,-1,-1,-1,-1,-1,-1],"split_conditions":[1.3636364E0,5.9090906E-1,2.3488371E0,2.1875E-1,1.6666666E0,1.84375E0,3.0612245E0,7.1428575E-2,4.4808742E-1,8.414634E-1,1.5E0,1.79E1,2.1190476E0,1E1,3.935484E0,7.5E0,6E-1,3.255814E-1,5.138889E-1,-3.4E-1,8E-1,2.3333333E0,9.6E0,-7.017544E-1,2E0,2.32E1,2.6E0,1.1357816E0,3E0,6E0,1E0,7E0,4.5825756E-1,1.2820514E-1,1.1240311E0,2E0,-2.1428572E-1,1.2E0,2E0,1.99E1,1.7316018E-1,6E-1,2.01E1,1.125E0,1.264911E0,8.064516E-1,6E0,3E0,9E0,1.6E0,1.5132746E0,1E0,2.36E1,5E0,9.433981E-1,3.01E1,2.09E1,6.37361E-2,4.602761E-1,5.2E0,3.36E1,1.7578396E0,4E0,-1.0597946E-1,-3.2723874E-2,-1.181296E-1,-6.728671E-2,-1.02621235E-1,-9.083419E-2,-6.707824E-2,-0E0,-6.6858254E-2,-8.820527E-2,-7.896283E-2,-6.8173505E-2,-6.754606E-2,-4.1326202E-2,3.3367518E-4,-5.7115544E-2,-7.366174E-2,-5.3558636E-2,-5.0377574E-2,-3.5008084E-2,-5.6190174E-2,-3.171027E-2,-2.6347054E-2,-4.5269215E-3,-1.7127698E-2,1.0197107E-2,3.8003944E-2,-3.7966922E-3,-2.2303304E-2,-1.0509106E-1,4.335101E-2,-5.6521118E-2,-6.306216E-2,-2.5589142E-2,-8.496612E-3,1.5152346E-1,1.1123607E-2,3.3430155E-2,5.814392E-2,3.2748412E-2,1.5806766E-2,5.0581783E-2,1.2708262E-1,5.749188E-2,7.682225E-2,1.5808037E-2,2.1065734E-1,9.8641306E-2,4.060362E-2,1.10407926E-1,3.2636296E-2,1.252141E-1,1.6692963E-1,5.846061E-2,1.3633803E-1,-1.9831064E-3,1.644977E-1,2.9841495E-1,2.0272581E-1,5.6152947E-2],"split_indices":[3,3,3,3,0,3,3,3,8,3,4,15,3,13,3,15,1,3,3,8,4,0,15,8,1,15,1,4,11,13,7,13,4,8,8,9,8,1,12,15,8,1,15,3,4,3,13,11,13,3,4,12,15,9,4,15,15,0,0,1,15,4,12,0,0,0,0,0,0,0,0,0,0,0,0,0,0,0,0,0,0,0,0,0,0,0,0,0,0,0,0,0,0,0,0,0,0,0,0,0,0,0,0,0,0,0,0,0,0,0,0,0,0,0,0,0,0,0,0,0,0,0,0],"split_type":[0,0,0,0,0,0,0,0,0,0,0,0,0,0,0,0,0,0,0,0,0,0,0,0,0,0,0,0,0,0,0,0,0,0,0,0,0,0,0,0,0,0,0,0,0,0,0,0,0,0,0,0,0,0,0,0,0,0,0,0,0,0,0,0,0,0,0,0,0,0,0,0,0,0,0,0,0,0,0,0,0,0,0,0,0,0,0,0,0,0,0,0,0,0,0,0,0,0,0,0,0,0,0,0,0,0,0,0,0,0,0,0,0,0,0,0,0,0,0,0,0,0,0],"sum_hessian":[2.2174E4,1.2449E4,9.725E3,5.945E3,6.504E3,6.875E3,2.85E3,3.015E3,2.93E3,4.895E3,1.609E3,3.718E3,3.157E3,1.875E3,9.75E2,1.99E3,1.025E3,2.413E3,5.17E2,1.7E3,3.195E3,1.301E3,3.08E2,4.32E2,3.286E3,1.947E3,1.21E3,1.867E3,8E0,8.14E2,1.61E2,1.61E2,1.829E3,9.62E2,6.3E1,8.12E2,1.601E3,4.21E2,9.6E1,4.97E2,1.203E3,9.76E2,2.219E3,9.46E2,3.55E2,1.2E1,2.96E2,1.86E2,2.46E2,2.132E3,1.154E3,2.92E2,1.655E3,7.71E2,4.39E2,2.26E2,1.641E3,3E0,5E0,7.83E2,3.1E1,7.9E1,8.2E1,1.56E2,5E0,1.822E3,7E0,6.77E2,2.85E2,5.9E1,4E0,1.08E2,7.04E2,6E2,1.001E3,3.1E2,1.11E2,5.9E1,3.7E1,3.17E2,1.8E2,6.68E2,5.35E2,2.87E2,6.89E2,8.32E2,1.387E3,5.5E2,3.96E2,1.77E2,1.78E2,4E0,8E0,2.84E2,1.2E1,1.08E2,7.8E1,2.42E2,4E0,1.052E3,1.08E3,6.94E2,4.6E2,1.53E2,1.39E2,3.8E1,1.617E3,7.02E2,6.9E1,1.3E1,4.26E2,8.4E1,1.42E2,3.9E1,1.602E3,7.67E2,1.6E1,1.8E1,1.3E1,2.6E1,5.3E1,7E1,1.2E1],"tree_param":{"num_deleted":"0","num_feature":"17","num_nodes":"123","size_leaf_vector":"1"}},{"base_weights":[-4.0123453E-3,-4.9414578E-1,6.7549366E-1,-7.888747E-1,-1.5139872E-1,4.4234365E-1,1.2355587E0,-1.0214198E0,-6.288746E-1,-4.1925508E-1,-5.6457505E-2,2.2904243E-1,5.829941E-1,1.0408826E0,1.5890832E0,-1.0644757E-1,-9.535404E-1,-7.242186E-1,-5.298859E-1,-5.1601714E-1,-3.323741E-1,-1.3342382E-1,8.875334E-2,1.8295336E-1,4.8776138E-1,5.0760543E-1,7.9983467E-1,7.597098E-1,1.1382742E0,1.4883497E0,1.9505663E0,-8.753927E-1,-1.0014414E0,-7.34377E-1,-1.5798512E-1,-5.3348184E-1,9.951898E-2,-5.313562E-1,2.4390323E-1,-3.8421148E-1,4.325103E-3,-2.1507937E-1,-2.6536215E-2,6.0446933E-2,4.521484E-1,1.661751E-1,6.3642573E-1,3.7569344E-1,7.4614525E-1,6.739519E-1,4.6032265E-1,3.7846038E-1,8.856486E-1,-3.8418266E-1,8.026012E-1,3.4802058E-1,1.1553309E0,1.422533E0,1.9468246E0,2.480667E0,1.7304561E0,-6.943401E-2,-9.099731E-2,-1.0037619E-1,-3.373934E-2,-7.86863E-2,-6.778632E-2,1.05478756E-1,-2.94931E-2,-6.6374674E-2,-4.93549E-2,-3.594559E-2,-5.75719E-2,-3.7651937E-2,8.463379E-2,-3.9320786E-2,1.2769496E-1,-2.508229E-2,5.6109436E-2,-3.4147788E-2,-1.4671941E-2,-5.8149863E-3,2.0984644E-2,-4.0883888E-3,1.3760425E-2,6.894367E-2,-1.3724643E-2,-1.402009E-3,2.0674577E-2,2.1207785E-2,1.3049798E-1,3.282069E-2,1.1176192E-1,8.6583175E-2,-2.9415256E-4,2.6756957E-1,6.602317E-2,-4.5715373E-2,4.7035225E-2,4.3780196E-2,-8.87685E-2,6.100742E-2,9.742083E-2,6.7836284E-3,-6.4599626E-2,-2.1468572E-2,8.5458614E-2,6.535017E-2,-5.230549E-2,5.1434327E-2,1.178899E-1,6.608413E-2,1.4573203E-1,2.16887E-1,9.7428836E-2,3.1273922E-1,1.7226528E-1,1.8761645E-1,8.463072E-2],"categories":[],"categories_nodes":[],"categories_segments":[],"categories_sizes":[],"default_left":[0,0,0,0,0,0,0,0,0,0,0,0,0,0,0,0,0,0,0,0,0,0,0,0,0,0,0,0,0,0,0,0,0,0,0,0,0,0,0,0,0,0,0,0,0,0,0,0,0,0,0,0,0,0,0,0,0,0,0,0,0,0,0,0,0,0,0,0,0,0,0,0,0,0,0,0,0,0,0,0,0,0,0,0,0,0,0,0,0,0,0,0,0,0,0,0,0,0,0,0,0,0,0,0,0,0,0,0,0,0,0,0,0,0,0,0,0,0,0],"id":2,"left_children":[1,3,5,7,9,11,13,15,17,19,21,23,25,27,29,-1,31,33,35,37,39,41,43,45,47,49,51,53,55,57,59,61,63,65,67,69,-1,71,73,75,77,79,81,83,85,87,89,91,93,95,97,99,101,103,105,107,109,111,113,115,117,-1,-1,-1,-1,-1,-1,-1,-1,-1,-1,-1,-1,-1,-1,-1,-1,-1,-1,-1,-1,-1,-1,-1,-1,-1,-1,-1,-1,-1,-1,-1,-1,-1,-1,-1,-1,-1,-1,-1,-1,-1,-1,-1,-1,-1,-1,-1,-1,-1,-1,-1,-1,-1,-1,-1,-1,-1,-1],"loss_changes":[7.335045E3,1.2923054E3,1.2044009E3,2.5514062E2,1.5040169E2,1.9533118E2,1.8472998E2,6.972412E0,3.797888E1,1.2757324E1,4.8856934E1,3.0751007E1,6.36593E1,4.6921997E1,3.1746582E1,0E0,3.0457764E0,1.1724487E1,1.1480347E1,8.667587E0,1.4334145E1,2.490593E1,1.5495036E1,1.656784E1,1.0929512E1,2.251947E1,3.6095886E1,2.2624878E1,1.6957031E1,1.9706177E1,1.9322388E1,1.8748779E0,5.6427E-1,5.3623047E0,6.5463033E0,9.965576E0,0E0,5.159729E0,5.972105E0,1.1024277E1,1.57982025E1,1.3890198E1,9.255979E0,1.1007988E1,1.5394199E1,1.5557289E1,2.1700094E1,9.177269E0,1.0578529E1,1.5559387E1,2.1150696E1,1.3342012E1,1.97229E1,2.113498E0,2.3410461E1,8.071677E0,1.842517E1,1.64458E1,1.7439728E1,2.256073E1,1.7335327E1,0E0,0E0,0E0,0E0,0E0,0E0,0E0,0E0,0E0,0E0,0E0,0E0,0E0,0E0,0E0,0E0,0E0,0E0,0E0,0E0,0E0,0E0,0E0,0E0,0E0,0E0,0E0,0E0,0E0,0E0,0E0,0E0,0E0,0E0,0E0,0E0,0E0,0E0,0E0,0E0,0E0,0E0,0E0,0E0,0E0,0E0,0E0,0E0,0E0,0E0,0E0,0E0,0E0,0E0,0E0,0E0,0E0,0E0],"parents":[2147483647,0,0,1,1,2,2,3,3,4,4,5,5,6,6,7,7,8,8,9,9,10,10,11,11,12,12,13,13,14,14,16,16,17,17,18,18,19,19,20,20,21,21,22,22,23,23,24,24,25,25,26,26,27,27,28,28,29,29,30,30,31,31,32,32,33,33,34,34,35,35,37,37,38,38,39,39,40,40,41,41,42,42,43,43,44,44,45,45,46,46,47,47,48,48,49,49,50,50,51,51,52,52,53,53,54,54,55,55,56,56,57,57,58,58,59,59,60,60],"right_children":[2,4,6,8,10,12,14,16,18,20,22,24,26,28,30,-1,32,34,36,38,40,42,44,46,48,50,52,54,56,58,60,62,64,66,68,70,-1,72,74,76,78,80,82,84,86,88,90,92,94,96,98,100,102,104,106,108,110,112,114,116,118,-1,-1,-1,-1,-1,-1,-1,-1,-1,-1,-1,-1,-1,-1,-1,-1,-1,-1,-1,-1,-1,-1,-1,-1,-1,-1,-1,-1,-1,-1,-1,-1,-1,-1,-1,-1,-1,-1,-1,-1,-1,-1,-1,-1,-1,-1,-1,-1,-1,-1,-1,-1,-1,-1,-1,-1,-1,-1],"split_conditions":[4.1E0,2.2E0,2.3695652E0,7E-1,2.7E0,5E0,8.3E0,2E-1,4.7272727E-1,8.064516E-1,1.3125E0,1.9705882E0,2.5E0,6.4E0,2.144761E0,-1.0644757E-1,9.3E0,1.6666666E0,3.63E1,1.5362291E0,8E-1,1.3333334E0,1.9705882E0,3.3333333E0,4.8E0,5.7496944E1,1.7058823E0,1.95E1,2.27E1,3.935484E0,3E0,3E-1,1E0,3.0555555E-1,2.6E-1,3.3333334E-1,9.951898E-2,9.229582E1,6.956522E-1,7E0,1.0769231E0,9.0625E-1,3.9E0,2.22E1,4E0,2.19E1,9.491188E1,1.1055416E2,4E0,1.79E1,1.76E1,7E0,2.3333333E0,1.7E0,8.062258E-1,1.9209373E0,1E0,2.6E0,4.5E0,1E0,4.7E0,-6.943401E-2,-9.099731E-2,-1.0037619E-1,-3.373934E-2,-7.86863E-2,-6.778632E-2,1.05478756E-1,-2.94931E-2,-6.6374674E-2,-4.93549E-2,-3.594559E-2,-5.75719E-2,-3.7651937E-2,8.463379E-2,-3.9320786E-2,1.2769496E-1,-2.508229E-2,5.6109436E-2,-3.4147788E-2,-1.4671941E-2,-5.8149863E-3,2.0984644E-2,-4.0883888E-3,1.3760425E-2,6.894367E-2,-1.3724643E-2,-1.402009E-3,2.0674577E-2,2.1207785E-2,1.3049798E-1,3.282069E-2,1.1176192E-1,8.6583175E-2,-2.9415256E-4,2.6756957E-1,6.602317E-2,-4.5715373E-2,4.7035225E-2,4.3780196E-2,-8.87685E-2,6.100742E-2,9.742083E-2,6.7836284E-3,-6.4599626E-2,-2.1468572E-2,8.5458614E-2,6.535017E-2,-5.230549E-2,5.1434327E-2,1.178899E-1,6.608413E-2,1.4573203E-1,2.16887E-1,9.7428836E-2,3.1273922E-1,1.7226528E-1,1.8761645E-1,8.463072E-2],"split_indices":[6,6,3,6,6,6,6,6,3,3,3,3,2,6,4,0,15,0,15,4,14,0,3,0,6,5,3,15,15,3,11,6,0,3,3,0,0,5,3,12,3,3,6,15,11,15,5,5,12,15,15,13,0,2,4,4,11,2,2,7,2,0,0,0,0,0,0,0,0,0,0,0,0,0,0,0,0,0,0,0,0,0,0,0,0,0,0,0,0,0,0,0,0,0,0,0,0,0,0,0,0,0,0,0,0,0,0,0,0,0,0,0,0,0,0,0,0,0,0],"split_type":[0,0,0,0,0,0,0,0,0,0,0,0,0,0,0,0,0,0,0,0,0,0,0,0,0,0,0,0,0,0,0,0,0,0,0,0,0,0,0,0,0,0,0,0,0,0,0,0,0,0,0,0,0,0,0,0,0,0,0,0,0,0,0,0,0,0,0,0,0,0,0,0,0,0,0,0,0,0,0,0,0,0,0,0,0,0,0,0,0,0,0,0,0,0,0,0,0,0,0,0,0,0,0,0,0,0,0,0,0,0,0,0,0,0,0,0,0,0,0],"sum_hessian":[2.2022E4,1.2794E4,9.228E3,6.878E3,5.916E3,6.517E3,2.711E3,2.801E3,4.077E3,1.547E3,4.369E3,2.591E3,3.926E3,1.751E3,9.6E2,1.704E3,1.097E3,2.073E3,2.004E3,7.29E2,8.18E2,2.856E3,1.513E3,2.201E3,3.9E2,2.916E3,1.01E3,4.53E2,1.298E3,7.55E2,2.05E2,4.25E2,6.72E2,2.036E3,3.7E1,2E3,4E0,7.15E2,1.4E1,7.09E2,1.09E2,1.618E3,1.238E3,1.405E3,1.08E2,2.124E3,7.7E1,2.74E2,1.16E2,6.42E2,2.274E3,1.72E2,8.38E2,1.6E1,4.37E2,2.8E1,1.27E3,6.64E2,9.1E1,5.7E1,1.48E2,7.2E1,3.53E2,6.69E2,3E0,1.048E3,9.88E2,3E0,3.4E1,4.65E2,1.535E3,1.49E2,5.66E2,7E0,7E0,7.06E2,3E0,7.5E1,3.4E1,5.66E2,1.052E3,1.093E3,1.45E2,6.07E2,7.98E2,7.7E1,3.1E1,3.9E2,1.734E3,4.8E1,2.9E1,2.59E2,1.5E1,1E2,1.6E1,3E0,6.39E2,2.4E1,2.25E3,1.65E2,7E0,2.06E2,6.32E2,6E0,1E1,2.1E1,4.16E2,2.1E1,7E0,4.6E1,1.224E3,3E1,6.34E2,7.3E1,1.8E1,2.9E1,2.8E1,1.26E2,2.2E1],"tree_param":{"num_deleted":"0","num_feature":"17","num_nodes":"119","size_leaf_vector":"1"}},{"base_weights":[2.4861103E-4,-3.9008814E-1,6.896896E-1,-7.210936E-1,-9.6736066E-2,4.578385E-1,1.1418588E0,-9.1738343E-1,-5.7852334E-1,-3.222943E-1,1.1440076E-2,3.597535E-1,6.809111E-1,9.815932E-1,1.5389558E0,-9.443848E-1,-7.805952E-1,-6.672903E-1,-5.093647E-1,-3.755243E-1,-1.532813E-1,-7.908997E-2,1.6190885E-1,2.6015216E-1,4.499901E-1,5.661689E-1,8.586237E-1,9.59266E-1,1.7990179E0,1.4384941E0,2.1517587E0,-9.633916E-2,-8.9154273E-1,-7.9104805E-1,3.1928156E-2,-6.9957066E-1,-5.697798E-1,-6.554111E-1,-4.601261E-1,-4.0464547E-1,-1.9418806E-1,-4.631909E-1,-3.545903E-2,-1.1212663E-1,1.8373609E-1,2.0384805E-1,-9.724363E-3,2.1803844E-1,5.715187E-1,1.5707647E0,4.4442976E-1,3.9663577E-1,6.734561E-1,6.08148E-1,1.093724E0,1.6129218E0,9.360191E-1,1.9706029E0,1.95627E-2,1.3640863E0,1.7568891E0,2.2900136E0,9.68223E-1,-8.0192484E-2,-9.202542E-2,-8.047707E-2,-2.4854967E-2,-6.631542E-2,-7.734813E-2,-4.8397247E-2,-7.285788E-2,-6.686227E-2,1.9018386E-2,-3.4861483E-2,-4.945255E-2,-4.087313E-2,9.474027E-2,-1.2439539E-2,-6.4534605E-2,-6.61138E-2,-2.5572956E-2,4.865511E-2,-1.0860169E-2,-8.724782E-3,-2.8468627E-2,7.72101E-3,5.6826193E-2,1.7902058E-2,5.625195E-2,-4.549652E-2,4.036158E-3,-5.4569566E-3,2.5200332E-2,7.230943E-2,1.9523814E-2,3.183852E-1,-3.3647582E-2,3.6626343E-2,5.1254988E-2,4.5390967E-2,-1.8294197E-2,6.336537E-2,1.15883484E-1,3.6266964E-2,8.828029E-2,1.3251488E-1,8.662612E-2,1.8194048E-1,1.6075678E-2,1.7302241E-2,9.512886E-2,7.073604E-2,2.1442464E-1,1.3946411E-1,9.406477E-3,2.0379539E-1,1.2036603E-1,1.02170125E-1,2.3781553E-1,-1.3545595E-2,1.4849088E-1],"categories":[],"categories_nodes":[],"categories_segments":[],"categories_sizes":[],"default_left":[0,0,0,0,0,0,0,0,0,0,0,0,0,0,0,0,0,0,0,0,0,0,0,0,0,0,0,0,0,0,0,0,0,0,0,0,0,0,0,0,0,0,0,0,0,0,0,0,0,0,0,0,0,0,0,0,0,0,0,0,0,0,0,0,0,0,0,0,0,0,0,0,0,0,0,0,0,0,0,0,0,0,0,0,0,0,0,0,0,0,0,0,0,0,0,0,0,0,0,0,0,0,0,0,0,0,0,0,0,0,0,0,0,0,0,0,0,0,0,0,0],"id":3,"left_children":[1,3,5,7,9,11,13,15,17,19,21,23,25,27,29,31,33,35,37,39,41,43,45,47,49,51,53,55,57,59,61,-1,63,65,-1,67,69,71,73,75,77,79,81,83,85,87,89,91,93,95,97,99,101,103,105,107,109,111,-1,113,115,117,119,-1,-1,-1,-1,-1,-1,-1,-1,-1,-1,-1,-1,-1,-1,-1,-1,-1,-1,-1,-1,-1,-1,-1,-1,-1,-1,-1,-1,-1,-1,-1,-1,-1,-1,-1,-1,-1,-1,-1,-1,-1,-1,-1,-1,-1,-1,-1,-1,-1,-1,-1,-1,-1,-1,-1,-1,-1,-1],"loss_changes":[5.93615E3,1.3674207E3,8.3527856E2,1.8449731E2,1.8225412E2,1.1502466E2,1.7019507E2,9.3654785E0,2.3091675E1,2.1670242E1,6.878467E1,3.27518E1,3.2180786E1,3.3185913E1,4.4257324E1,1.2836914E0,5.645813E0,4.75E0,1.5126892E1,9.578064E0,2.1185007E1,2.7381926E1,1.3676304E1,2.2678299E1,1.1071869E1,1.7469025E1,3.620453E1,2.6787598E1,1.3153763E1,1.3140625E1,1.4965271E1,0E0,7.05719E-1,3.1265564E0,0E0,2.718628E0,5.2899933E0,6.230011E0,5.957489E0,9.083771E0,7.9350414E0,6.3098564E0,1.6165695E1,1.1962891E1,1.4310203E1,1.34051285E1,8.377839E0,1.4283249E1,1.1573219E1,2.9044939E1,9.910553E0,1.2823692E1,1.065863E1,2.0253792E1,1.5635834E1,1.8399887E1,2.0891968E1,8.0690155E0,0E0,2.0946411E1,1.634848E1,7.8504333E0,7.749402E0,0E0,0E0,0E0,0E0,0E0,0E0,0E0,0E0,0E0,0E0,0E0,0E0,0E0,0E0,0E0,0E0,0E0,0E0,0E0,0E0,0E0,0E0,0E0,0E0,0E0,0E0,0E0,0E0,0E0,0E0,0E0,0E0,0E0,0E0,0E0,0E0,0E0,0E0,0E0,0E0,0E0,0E0,0E0,0E0,0E0,0E0,0E0,0E0,0E0,0E0,0E0,0E0,0E0,0E0,0E0,0E0,0E0,0E0],"parents":[2147483647,0,0,1,1,2,2,3,3,4,4,5,5,6,6,7,7,8,8,9,9,10,10,11,11,12,12,13,13,14,14,15,15,16,16,17,17,18,18,19,19,20,20,21,21,22,22,23,23,24,24,25,25,26,26,27,27,28,28,29,29,30,30,32,32,33,33,35,35,36,36,37,37,38,38,39,39,40,40,41,41,42,42,43,43,44,44,45,45,46,46,47,47,48,48,49,49,50,50,51,51,52,52,53,53,54,54,55,55,56,56,57,57,59,59,60,60,61,61,62,62],"right_children":[2,4,6,8,10,12,14,16,18,20,22,24,26,28,30,32,34,36,38,40,42,44,46,48,50,52,54,56,58,60,62,-1,64,66,-1,68,70,72,74,76,78,80,82,84,86,88,90,92,94,96,98,100,102,104,106,108,110,112,-1,114,116,118,120,-1,-1,-1,-1,-1,-1,-1,-1,-1,-1,-1,-1,-1,-1,-1,-1,-1,-1,-1,-1,-1,-1,-1,-1,-1,-1,-1,-1,-1,-1,-1,-1,-1,-1,-1,-1,-1,-1,-1,-1,-1,-1,-1,-1,-1,-1,-1,-1,-1,-1,-1,-1,-1,-1,-1,-1,-1,-1],"split_conditions":[4.5E0,2.1E0,2.3695652E0,7E-1,2.9E0,6E0,8.7E0,1.6666667E-1,4.0697673E-1,1.3333334E0,1.4210526E0,1.76E0,2.1190476E0,3.5964913E0,2.3323808E0,2.5316456E-2,3.06E1,6E-1,3.3333334E-1,1.125E0,7.1428573E-1,1.045977E0,1.5E0,3E0,6E-1,2.95E1,2.6E0,2E-1,4.2E0,1.06E1,6.3333335E0,-9.633916E-2,9.1E0,8E0,3.1928156E-2,1.89E1,3E0,1.4177446E0,-2.820513E-1,1.9209373E0,3.03E1,1E0,7.8571427E-1,4E0,2.87E1,5E0,1.63E1,9.165151E-1,1.6195652E0,1.627882E0,-2.0253165E-1,2.1656408E0,7.9E0,6.6E0,1.6401219E0,3.1935484E0,2.09E1,2.69E1,1.95627E-2,6E0,4.5833334E-1,2.58E1,3.24E1,-8.0192484E-2,-9.202542E-2,-8.047707E-2,-2.4854967E-2,-6.631542E-2,-7.734813E-2,-4.8397247E-2,-7.285788E-2,-6.686227E-2,1.9018386E-2,-3.4861483E-2,-4.945255E-2,-4.087313E-2,9.474027E-2,-1.2439539E-2,-6.4534605E-2,-6.61138E-2,-2.5572956E-2,4.865511E-2,-1.0860169E-2,-8.724782E-3,-2.8468627E-2,7.72101E-3,5.6826193E-2,1.7902058E-2,5.625195E-2,-4.549652E-2,4.036158E-3,-5.4569566E-3,2.5200332E-2,7.230943E-2,1.9523814E-2,3.183852E-1,-3.3647582E-2,3.6626343E-2,5.1254988E-2,4.5390967E-2,-1.8294197E-2,6.336537E-2,1.15883484E-1,3.6266964E-2,8.828029E-2,1.3251488E-1,8.662612E-2,1.8194048E-1,1.6075678E-2,1.7302241E-2,9.512886E-2,7.073604E-2,2.1442464E-1,1.3946411E-1,9.406477E-3,2.0379539E-1,1.2036603E-1,1.02170125E-1,2.3781553E-1,-1.3545595E-2,1.4849088E-1],"split_indices":[6,6,3,6,6,6,6,3,3,0,3,3,3,3,4,3,15,1,0,3,3,8,4,0,1,15,1,14,1,6,0,0,15,12,0,15,9,4,8,4,15,4,3,9,15,12,15,4,3,4,8,4,6,6,4,3,15,15,0,13,8,15,15,0,0,0,0,0,0,0,0,0,0,0,0,0,0,0,0,0,0,0,0,0,0,0,0,0,0,0,0,0,0,0,0,0,0,0,0,0,0,0,0,0,0,0,0,0,0,0,0,0,0,0,0,0,0,0,0,0,0],"split_type":[0,0,0,0,0,0,0,0,0,0,0,0,0,0,0,0,0,0,0,0,0,0,0,0,0,0,0,0,0,0,0,0,0,0,0,0,0,0,0,0,0,0,0,0,0,0,0,0,0,0,0,0,0,0,0,0,0,0,0,0,0,0,0,0,0,0,0,0,0,0,0,0,0,0,0,0,0,0,0,0,0,0,0,0,0,0,0,0,0,0,0,0,0,0,0,0,0,0,0,0,0,0,0,0,0,0,0,0,0,0,0,0,0,0,0,0,0,0,0,0,0],"sum_hessian":[2.2056E4,1.4083E4,7.973E3,6.616E3,7.467E3,5.272E3,2.701E3,2.781E3,3.835E3,2.42E3,5.047E3,3.664E3,1.608E3,1.927E3,7.74E2,2.317E3,4.64E2,1.675E3,2.16E3,1.839E3,5.81E2,3.151E3,1.896E3,1.744E3,1.92E3,9.8E2,6.28E2,1.878E3,4.9E1,6.68E2,1.06E2,1.69E3,6.27E2,4.6E2,4E0,1.253E3,4.22E2,5.41E2,1.619E3,1.583E3,2.56E2,1.59E2,4.22E2,2.8E3,3.51E2,1.524E3,3.72E2,1.538E3,2.06E2,8E0,1.912E3,3.82E2,5.98E2,3.06E2,3.22E2,6.2E1,1.816E3,4.4E1,5E0,5.46E2,1.22E2,9.4E1,1.2E1,1.6E2,4.67E2,4.48E2,1.2E1,8.47E2,4.06E2,2.77E2,1.45E2,5.33E2,8E0,3.85E2,1.234E3,1.579E3,4E0,2.23E2,3.3E1,8E1,7.9E1,5.1E1,3.71E2,2.449E3,3.51E2,2.76E2,7.5E1,1.427E3,9.7E1,3.7E1,3.35E2,1.7E2,1.368E3,1.46E2,6E1,4E0,4E0,8.94E2,1.018E3,3.48E2,3.4E1,5.55E2,4.3E1,1.63E2,1.43E2,1.57E2,1.65E2,5.4E1,8E0,3.6E1,1.78E3,6E0,3.8E1,5.33E2,1.3E1,7.9E1,4.3E1,7E0,8.7E1,4E0,8E0],"tree_param":{"num_deleted":"0","num_feature":"17","num_nodes":"121","size_leaf_vector":"1"}},{"base_weights":[-5.6929205E-4,-3.508411E-1,6.178759E-1,-6.4547247E-1,-9.011802E-2,4.2755097E-1,1.0417883E0,-8.1420636E-1,-5.055648E-1,-2.9650974E-1,1.3407808E-2,3.1249407E-1,6.0529625E-1,7.990548E-1,1.2527395E0,-8.4088737E-1,-6.6292006E-1,-5.939401E-1,-4.2254263E-1,-3.3289403E-1,-1.2975003E-1,-7.463106E-2,1.6567609E-1,2.6104856E-1,4.494364E-1,-1.1697057E-1,6.2355864E-1,8.932994E-3,8.2814133E-1,1.1805868E0,1.7296441E0,-8.657652E-2,-7.899313E-1,-3.207615E-1,-6.793708E-1,-8.772877E-1,-5.855364E-1,-4.3568128E-1,1.4289314E-1,-6.2861365E-1,-3.0760375E-1,-1.0651405E-1,-7.882767E-1,-1.038142E-1,1.5458211E-1,5.2571565E-1,1.3720126E-1,6.482803E-3,3.128915E-1,1.4026436E0,4.3396387E-1,-6.9787395E-1,1.9008872E-1,5.5991906E-1,7.9744995E-1,-2.5160787E-1,1.6307795E-1,6.6585803E-1,9.703887E-1,-2.1770619E-2,1.1857492E0,6.500005E-1,1.8137287E0,-7.2061785E-2,-8.328869E-2,3.385615E-2,-7.016379E-2,-6.894377E-2,-2.2231733E-2,-9.103951E-2,-3.9048526E-2,-6.0231782E-2,-4.839071E-2,-5.689558E-2,-3.9452534E-2,-3.0843943E-2,4.841902E-2,-7.282609E-2,-3.7141375E-2,-3.516547E-2,-1.431265E-2,1.3813634E-1,-1.2027562E-2,-9.956462E-2,-1.5440846E-2,-5.6342807E-2,-9.673597E-3,1.6703747E-1,1.2794583E-2,-6.973045E-2,6.1036743E-2,1.5320897E-2,-4.6320587E-2,1.1696997E-2,-2.4821538E-2,3.0366464E-2,1.3172138E-1,2.5008675E-1,5.0353378E-2,4.8225574E-2,1.9312179E-2,-9.213435E-2,3.4547284E-2,6.918484E-2,-2.4091143E-2,7.7151336E-2,4.952441E-2,8.571138E-2,1.3860929E-2,9.028129E-2,-6.584864E-2,4.9710896E-2,8.106928E-2,8.9386486E-2,1.9433577E-1,1.7019817E-1,1.163482E-1,1.16531484E-1,-4.906283E-2,2.1639267E-1,1.5094356E-1],"categories":[],"categories_nodes":[],"categories_segments":[],"categories_sizes":[],"default_left":[0,0,0,0,0,0,0,0,0,0,0,0,0,0,0,0,0,0,0,0,0,0,0,0,0,0,0,0,0,0,0,0,0,0,0,0,0,0,0,0,0,0,0,0,0,0,0,0,0,0,0,0,0,0,0,0,0,0,0,0,0,0,0,0,0,0,0,0,0,0,0,0,0,0,0,0,0,0,0,0,0,0,0,0,0,0,0,0,0,0,0,0,0,0,0,0,0,0,0,0,0,0,0,0,0,0,0,0,0,0,0,0,0,0,0,0,0,0,0,0,0],"id":4,"left_children":[1,3,5,7,9,11,13,15,17,19,21,23,25,27,29,31,33,35,37,39,41,43,45,47,49,51,53,55,57,59,61,-1,63,65,67,69,71,73,75,77,79,81,83,85,87,89,91,93,95,97,99,101,103,105,107,109,-1,111,113,-1,115,117,119,-1,-1,-1,-1,-1,-1,-1,-1,-1,-1,-1,-1,-1,-1,-1,-1,-1,-1,-1,-1,-1,-1,-1,-1,-1,-1,-1,-1,-1,-1,-1,-1,-1,-1,-1,-1,-1,-1,-1,-1,-1,-1,-1,-1,-1,-1,-1,-1,-1,-1,-1,-1,-1,-1,-1,-1,-1,-1],"loss_changes":[4.7754478E3,1.0809934E3,6.425166E2,1.5542896E2,1.5960013E2,1.1225989E2,1.25218994E2,1.1373413E1,2.617102E1,1.5048767E1,6.670056E1,2.336325E1,2.8627869E1,2.6361084E1,4.305371E1,2.3704834E0,2.2375336E0,3.5023193E0,1.3969055E1,1.5022186E1,6.696938E0,2.1095207E1,1.8551094E1,3.207541E1,1.264357E1,9.815512E0,2.2745667E1,1.8295639E1,2.4813843E1,8.648926E0,1.4098297E1,0E0,1.7633667E0,6.0496273E0,1.7432251E0,2.880211E-1,2.5009155E0,9.694855E0,6.7905726E0,3.72023E0,1.35794525E1,8.946886E0,1.7029333E0,8.9788265E0,1.3979983E1,1.4186508E1,1.6292416E1,1.1638092E1,1.8166092E1,1.2264223E1,1.0283707E1,4.805855E0,7.9970746E0,2.0661713E1,2.187326E1,1.7949293E1,0E0,1.2224304E1,4.1833374E1,0E0,1.0895142E1,8.868158E0,1.3203308E1,0E0,0E0,0E0,0E0,0E0,0E0,0E0,0E0,0E0,0E0,0E0,0E0,0E0,0E0,0E0,0E0,0E0,0E0,0E0,0E0,0E0,0E0,0E0,0E0,0E0,0E0,0E0,0E0,0E0,0E0,0E0,0E0,0E0,0E0,0E0,0E0,0E0,0E0,0E0,0E0,0E0,0E0,0E0,0E0,0E0,0E0,0E0,0E0,0E0,0E0,0E0,0E0,0E0,0E0,0E0,0E0,0E0,0E0],"parents":[2147483647,0,0,1,1,2,2,3,3,4,4,5,5,6,6,7,7,8,8,9,9,10,10,11,11,12,12,13,13,14,14,15,15,16,16,17,17,18,18,19,19,20,20,21,21,22,22,23,23,24,24,25,25,26,26,27,27,28,28,29,29,30,30,32,32,33,33,34,34,35,35,36,36,37,37,38,38,39,39,40,40,41,41,42,42,43,43,44,44,45,45,46,46,47,47,48,48,49,49,50,50,51,51,52,52,53,53,54,54,55,55,57,57,58,58,60,60,61,61,62,62],"right_children":[2,4,6,8,10,12,14,16,18,20,22,24,26,28,30,32,34,36,38,40,42,44,46,48,50,52,54,56,58,60,62,-1,64,66,68,70,72,74,76,78,80,82,84,86,88,90,92,94,96,98,100,102,104,106,108,110,-1,112,114,-1,116,118,120,-1,-1,-1,-1,-1,-1,-1,-1,-1,-1,-1,-1,-1,-1,-1,-1,-1,-1,-1,-1,-1,-1,-1,-1,-1,-1,-1,-1,-1,-1,-1,-1,-1,-1,-1,-1,-1,-1,-1,-1,-1,-1,-1,-1,-1,-1,-1,-1,-1,-1,-1,-1,-1,-1,-1,-1,-1,-1],"split_conditions":[4.5E0,7E-1,6.9E0,8E-1,2.9E0,2.0142858E0,2.8043478E0,2E-1,1.5E0,1.0847458E0,1.4324324E0,2.2E0,8E-1,1.76E0,3.935484E0,2E-1,2E-1,9.677419E-2,3.1E0,3.3333334E-1,1.5524175E0,1.045977E0,5.483871E1,1.3E0,8.062258E-1,3.22E1,2.45E0,1E0,1E0,6.666667E-1,3.499271E1,-8.657652E-2,1.17E1,4.4E0,3.03E1,1.3E0,6.111111E-1,4.1666666E-1,-5.897436E-1,7.9816514E-1,1.2857143E2,1.6E0,1.9595917E0,5E-1,8E-1,-7.741935E-1,3.57E1,5.2E0,4E0,6E-1,1E0,4.965253E1,-5.7894737E-1,5.4948982E1,8.7447464E1,1.5223881E0,1.6307795E-1,3.22E1,8.8E0,-2.1770619E-2,2.4E0,4.5E0,1E0,-7.2061785E-2,-8.328869E-2,3.385615E-2,-7.016379E-2,-6.894377E-2,-2.2231733E-2,-9.103951E-2,-3.9048526E-2,-6.0231782E-2,-4.839071E-2,-5.689558E-2,-3.9452534E-2,-3.0843943E-2,4.841902E-2,-7.282609E-2,-3.7141375E-2,-3.516547E-2,-1.431265E-2,1.3813634E-1,-1.2027562E-2,-9.956462E-2,-1.5440846E-2,-5.6342807E-2,-9.673597E-3,1.6703747E-1,1.2794583E-2,-6.973045E-2,6.1036743E-2,1.5320897E-2,-4.6320587E-2,1.1696997E-2,-2.4821538E-2,3.0366464E-2,1.3172138E-1,2.5008675E-1,5.0353378E-2,4.8225574E-2,1.9312179E-2,-9.213435E-2,3.4547284E-2,6.918484E-2,-2.4091143E-2,7.7151336E-2,4.952441E-2,8.571138E-2,1.3860929E-2,9.028129E-2,-6.584864E-2,4.9710896E-2,8.106928E-2,8.9386486E-2,1.9433577E-1,1.7019817E-1,1.163482E-1,1.16531484E-1,-4.906283E-2,2.1639267E-1,1.5094356E-1],"split_indices":[6,2,6,6,6,3,3,3,6,3,3,2,4,3,3,6,14,3,6,0,4,8,5,3,4,15,3,10,12,0,5,0,15,15,15,6,3,3,8,3,5,6,4,3,4,8,15,6,0,14,10,5,8,5,5,3,0,15,6,0,2,2,12,0,0,0,0,0,0,0,0,0,0,0,0,0,0,0,0,0,0,0,0,0,0,0,0,0,0,0,0,0,0,0,0,0,0,0,0,0,0,0,0,0,0,0,0,0,0,0,0,0,0,0,0,0,0,0,0,0,0],"split_type":[0,0,0,0,0,0,0,0,0,0,0,0,0,0,0,0,0,0,0,0,0,0,0,0,0,0,0,0,0,0,0,0,0,0,0,0,0,0,0,0,0,0,0,0,0,0,0,0,0,0,0,0,0,0,0,0,0,0,0,0,0,0,0,0,0,0,0,0,0,0,0,0,0,0,0,0,0,0,0,0,0,0,0,0,0,0,0,0,0,0,0,0,0,0,0,0,0,0,0,0,0,0,0,0,0,0,0,0,0,0,0,0,0,0,0,0,0,0,0,0,0],"sum_hessian":[2.2043E4,1.4073E4,7.97E3,6.606E3,7.467E3,5.502E3,2.468E3,2.992E3,3.614E3,2.494E3,4.973E3,3.342E3,2.16E3,1.15E3,1.318E3,2.539E3,4.53E2,1.747E3,1.867E3,2.046E3,4.48E2,3.151E3,1.822E3,2.432E3,9.1E2,5.3E1,2.107E3,4.1E1,1.109E3,1.148E3,1.7E2,1.694E3,8.45E2,2.2E1,4.31E2,4.7E1,1.7E3,1.825E3,4.2E1,1.59E2,1.887E3,4.34E2,1.4E1,2.796E3,3.55E2,1.32E2,1.69E3,4.12E2,2.02E3,1.3E1,8.97E2,1.8E1,3.5E1,1.546E3,5.61E2,3.6E1,5E0,5.21E2,5.88E2,4E0,1.144E3,1.3E1,1.57E2,3.31E2,5.14E2,8E0,1.4E1,4.21E2,1E1,4.3E1,4E0,1.454E3,2.46E2,4.27E2,1.398E3,1.8E1,2.4E1,1.13E2,4.6E1,1.487E3,4E2,3E0,4.31E2,1E1,4E0,4.1E1,2.755E3,5E0,3.5E2,8E0,1.24E2,1.647E3,4.3E1,2.88E2,1.24E2,2.003E3,1.7E1,5E0,8E0,7.46E2,1.51E2,1.5E1,3E0,1.6E1,1.9E1,3.59E2,1.187E3,5.14E2,4.7E1,9E0,2.7E1,2.43E2,2.78E2,5.47E2,4.1E1,4.4E1,1.1E3,9E0,4E0,7E1,8.7E1],"tree_param":{"num_deleted":"0","num_feature":"17","num_nodes":"121","size_leaf_vector":"1"}},{"base_weights":[5.8251396E-3,-3.453649E-1,5.268306E-1,-5.7849336E-1,-1.0595337E-1,3.4687215E-1,8.928432E-1,-7.426921E-1,-4.5925876E-1,-2.998412E-1,-2.1742415E-2,2.0328845E-1,4.216558E-1,7.856911E-1,1.198753E0,-7.789517E-2,-6.849533E-1,-4.6566394E-1,5.0548226E-1,-2.0445144E-1,-3.514715E-1,-8.523567E-2,3.9929565E-2,1.8818024E-1,7.172085E-1,3.8095233E-1,5.683598E-1,2.1939416E-1,8.0937105E-1,1.1372069E0,1.5971854E0,-6.639525E-1,-7.3887813E-1,-5.502077E-1,-4.1322023E-1,-0E0,1.0164081E0,1.9076808E-1,-2.4694426E-1,-4.9693355E-1,-2.87059E-1,4.31717E-2,-1.4800158E-1,4.1862822E-1,1.0543415E-2,-1.6811375E-1,2.0595789E-1,1.3500707E0,-5.503604E-3,3.7336454E-1,1.3688875E0,1.451384E0,5.364326E-1,4.543838E-1,-6.090392E-1,1.5327239E0,7.948274E-1,1.1907614E0,6.075249E-1,1.11854E0,2.0063736E0,-6.665497E-2,-1.9250238E-2,-7.3811905E-3,-7.614455E-2,-5.5745214E-2,-1.040222E-2,-3.617992E-2,-4.5748014E-2,2.3958046E-2,-6.765379E-2,1.5961832E-1,5.7306574E-3,-1.2826425E-2,8.248863E-2,-3.545666E-2,-1.4772828E-2,1.5543276E-2,-5.384006E-2,-3.589532E-2,-7.87585E-3,-5.6155645E-3,3.2793026E-2,-1.7118474E-2,1.1833083E-2,1.4509146E-1,3.4957413E-2,1.105856E-2,-4.6673217E-3,6.042653E-2,-4.10533E-2,-1.4012602E-2,2.3152659E-2,-0E0,1.5472718E-1,1.0586058E-1,-2.8720587E-2,3.019916E-2,4.6135984E-2,2.51323E-1,7.0491076E-2,7.950207E-2,2.1903677E-1,4.451151E-2,7.709196E-2,-7.066892E-2,5.5610772E-2,-9.368444E-2,-0E0,1.726601E-1,1.2965445E-2,6.885538E-2,8.962832E-2,-3.5971653E-2,1.20719686E-1,2.905084E-1,4.425622E-2,1.5523288E-1,3.0376285E-2,2.9814026E-1,1.3995525E-1],"categories":[],"categories_nodes":[],"categories_segments":[],"categories_sizes":[],"default_left":[0,0,0,0,0,0,0,0,0,0,0,0,0,0,0,0,0,0,0,0,0,0,0,0,0,0,0,0,0,0,0,0,0,0,0,0,0,0,0,0,0,0,0,0,0,0,0,0,0,0,0,0,0,0,0,0,0,0,0,0,0,0,0,0,0,0,0,0,0,0,0,0,0,0,0,0,0,0,0,0,0,0,0,0,0,0,0,0,0,0,0,0,0,0,0,0,0,0,0,0,0,0,0,0,0,0,0,0,0,0,0,0,0,0,0,0,0,0,0,0,0],"id":5,"left_children":[1,3,5,7,9,11,13,15,17,19,21,23,25,27,29,-1,31,33,35,37,39,41,43,45,47,49,51,53,55,57,59,61,63,65,67,69,71,73,75,77,79,81,83,85,87,89,91,93,95,97,99,101,103,105,107,109,111,113,115,117,119,-1,-1,-1,-1,-1,-1,-1,-1,-1,-1,-1,-1,-1,-1,-1,-1,-1,-1,-1,-1,-1,-1,-1,-1,-1,-1,-1,-1,-1,-1,-1,-1,-1,-1,-1,-1,-1,-1,-1,-1,-1,-1,-1,-1,-1,-1,-1,-1,-1,-1,-1,-1,-1,-1,-1,-1,-1,-1,-1,-1],"loss_changes":[4.051565E3,7.3811743E2,5.868369E2,1.3073193E2,1.0653079E2,6.405255E1,9.516406E1,5.2176514E0,2.423816E1,9.60434E0,1.7832449E1,1.5691536E1,2.3156006E1,2.8939697E1,1.6546875E1,0E0,6.1035156E-1,1.679071E1,6.78679E0,1.1758137E1,1.1772003E1,1.8102629E1,2.5648363E1,1.2662209E1,2.6669764E1,2.2403107E1,2.3014435E1,1.7587189E1,2.054663E1,1.7875671E1,1.6833054E1,7.6535034E-1,4.3179016E0,4.6403503E0,5.1851196E0,2.4622006E0,6.972001E0,1.3932152E1,6.6244392E0,1.0699196E1,1.3256241E1,2.0891132E1,9.336575E0,1.1145826E1,1.2283973E1,1.801645E1,1.684568E1,8.1359215E0,8.620235E0,1.8990051E1,1.538237E1,1.2026283E1,1.7157974E1,8.645558E0,3.991231E0,1.0471428E1,2.1349243E1,1.5808533E1,2.2257278E1,1.6308025E1,2.6156006E1,0E0,0E0,0E0,0E0,0E0,0E0,0E0,0E0,0E0,0E0,0E0,0E0,0E0,0E0,0E0,0E0,0E0,0E0,0E0,0E0,0E0,0E0,0E0,0E0,0E0,0E0,0E0,0E0,0E0,0E0,0E0,0E0,0E0,0E0,0E0,0E0,0E0,0E0,0E0,0E0,0E0,0E0,0E0,0E0,0E0,0E0,0E0,0E0,0E0,0E0,0E0,0E0,0E0,0E0,0E0,0E0,0E0,0E0,0E0,0E0],"parents":[2147483647,0,0,1,1,2,2,3,3,4,4,5,5,6,6,7,7,8,8,9,9,10,10,11,11,12,12,13,13,14,14,16,16,17,17,18,18,19,19,20,20,21,21,22,22,23,23,24,24,25,25,26,26,27,27,28,28,29,29,30,30,31,31,32,32,33,33,34,34,35,35,36,36,37,37,38,38,39,39,40,40,41,41,42,42,43,43,44,44,45,45,46,46,47,47,48,48,49,49,50,50,51,51,52,52,53,53,54,54,55,55,56,56,57,57,58,58,59,59,60,60],"right_children":[2,4,6,8,10,12,14,16,18,20,22,24,26,28,30,-1,32,34,36,38,40,42,44,46,48,50,52,54,56,58,60,62,64,66,68,70,72,74,76,78,80,82,84,86,88,90,92,94,96,98,100,102,104,106,108,110,112,114,116,118,120,-1,-1,-1,-1,-1,-1,-1,-1,-1,-1,-1,-1,-1,-1,-1,-1,-1,-1,-1,-1,-1,-1,-1,-1,-1,-1,-1,-1,-1,-1,-1,-1,-1,-1,-1,-1,-1,-1,-1,-1,-1,-1,-1,-1,-1,-1,-1,-1,-1,-1,-1,-1,-1,-1,-1,-1,-1,-1,-1,-1],"split_conditions":[4.2E0,7E-1,6.6E0,7E-1,2.7E0,4.9E0,8.7E0,2E-1,3.3E0,1.52E1,1.3333334E0,1.7671233E0,4E0,1E0,2.3323808E0,-7.789517E-2,1.91E1,1.3E0,2.25E1,7.3275864E-1,1.83E1,-6.698113E-1,-2.882883E-1,6.666667E-1,2E0,4.6666665E0,-1.4380952E0,1.7735602E0,8.75E-1,4.8E0,4.6666665E0,1.7735602E0,-2.631579E-1,1E0,-2.4242425E-1,8E-1,1E0,5.3333335E-2,1E0,5.5755395E-1,2E0,2.82E1,5E0,6.72043E-1,5E-1,8.3870965E-1,1.2E0,3E0,1.4E0,6E-1,3E0,1.2E0,2.6E0,1.8E0,9.803922E-2,1.3894081E0,7.4E0,2.5E0,9.1E0,-1.3725491E-1,1.2619047E0,-6.665497E-2,-1.9250238E-2,-7.3811905E-3,-7.614455E-2,-5.5745214E-2,-1.040222E-2,-3.617992E-2,-4.5748014E-2,2.3958046E-2,-6.765379E-2,1.5961832E-1,5.7306574E-3,-1.2826425E-2,8.248863E-2,-3.545666E-2,-1.4772828E-2,1.5543276E-2,-5.384006E-2,-3.589532E-2,-7.87585E-3,-5.6155645E-3,3.2793026E-2,-1.7118474E-2,1.1833083E-2,1.4509146E-1,3.4957413E-2,1.105856E-2,-4.6673217E-3,6.042653E-2,-4.10533E-2,-1.4012602E-2,2.3152659E-2,-0E0,1.5472718E-1,1.0586058E-1,-2.8720587E-2,3.019916E-2,4.6135984E-2,2.51323E-1,7.0491076E-2,7.950207E-2,2.1903677E-1,4.451151E-2,7.709196E-2,-7.066892E-2,5.5610772E-2,-9.368444E-2,-0E0,1.726601E-1,1.2965445E-2,6.885538E-2,8.962832E-2,-3.5971653E-2,1.20719686E-1,2.905084E-1,4.425622E-2,1.5523288E-1,3.0376285E-2,2.9814026E-1,1.3995525E-1],"split_indices":[6,2,6,6,6,6,6,6,6,15,0,8,11,11,4,0,15,6,15,16,15,8,8,0,2,0,8,16,16,1,0,16,8,1,8,1,12,8,7,16,12,15,12,16,14,16,2,11,4,14,11,1,1,1,8,8,6,2,6,8,8,0,0,0,0,0,0,0,0,0,0,0,0,0,0,0,0,0,0,0,0,0,0,0,0,0,0,0,0,0,0,0,0,0,0,0,0,0,0,0,0,0,0,0,0,0,0,0,0,0,0,0,0,0,0,0,0,0,0,0,0],"split_type":[0,0,0,0,0,0,0,0,0,0,0,0,0,0,0,0,0,0,0,0,0,0,0,0,0,0,0,0,0,0,0,0,0,0,0,0,0,0,0,0,0,0,0,0,0,0,0,0,0,0,0,0,0,0,0,0,0,0,0,0,0,0,0,0,0,0,0,0,0,0,0,0,0,0,0,0,0,0,0,0,0,0,0,0,0,0,0,0,0,0,0,0,0,0,0,0,0,0,0,0,0,0,0,0,0,0,0,0,0,0,0,0,0,0,0,0,0,0,0,0,0],"sum_hessian":[2.2141E4,1.3226E4,8.915E3,6.7E3,6.526E3,5.978E3,2.937E3,2.816E3,3.884E3,1.975E3,4.551E3,2.049E3,3.929E3,2.178E3,7.59E2,1.721E3,1.095E3,3.859E3,2.5E1,6.96E2,1.279E3,2.243E3,2.308E3,1.992E3,5.7E1,3.079E3,8.5E2,8.8E1,2.09E3,6.61E2,9.8E1,7.99E2,2.96E2,1.473E3,2.386E3,1.3E1,1.2E1,6.7E1,6.29E2,3.9E2,8.89E2,7.36E2,1.507E3,1.65E2,2.143E3,9.4E1,1.898E3,3E1,2.7E1,3.057E3,2.2E1,2.8E1,8.22E2,6.9E1,1.9E1,3.9E1,2.051E3,5.99E2,6.2E1,4.7E1,5.1E1,7.94E2,5E0,1E1,2.86E2,1.449E3,2.4E1,1.109E3,1.277E3,1E1,3E0,7E0,5E0,4.5E1,2.2E1,3E2,3.29E2,2.3E1,3.67E2,6.6E2,2.29E2,5.46E2,1.9E2,1.387E3,1.2E2,9E0,1.56E2,7.8E2,1.363E3,2.2E1,7.2E1,1.3E2,1.768E3,4E0,2.6E1,5E0,2.2E1,1.691E3,1.366E3,7E0,1.5E1,1.6E1,1.2E1,5.94E2,2.28E2,5E0,6.4E1,1.2E1,7E0,3.4E1,5E0,1.006E3,1.045E3,6E0,5.93E2,3E0,5.9E1,3E1,1.7E1,1.8E1,3.3E1],"tree_param":{"num_deleted":"0","num_feature":"17","num_nodes":"121","size_leaf_vector":"1"}},{"base_weights":[-4.234038E-3,-2.848883E-1,4.894596E-1,-5.0824654E-1,-6.910861E-2,3.0553007E-1,8.072809E-1,-6.6290224E-1,-4.0250582E-1,-2.131248E-1,1.4148349E-3,1.6938262E-1,3.5825613E-1,7.034362E-1,1.0823209E0,-6.9965206E-2,-6.053861E-1,-4.368863E-1,-2.4979731E-1,-2.832835E-1,-1.225657E-1,-4.265992E-2,8.1123464E-2,1.0783696E0,1.5008551E-1,1.4923744E-1,3.8444394E-1,7.401467E-1,2.4917018E-1,1.0149579E0,1.4922855E0,-5.711626E-1,-6.833687E-1,-3.8678154E-1,-4.730242E-1,-2.667207E-1,4.9269268E-1,-2.4870205E-1,-6.4140177E-1,-9.98008E-3,-2.0905466E-1,-3.447068E-1,-3.0345777E-2,5.125147E-1,4.799287E-2,1.6018407E0,5.4668427E-1,-1.930305E-2,2.2406377E-1,5.019676E-2,1.0773844E0,5.173948E-1,3.4791693E-1,1.5294436E0,7.228363E-1,-1.0518689E0,3.25224E-1,1.0386249E0,2.1015738E-1,4.2841226E-1,1.6419294E0,-6.007756E-2,-4.8528988E-2,-7.028555E-2,-5.2737933E-2,-9.214343E-3,-4.02821E-2,-4.233859E-2,-5.281482E-2,-1.7498156E-4,-3.0719865E-2,1.0475805E-1,-6.825315E-2,-2.5347924E-2,1.22043684E-1,-7.199244E-2,-1.0429794E-2,-5.011725E-2,2.89555E-3,-2.3754695E-2,1.57836E-2,-8.560308E-2,-2.7364848E-2,1.3386257E-3,-1.1634449E-2,1.0049217E-2,7.8068726E-2,3.7595534E-3,5.469891E-2,1.9653486E-1,5.3445723E-2,-5.3636306E-3,1.5728246E-1,1.7587388E-2,-1.962989E-2,1.8474834E-2,9.659436E-2,-5.9312224E-2,1.1563751E-2,2.633681E-1,7.6811485E-2,6.2335033E-2,2.0736953E-2,2.8996611E-2,4.3386143E-2,1.8706009E-1,4.198695E-2,6.1105896E-2,8.327165E-2,-5.1460784E-2,-1.21806495E-1,6.51324E-2,1.721E-2,1.0782989E-1,5.8471113E-2,-7.982241E-2,5.814156E-2,1.0513928E-1,-2.3561982E-2,3.3095157E-1,1.4724617E-1],"categories":[],"categories_nodes":[],"categories_segments":[],"categories_sizes":[],"default_left":[0,0,0,0,0,0,0,0,0,0,0,0,0,0,0,0,0,0,0,0,0,0,0,0,0,0,0,0,0,0,0,0,0,0,0,0,0,0,0,0,0,0,0,0,0,0,0,0,0,0,0,0,0,0,0,0,0,0,0,0,0,0,0,0,0,0,0,0,0,0,0,0,0,0,0,0,0,0,0,0,0,0,0,0,0,0,0,0,0,0,0,0,0,0,0,0,0,0,0,0,0,0,0,0,0,0,0,0,0,0,0,0,0,0,0,0,0,0,0,0,0],"id":6,"left_children":[1,3,5,7,9,11,13,15,17,19,21,23,25,27,29,-1,31,33,35,37,39,41,43,45,47,49,51,53,55,57,59,61,63,65,67,69,71,73,75,77,79,81,83,85,87,89,91,93,95,97,99,101,103,105,107,109,111,113,115,117,119,-1,-1,-1,-1,-1,-1,-1,-1,-1,-1,-1,-1,-1,-1,-1,-1,-1,-1,-1,-1,-1,-1,-1,-1,-1,-1,-1,-1,-1,-1,-1,-1,-1,-1,-1,-1,-1,-1,-1,-1,-1,-1,-1,-1,-1,-1,-1,-1,-1,-1,-1,-1,-1,-1,-1,-1,-1,-1,-1,-1],"loss_changes":[3.037709E3,6.7359326E2,4.6413928E2,1.11941895E2,7.224448E1,3.6030365E1,8.223096E1,5.336792E0,2.125354E1,1.4779198E1,1.677903E1,2.4412777E1,1.9748016E1,3.5020386E1,2.0217407E1,0E0,2.4066162E0,5.76062E0,9.570587E0,1.604914E1,9.937383E0,1.1385618E1,2.4230465E1,6.9807816E0,1.7317677E1,3.7154423E1,1.5385284E1,2.5421509E1,1.610127E1,1.2742249E1,1.6601776E1,1.5528412E0,5.033417E-1,6.5390167E0,4.9594727E0,7.8732414E0,1.183751E1,8.648727E0,4.6925926E0,8.591422E0,6.087618E0,4.012841E0,1.1125307E1,1.3203096E1,8.123571E0,4.131653E0,1.0092489E1,1.4545678E1,2.773627E1,1.5513371E1,1.6408138E1,2.2519089E1,1.2412567E1,1.4505653E1,2.290393E1,3.522873E-3,7.3954945E0,1.1214966E1,8.304188E0,6.534493E0,2.1778473E1,0E0,0E0,0E0,0E0,0E0,0E0,0E0,0E0,0E0,0E0,0E0,0E0,0E0,0E0,0E0,0E0,0E0,0E0,0E0,0E0,0E0,0E0,0E0,0E0,0E0,0E0,0E0,0E0,0E0,0E0,0E0,0E0,0E0,0E0,0E0,0E0,0E0,0E0,0E0,0E0,0E0,0E0,0E0,0E0,0E0,0E0,0E0,0E0,0E0,0E0,0E0,0E0,0E0,0E0,0E0,0E0,0E0,0E0,0E0,0E0],"parents":[2147483647,0,0,1,1,2,2,3,3,4,4,5,5,6,6,7,7,8,8,9,9,10,10,11,11,12,12,13,13,14,14,16,16,17,17,18,18,19,19,20,20,21,21,22,22,23,23,24,24,25,25,26,26,27,27,28,28,29,29,30,30,31,31,32,32,33,33,34,34,35,35,36,36,37,37,38,38,39,39,40,40,41,41,42,42,43,43,44,44,45,45,46,46,47,47,48,48,49,49,50,50,51,51,52,52,53,53,54,54,55,55,56,56,57,57,58,58,59,59,60,60],"right_children":[2,4,6,8,10,12,14,16,18,20,22,24,26,28,30,-1,32,34,36,38,40,42,44,46,48,50,52,54,56,58,60,62,64,66,68,70,72,74,76,78,80,82,84,86,88,90,92,94,96,98,100,102,104,106,108,110,112,114,116,118,120,-1,-1,-1,-1,-1,-1,-1,-1,-1,-1,-1,-1,-1,-1,-1,-1,-1,-1,-1,-1,-1,-1,-1,-1,-1,-1,-1,-1,-1,-1,-1,-1,-1,-1,-1,-1,-1,-1,-1,-1,-1,-1,-1,-1,-1,-1,-1,-1,-1,-1,-1,-1,-1,-1,-1,-1,-1,-1,-1,-1],"split_conditions":[4.5E0,2.2E0,6.6E0,7E-1,3E0,5E0,8.7E0,2E-1,1E0,1.5151516E-2,1.6E0,6.72043E-1,2E0,5E0,2.3323808E0,-6.9965206E-2,1.87E1,-2.4242425E-1,8E0,3.26E1,1.87E1,3.3333334E-1,-5.595238E-1,2.21E1,3E0,4E0,5.483871E1,8.8E-1,3.903124E1,6.546537E1,2.96E1,4E-1,1.5238096E-1,9.3541435E1,1.5612495E2,2E0,1.23827835E2,1.9209373E0,-6.0606062E-2,6.532663E-1,3.39E1,6.081081E-1,2.3809524E-2,1E0,1.8714286E0,1.6666666E0,1.6666666E0,7.45356E1,1.5754386E0,2.23E1,1.118034E0,3E0,5.8E0,7.4638695E1,7.4E0,3.9473686E-1,-2.882883E-1,4.8E0,1.8574176E0,1E0,3.15E1,-6.007756E-2,-4.8528988E-2,-7.028555E-2,-5.2737933E-2,-9.214343E-3,-4.02821E-2,-4.233859E-2,-5.281482E-2,-1.7498156E-4,-3.0719865E-2,1.0475805E-1,-6.825315E-2,-2.5347924E-2,1.22043684E-1,-7.199244E-2,-1.0429794E-2,-5.011725E-2,2.89555E-3,-2.3754695E-2,1.57836E-2,-8.560308E-2,-2.7364848E-2,1.3386257E-3,-1.1634449E-2,1.0049217E-2,7.8068726E-2,3.7595534E-3,5.469891E-2,1.9653486E-1,5.3445723E-2,-5.3636306E-3,1.5728246E-1,1.7587388E-2,-1.962989E-2,1.8474834E-2,9.659436E-2,-5.9312224E-2,1.1563751E-2,2.633681E-1,7.6811485E-2,6.2335033E-2,2.0736953E-2,2.8996611E-2,4.3386143E-2,1.8706009E-1,4.198695E-2,6.1105896E-2,8.327165E-2,-5.1460784E-2,-1.21806495E-1,6.51324E-2,1.721E-2,1.0782989E-1,5.8471113E-2,-7.982241E-2,5.814156E-2,1.0513928E-1,-2.3561982E-2,3.3095157E-1,1.4724617E-1],"split_indices":[6,6,6,6,6,6,6,6,0,8,1,16,11,9,4,0,15,8,12,15,15,0,8,15,11,12,5,16,5,5,15,4,8,5,5,9,5,4,8,16,15,16,8,0,16,0,0,5,8,15,4,9,6,5,6,8,8,1,4,7,15,0,0,0,0,0,0,0,0,0,0,0,0,0,0,0,0,0,0,0,0,0,0,0,0,0,0,0,0,0,0,0,0,0,0,0,0,0,0,0,0,0,0,0,0,0,0,0,0,0,0,0,0,0,0,0,0,0,0,0,0],"split_type":[0,0,0,0,0,0,0,0,0,0,0,0,0,0,0,0,0,0,0,0,0,0,0,0,0,0,0,0,0,0,0,0,0,0,0,0,0,0,0,0,0,0,0,0,0,0,0,0,0,0,0,0,0,0,0,0,0,0,0,0,0,0,0,0,0,0,0,0,0,0,0,0,0,0,0,0,0,0,0,0,0,0,0,0,0,0,0,0,0,0,0,0,0,0,0,0,0,0,0,0,0,0,0,0,0,0,0,0,0,0,0,0,0,0,0,0,0,0,0,0,0],"sum_hessian":[2.1922E4,1.3977E4,7.945E3,6.867E3,7.11E3,5.034E3,2.911E3,2.786E3,4.081E3,2.337E3,4.773E3,1.407E3,3.627E3,2.116E3,7.95E2,1.692E3,1.094E3,3.329E3,7.52E2,1.315E3,1.022E3,3.073E3,1.7E3,2.8E1,1.379E3,4.05E2,3.222E3,1.957E3,1.59E2,6.86E2,1.09E2,7.67E2,3.27E2,1.401E3,1.928E3,7.36E2,1.6E1,1.201E3,1.14E2,4.45E2,5.77E2,1.19E2,2.954E3,1.2E2,1.58E3,1.3E1,1.5E1,4.19E2,9.6E2,3.67E2,3.8E1,6.91E2,2.531E3,4E1,1.917E3,8E0,1.51E2,6.66E2,2E1,1.4E1,9.5E1,5.65E2,2.02E2,2.87E2,4E1,7.3E1,1.328E3,1.02E3,9.08E2,9.8E1,6.38E2,1.1E1,5E0,1.198E3,3E0,9.9E1,1.5E1,3.2E1,4.13E2,5.36E2,4.1E1,1.3E1,1.06E2,1.958E3,9.96E2,4.8E1,7.2E1,1.549E3,3.1E1,9E0,4E0,1E1,5E0,1.99E2,2.2E2,9.13E2,4.7E1,3.3E1,3.34E2,5E0,3.3E1,5.14E2,1.77E2,1.515E3,1.016E3,3E1,1E1,9.54E2,9.63E2,3E0,5E0,4.7E1,1.04E2,6.11E2,5.5E1,5E0,1.5E1,7E0,7E0,7E0,8.8E1],"tree_param":{"num_deleted":"0","num_feature":"17","num_nodes":"121","size_leaf_vector":"1"}},{"base_weights":[3.4598208E-3,-2.4927738E-1,4.75815E-1,-4.565619E-1,-3.6526456E-2,3.5149348E-1,8.641773E-1,-5.785182E-1,-3.4428594E-1,-1.08889975E-1,1.2438427E-1,1.7806222E-1,4.1302484E-1,7.477545E-1,1.0481703E0,-6.2586385E-1,-5.025488E-1,-3.0648807E-1,-4.2052352E-1,-2.3688497E-1,-6.78862E-2,1.16826914E-1,1.1405221E0,1.0812107E-1,3.997707E-1,3.6716017E-1,5.701986E-1,7.851836E-1,8.08835E-2,-2.2713318E-2,1.0743155E0,-5.452051E-1,-6.3303536E-1,-4.6366003E-1,-5.565109E-1,-3.6301035E-1,-2.3534873E-1,-4.5870876E-1,-2.7971464E-1,-2.5152043E-1,4.207832E-1,-5.000436E-2,-2.2468872E-1,1.5408926E-1,-4.972848E-2,4.15792E-2,1.3391161E0,2.783273E-1,2.2529172E-2,3.4491515E-1,1.1606388E0,4.239409E-1,2.2015207E-1,2.6975513E-1,7.080619E-1,2.4127734E0,7.6919E-1,4.10288E-1,-5.3213775E-1,-8.932996E-1,9.3601733E-1,9.911652E-1,1.3625755E0,-1.720808E-2,-5.769003E-2,-6.338781E-2,-1.5726864E-2,-3.6866326E-2,-5.0963826E-2,-4.9272347E-2,-5.7819672E-2,-3.918998E-2,-2.4413634E-2,-2.4109717E-2,1.0816709E-1,-2.554431E-2,-4.800783E-2,-1.7654127E-2,-5.4924767E-2,3.5443008E-2,-2.6418883E-2,1.7352606E-1,-5.532307E-3,-1.32982405E-2,1.5165821E-3,-4.8008487E-2,-1.3446271E-2,-7.8238495E-2,1.609329E-2,-9.567882E-3,7.374969E-2,1.6110952E-1,3.673842E-2,3.484196E-2,-5.6638833E-2,-4.7190126E-2,5.5280384E-3,5.206173E-3,4.6874426E-2,1.8737313E-1,4.0542733E-2,6.967223E-2,3.9251518E-2,-1.9877842E-2,2.6489446E-2,1.342839E-2,8.837368E-2,8.7072566E-2,4.8128437E-2,5.5885088E-2,4.1349253E-1,1.656781E-2,7.953499E-2,7.679956E-2,-5.0983813E-2,1.6318249E-2,-7.52125E-2,-1.1359506E-1,-2.2033531E-2,3.717203E-2,1.1395458E-1,1.03075065E-1,-3.0004442E-2,1.7584708E-1,1.0971409E-1],"categories":[],"categories_nodes":[],"categories_segments":[],"categories_sizes":[],"default_left":[0,0,0,0,0,0,0,0,0,0,0,0,0,0,0,0,0,0,0,0,0,0,0,0,0,0,0,0,0,0,0,0,0,0,0,0,0,0,0,0,0,0,0,0,0,0,0,0,0,0,0,0,0,0,0,0,0,0,0,0,0,0,0,0,0,0,0,0,0,0,0,0,0,0,0,0,0,0,0,0,0,0,0,0,0,0,0,0,0,0,0,0,0,0,0,0,0,0,0,0,0,0,0,0,0,0,0,0,0,0,0,0,0,0,0,0,0,0,0,0,0,0,0,0,0],"id":7,"left_children":[1,3,5,7,9,11,13,15,17,19,21,23,25,27,29,31,33,35,37,39,41,43,45,47,49,51,53,55,57,59,61,63,65,67,69,71,73,75,77,79,81,83,85,87,89,-1,91,93,95,97,99,101,103,105,107,109,111,113,115,117,119,121,123,-1,-1,-1,-1,-1,-1,-1,-1,-1,-1,-1,-1,-1,-1,-1,-1,-1,-1,-1,-1,-1,-1,-1,-1,-1,-1,-1,-1,-1,-1,-1,-1,-1,-1,-1,-1,-1,-1,-1,-1,-1,-1,-1,-1,-1,-1,-1,-1,-1,-1,-1,-1,-1,-1,-1,-1,-1,-1,-1,-1,-1,-1],"loss_changes":[2.6283303E3,6.324158E2,3.70089E2,9.917273E1,8.244034E1,6.1921875E1,3.887976E1,1.20896E1,1.0705353E1,2.5586033E1,1.660479E1,2.355347E1,3.0629639E1,2.8379578E1,2.0232483E1,7.74353E-1,2.4561462E0,1.0047836E1,6.524246E0,1.14852295E1,1.0338594E1,1.3553921E1,1.5705471E0,1.6877409E1,1.4683441E1,2.7596771E1,3.9764465E1,2.5991394E1,1.2725926E1,1.585571E1,1.5216187E1,1.9900322E0,6.057739E-1,3.1617432E0,3.7712097E-1,4.682953E0,8.701462E0,4.0693207E0,7.338787E0,8.981575E0,1.6535599E1,1.7988976E1,8.584387E0,1.149081E1,1.4439519E1,0E0,2.38175E0,2.3148272E1,1.2517958E1,1.2325733E1,1.1937275E1,2.0165558E1,1.747239E1,2.523164E1,2.3865906E1,2.9147186E1,1.6712402E1,1.3911945E1,3.546784E0,1.2470365E0,4.5893574E-1,2.8392273E1,1.396814E1,0E0,0E0,0E0,0E0,0E0,0E0,0E0,0E0,0E0,0E0,0E0,0E0,0E0,0E0,0E0,0E0,0E0,0E0,0E0,0E0,0E0,0E0,0E0,0E0,0E0,0E0,0E0,0E0,0E0,0E0,0E0,0E0,0E0,0E0,0E0,0E0,0E0,0E0,0E0,0E0,0E0,0E0,0E0,0E0,0E0,0E0,0E0,0E0,0E0,0E0,0E0,0E0,0E0,0E0,0E0,0E0,0E0,0E0,0E0,0E0,0E0,0E0],"parents":[2147483647,0,0,1,1,2,2,3,3,4,4,5,5,6,6,7,7,8,8,9,9,10,10,11,11,12,12,13,13,14,14,15,15,16,16,17,17,18,18,19,19,20,20,21,21,22,22,23,23,24,24,25,25,26,26,27,27,28,28,29,29,30,30,31,31,32,32,33,33,34,34,35,35,36,36,37,37,38,38,39,39,40,40,41,41,42,42,43,43,44,44,46,46,47,47,48,48,49,49,50,50,51,51,52,52,53,53,54,54,55,55,56,56,57,57,58,58,59,59,60,60,61,61,62,62],"right_children":[2,4,6,8,10,12,14,16,18,20,22,24,26,28,30,32,34,36,38,40,42,44,46,48,50,52,54,56,58,60,62,64,66,68,70,72,74,76,78,80,82,84,86,88,90,-1,92,94,96,98,100,102,104,106,108,110,112,114,116,118,120,122,124,-1,-1,-1,-1,-1,-1,-1,-1,-1,-1,-1,-1,-1,-1,-1,-1,-1,-1,-1,-1,-1,-1,-1,-1,-1,-1,-1,-1,-1,-1,-1,-1,-1,-1,-1,-1,-1,-1,-1,-1,-1,-1,-1,-1,-1,-1,-1,-1,-1,-1,-1,-1,-1,-1,-1,-1,-1,-1,-1,-1,-1,-1],"split_conditions":[4.6E0,2.3E0,2.6111112E0,1E0,1.4210526E0,1.6851852E0,8.7E0,9.677419E-2,3E0,8.181818E-1,2.4E0,4E0,6.8E0,6E0,2.7E0,7.5E0,2.1343747E2,1.8E0,7.8571427E-1,4.2E0,3.27E1,1.5362291E0,4.3E0,6.4816536E1,1.11575E2,3E0,3.01E1,1E-1,1.693989E0,9E0,3.935484E0,3.5714287E-1,3E-1,8.3E0,6.3095236E-1,8E-1,1.6155494E0,7.5E0,1.1428572E0,1.03E1,1.1E0,2.12E1,7.745967E-1,1.11E1,1.7600574E0,4.15792E-2,1.6089965E0,1.6290323E0,1.0198039E0,2E0,5E0,8.6757994E-1,2.22E1,4E0,2.9E0,6.2609905E1,2.28E1,6.959705E1,4.209157E1,2.6666667E0,9.4E0,4.6E0,3.34E1,-1.720808E-2,-5.769003E-2,-6.338781E-2,-1.5726864E-2,-3.6866326E-2,-5.0963826E-2,-4.9272347E-2,-5.7819672E-2,-3.918998E-2,-2.4413634E-2,-2.4109717E-2,1.0816709E-1,-2.554431E-2,-4.800783E-2,-1.7654127E-2,-5.4924767E-2,3.5443008E-2,-2.6418883E-2,1.7352606E-1,-5.532307E-3,-1.32982405E-2,1.5165821E-3,-4.8008487E-2,-1.3446271E-2,-7.8238495E-2,1.609329E-2,-9.567882E-3,7.374969E-2,1.6110952E-1,3.673842E-2,3.484196E-2,-5.6638833E-2,-4.7190126E-2,5.5280384E-3,5.206173E-3,4.6874426E-2,1.8737313E-1,4.0542733E-2,6.967223E-2,3.9251518E-2,-1.9877842E-2,2.6489446E-2,1.342839E-2,8.837368E-2,8.7072566E-2,4.8128437E-2,5.5885088E-2,4.1349253E-1,1.656781E-2,7.953499E-2,7.679956E-2,-5.0983813E-2,1.6318249E-2,-7.52125E-2,-1.1359506E-1,-2.2033531E-2,3.717203E-2,1.1395458E-1,1.03075065E-1,-3.0004442E-2,1.7584708E-1,1.0971409E-1],"split_indices":[6,6,3,6,3,3,6,3,9,3,2,11,6,9,2,15,5,6,3,6,15,4,6,5,5,9,15,14,16,6,3,16,2,15,16,4,4,15,3,15,4,15,4,15,16,0,16,16,4,9,6,16,15,0,2,5,15,5,5,0,6,2,15,0,0,0,0,0,0,0,0,0,0,0,0,0,0,0,0,0,0,0,0,0,0,0,0,0,0,0,0,0,0,0,0,0,0,0,0,0,0,0,0,0,0,0,0,0,0,0,0,0,0,0,0,0,0,0,0,0,0,0,0,0,0],"split_type":[0,0,0,0,0,0,0,0,0,0,0,0,0,0,0,0,0,0,0,0,0,0,0,0,0,0,0,0,0,0,0,0,0,0,0,0,0,0,0,0,0,0,0,0,0,0,0,0,0,0,0,0,0,0,0,0,0,0,0,0,0,0,0,0,0,0,0,0,0,0,0,0,0,0,0,0,0,0,0,0,0,0,0,0,0,0,0,0,0,0,0,0,0,0,0,0,0,0,0,0,0,0,0,0,0,0,0,0,0,0,0,0,0,0,0,0,0,0,0,0,0,0,0,0,0],"sum_hessian":[2.2014E4,1.4341E4,7.673E3,7.263E3,7.078E3,5.814E3,1.859E3,3.479E3,3.784E3,4.883E3,2.195E3,1.524E3,4.29E3,1.142E3,7.17E2,2.138E3,1.341E3,2.534E3,1.25E3,1.183E3,3.7E3,2.18E3,1.5E1,1.16E3,3.64E2,3.324E3,9.66E2,1.081E3,6.1E1,1.7E1,7E2,1.82E2,1.956E3,7.86E2,5.55E2,1.409E3,1.125E3,9.81E2,2.69E2,1.158E3,2.5E1,3.323E3,3.77E2,1.782E3,3.98E2,4E0,1.1E1,3.87E2,7.73E2,3.41E2,2.3E1,2.396E3,9.28E2,3.05E2,6.61E2,9E0,1.072E3,4E1,2.1E1,9E0,8E0,5.47E2,1.53E2,1.5E1,1.67E2,1.952E3,4E0,2.6E2,5.26E2,1.48E2,4.07E2,1.131E3,2.78E2,1.121E3,4E0,9.5E1,8.86E2,1.96E2,7.3E1,2.3E1,1.135E3,6E0,1.9E1,1.462E3,1.861E3,9.7E1,2.8E2,1.2E1,1.77E3,3.77E2,2.1E1,8E0,3E0,3.58E2,2.9E1,4.7E1,7.26E2,1.02E2,2.39E2,1.1E1,1.2E1,2.45E2,2.151E3,8.9E1,8.39E2,2.51E2,5.4E1,3.83E2,2.78E2,5E0,4E0,4.5E1,1.027E3,2.9E1,1.1E1,5E0,1.6E1,6E0,3E0,3E0,5E0,5.31E2,1.6E1,5.9E1,9.4E1],"tree_param":{"num_deleted":"0","num_feature":"17","num_nodes":"125","size_leaf_vector":"1"}},{"base_weights":[-2.4933433E-3,-2.2838436E-1,4.181723E-1,-3.84921E-1,-4.374686E-3,2.7714056E-1,7.213429E-1,-5.1542586E-1,-2.8796682E-1,-3.0445766E-2,7.79292E-2,2.225667E-1,3.641319E-1,7.654836E-2,7.439644E-1,-5.515607E-1,-4.2613003E-1,-2.3831697E-1,-3.3910105E-1,-8.089504E-2,1.0724548E-2,6.910566E-2,7.182549E-1,1.333086E-1,2.7777717E-1,-4.6446785E-2,3.9011294E-1,-6.5121645E-1,1.9650218E-1,6.5850437E-1,9.3164206E-1,-5.680672E-2,-5.1897424E-1,-4.5924968E-1,-2.979424E-1,-2.5719973E-1,-1.19930476E-1,-3.8377297E-1,-2.774569E-1,-1.2802453E-2,-1.4655007E-1,-4.402012E-2,6.439852E-2,1.11843966E-1,-5.0223038E-2,9.9756604E-1,-5.535533E-2,2.4285212E-1,1.2567963E-1,5.645889E-1,2.501643E-1,1.0575606E0,-1.5633538E-1,4.1554758E-1,-1.53572755E-2,-3.1197316E-3,-8.4331197E-1,1.9436719E-1,9.242818E-2,6.1736745E-1,9.059655E-1,9.489426E-1,-2.8422752E-1,-4.407597E-2,-5.3344782E-2,-4.7908656E-2,-2.6485011E-2,-2.197294E-2,-5.1187832E-2,-2.6058251E-2,1.2058198E-1,-8.532449E-3,-5.9033837E-2,-4.9021434E-2,-3.521656E-2,-3.2373562E-2,-1.55513985E-2,5.9999127E-2,-2.2947988E-3,-3.9496854E-2,-1.1762853E-2,1.484475E-3,-1.618874E-2,-5.867453E-3,1.3084114E-2,4.071523E-2,8.680562E-3,-4.533651E-2,5.0394316E-3,3.0157318E-2,1.3750045E-1,2.016589E-2,2.0425606E-3,1.0777956E-1,3.5398956E-2,3.538849E-2,1.46514615E-2,-4.2488568E-2,1.6790886E-1,-3.4553062E-2,1.7266938E-2,9.508849E-3,4.6009593E-2,6.0415532E-2,-1.17365895E-2,-1.12556E-1,-3.724015E-2,1.13407426E-1,-2.1383543E-3,7.075868E-2,4.779605E-2,2.3090174E-2,1.0060711E-1,1.0075029E-1,5.53714E-2,1.2778289E-2,-6.655333E-2],"categories":[],"categories_nodes":[],"categories_segments":[],"categories_sizes":[],"default_left":[0,0,0,0,0,0,0,0,0,0,0,0,0,0,0,0,0,0,0,0,0,0,0,0,0,0,0,0,0,0,0,0,0,0,0,0,0,0,0,0,0,0,0,0,0,0,0,0,0,0,0,0,0,0,0,0,0,0,0,0,0,0,0,0,0,0,0,0,0,0,0,0,0,0,0,0,0,0,0,0,0,0,0,0,0,0,0,0,0,0,0,0,0,0,0,0,0,0,0,0,0,0,0,0,0,0,0,0,0,0,0,0,0,0,0,0,0],"id":8,"left_children":[1,3,5,7,9,11,13,15,17,19,21,23,25,27,29,31,33,35,37,39,41,43,45,47,49,51,53,55,57,59,61,-1,63,65,67,69,71,73,75,77,79,81,83,85,87,89,-1,-1,91,93,95,97,99,101,103,-1,105,-1,107,109,111,113,115,-1,-1,-1,-1,-1,-1,-1,-1,-1,-1,-1,-1,-1,-1,-1,-1,-1,-1,-1,-1,-1,-1,-1,-1,-1,-1,-1,-1,-1,-1,-1,-1,-1,-1,-1,-1,-1,-1,-1,-1,-1,-1,-1,-1,-1,-1,-1,-1,-1,-1,-1,-1,-1,-1],"loss_changes":[2.0918525E3,5.0220575E2,3.2854187E2,1.0644861E2,1.2642536E1,2.4789185E1,3.5465942E1,1.1257507E1,1.2149231E1,9.306669E0,7.8775835E0,1.5839233E1,2.1621704E1,7.41554E0,3.704724E1,9.697876E-1,4.2028046E0,5.4306793E0,6.3841248E0,8.981548E0,7.247939E0,7.1465464E0,7.3459806E0,2.1099386E1,1.5569153E1,1.4754666E1,1.9661713E1,1.3154745E0,1.2890692E1,1.58203125E1,1.5796997E1,0E0,6.546173E-1,2.9762878E0,3.4453335E0,1.0711624E1,5.4331794E0,4.3758087E0,5.573311E0,6.111013E0,7.2593613E0,8.481764E0,1.0203804E1,7.5385084E0,1.5030924E1,3.6207905E0,0E0,0E0,9.842125E0,1.8281387E1,1.9474968E1,1.0974042E1,6.986269E0,2.545462E1,7.1633334E0,0E0,6.2726593E-1,0E0,8.434126E0,1.7101013E1,1.5119293E1,1.6065979E1,1.8669405E0,0E0,0E0,0E0,0E0,0E0,0E0,0E0,0E0,0E0,0E0,0E0,0E0,0E0,0E0,0E0,0E0,0E0,0E0,0E0,0E0,0E0,0E0,0E0,0E0,0E0,0E0,0E0,0E0,0E0,0E0,0E0,0E0,0E0,0E0,0E0,0E0,0E0,0E0,0E0,0E0,0E0,0E0,0E0,0E0,0E0,0E0,0E0,0E0,0E0,0E0,0E0,0E0,0E0,0E0],"parents":[2147483647,0,0,1,1,2,2,3,3,4,4,5,5,6,6,7,7,8,8,9,9,10,10,11,11,12,12,13,13,14,14,15,15,16,16,17,17,18,18,19,19,20,20,21,21,22,22,23,23,24,24,25,25,26,26,27,27,28,28,29,29,30,30,32,32,33,33,34,34,35,35,36,36,37,37,38,38,39,39,40,40,41,41,42,42,43,43,44,44,45,45,48,48,49,49,50,50,51,51,52,52,53,53,54,54,56,56,58,58,59,59,60,60,61,61,62,62],"right_children":[2,4,6,8,10,12,14,16,18,20,22,24,26,28,30,32,34,36,38,40,42,44,46,48,50,52,54,56,58,60,62,-1,64,66,68,70,72,74,76,78,80,82,84,86,88,90,-1,-1,92,94,96,98,100,102,104,-1,106,-1,108,110,112,114,116,-1,-1,-1,-1,-1,-1,-1,-1,-1,-1,-1,-1,-1,-1,-1,-1,-1,-1,-1,-1,-1,-1,-1,-1,-1,-1,-1,-1,-1,-1,-1,-1,-1,-1,-1,-1,-1,-1,-1,-1,-1,-1,-1,-1,-1,-1,-1,-1,-1,-1,-1,-1,-1,-1],"split_conditions":[4.6E0,2.7E0,6.9E0,3E-1,1.6E0,5.8E0,1E0,6E-1,1.3416408E2,3.4E0,2.4E0,5E-1,2.25E1,2E0,8.8E0,2E-1,1.3E0,8E-1,6E-1,1E0,1E0,1.56205E0,3.2E0,3.3333332E1,8.299595E-1,1.7E0,9.545214E1,7.1E0,2.4E0,2.0712316E0,8E0,-5.680672E-2,5.344828E-1,4E0,2.62E1,7E0,1.5310651E0,2E0,2.1E0,1.05E1,4E-1,1.1830357E0,2.24E1,1.2E0,9.583333E-1,4.3E0,-5.535533E-2,2.4285212E-1,1.2121212E0,2.47E1,6.984907E1,6E0,8.164966E1,2E0,2E0,-3.1197316E-3,2.83E1,1.9436719E-1,7.1E0,1.5310651E0,1.1217948E0,4.8E0,3.4E1,-4.407597E-2,-5.3344782E-2,-4.7908656E-2,-2.6485011E-2,-2.197294E-2,-5.1187832E-2,-2.6058251E-2,1.2058198E-1,-8.532449E-3,-5.9033837E-2,-4.9021434E-2,-3.521656E-2,-3.2373562E-2,-1.55513985E-2,5.9999127E-2,-2.2947988E-3,-3.9496854E-2,-1.1762853E-2,1.484475E-3,-1.618874E-2,-5.867453E-3,1.3084114E-2,4.071523E-2,8.680562E-3,-4.533651E-2,5.0394316E-3,3.0157318E-2,1.3750045E-1,2.016589E-2,2.0425606E-3,1.0777956E-1,3.5398956E-2,3.538849E-2,1.46514615E-2,-4.2488568E-2,1.6790886E-1,-3.4553062E-2,1.7266938E-2,9.508849E-3,4.6009593E-2,6.0415532E-2,-1.17365895E-2,-1.12556E-1,-3.724015E-2,1.13407426E-1,-2.1383543E-3,7.075868E-2,4.779605E-2,2.3090174E-2,1.0060711E-1,1.0075029E-1,5.53714E-2,1.2778289E-2,-6.655333E-2],"split_indices":[6,6,6,2,2,6,11,6,5,6,2,14,15,1,6,6,6,14,1,12,7,4,1,5,16,2,5,6,2,4,12,0,16,12,15,12,16,11,6,15,14,16,15,1,16,6,0,0,16,15,5,6,5,11,11,0,15,0,6,16,16,1,15,0,0,0,0,0,0,0,0,0,0,0,0,0,0,0,0,0,0,0,0,0,0,0,0,0,0,0,0,0,0,0,0,0,0,0,0,0,0,0,0,0,0,0,0,0,0,0,0,0,0,0,0,0,0],"split_type":[0,0,0,0,0,0,0,0,0,0,0,0,0,0,0,0,0,0,0,0,0,0,0,0,0,0,0,0,0,0,0,0,0,0,0,0,0,0,0,0,0,0,0,0,0,0,0,0,0,0,0,0,0,0,0,0,0,0,0,0,0,0,0,0,0,0,0,0,0,0,0,0,0,0,0,0,0,0,0,0,0,0,0,0,0,0,0,0,0,0,0,0,0,0,0,0,0,0,0,0,0,0,0,0,0,0,0,0,0,0,0,0,0,0,0,0,0],"sum_hessian":[2.2012E4,1.4322E4,7.69E3,8.43E3,5.892E3,5.25E3,2.44E3,3.591E3,4.839E3,4.476E3,1.416E3,3.229E3,2.021E3,8.3E1,2.357E3,2.552E3,1.039E3,2.459E3,2.38E3,2.012E3,2.464E3,1.398E3,1.8E1,1.236E3,1.993E3,1.2E2,1.901E3,1.1E1,7.2E1,1.623E3,7.34E2,1.681E3,8.71E2,8.23E2,2.16E2,2.119E3,3.4E2,1.376E3,1.004E3,9.89E2,1.023E3,1.219E3,1.245E3,1.03E3,3.68E2,1.5E1,3E0,3E0,1.233E3,1.73E2,1.82E3,1E1,1.1E2,1.789E3,1.12E2,3E0,8E0,3E0,6.9E1,1.395E3,2.28E2,7.24E2,1E1,1.42E2,7.29E2,7.45E2,7.8E1,1.6E2,5.6E1,2.115E3,4E0,3.18E2,2.2E1,3.11E2,1.065E3,7.26E2,2.78E2,1.5E1,9.74E2,1.05E2,9.18E2,8.13E2,4.06E2,4.36E2,8.09E2,7.9E1,9.51E2,7.3E1,2.95E2,6E0,9E0,7.15E2,5.18E2,4.9E1,1.24E2,9.08E2,9.12E2,3E0,7E0,7E1,4E1,2.19E2,1.57E3,1.5E1,9.7E1,4E0,4E0,6E0,6.3E1,8.44E2,5.51E2,3E1,1.98E2,6.29E2,9.5E1,5E0,5E0],"tree_param":{"num_deleted":"0","num_feature":"17","num_nodes":"117","size_leaf_vector":"1"}},{"base_weights":[4.091401E-3,-2.0148951E-1,3.8712007E-1,-3.4902775E-1,-4.3937378E-3,2.3019643E-1,5.9372807E-1,-4.6395734E-1,-2.5314397E-1,-5.9888262E-2,1.08665414E-1,1.7747964E-1,3.297246E-1,4.655829E-1,7.3031396E-1,-5.079023E-1,-4.09004E-1,-2.8662062E-1,-1.9403677E-1,-1.14782475E-1,4.9389903E-3,2.1392624E-1,4.3058544E-2,-3.0294332E-1,1.8704677E-1,2.798268E-1,6.177356E-1,6.6058144E-2,5.043548E-1,6.954652E-1,1.0374967E0,-3.7707025E-1,-5.1138204E-1,-4.1323414E-1,4.0179086E-1,-3.483591E-1,-2.64735E-1,-2.8977856E-1,-1.4262351E-1,-1.659431E-1,-3.551866E-2,-1.12165004E-1,3.801862E-2,1.2443416E-1,4.2592955E-1,-1.6837703E-1,1.24732725E-1,8.842149E-2,-3.8871104E-1,6.8467695E-1,1.7919552E-1,1.0165639E0,2.5839064E-1,9.370637E-1,3.275053E-1,1.5028639E-1,-4.3776855E-1,1.7546676E0,4.861126E-1,7.82744E-1,5.7101434E-1,2.3107657E0,8.603666E-1,-5.0466787E-2,1.4577637E-2,-5.118506E-2,-2.014958E-2,-4.30625E-2,-3.388999E-2,-1.4502917E-2,1.1465732E-1,-3.92069E-2,-2.3841908E-2,-2.3713438E-2,-3.308864E-2,-2.3775933E-2,-4.9903035E-2,-8.0274E-3,-2.8168753E-2,-1.8945534E-2,7.203245E-3,-4.6706263E-2,-1.2561333E-3,-2.882896E-3,-5.0082386E-2,7.961253E-3,-9.626632E-3,1.114858E-1,9.799819E-3,7.2612174E-2,9.93638E-3,-1.88853E-2,1.2499497E-1,-9.505688E-2,1.3434896E-2,-5.4797273E-2,8.694462E-3,-6.99378E-2,8.878257E-2,7.205055E-3,2.0897757E-2,5.062114E-2,4.0595064E-1,2.89498E-2,-8.770622E-3,1.1609816E-1,3.0676246E-2,1.1560225E-1,1.7561605E-2,-7.459582E-3,4.9961668E-2,3.60163E-2,-6.406513E-2,2.5878552E-1,-1.4392021E-3,1.1914011E-1,4.6838384E-2,6.900584E-2,9.257098E-2,7.714137E-2,4.2094816E-2,2.9794917E-1,1.2255714E-1,-1.1246233E-2,9.846007E-2],"categories":[],"categories_nodes":[],"categories_segments":[],"categories_sizes":[],"default_left":[0,0,0,0,0,0,0,0,0,0,0,0,0,0,0,0,0,0,0,0,0,0,0,0,0,0,0,0,0,0,0,0,0,0,0,0,0,0,0,0,0,0,0,0,0,0,0,0,0,0,0,0,0,0,0,0,0,0,0,0,0,0,0,0,0,0,0,0,0,0,0,0,0,0,0,0,0,0,0,0,0,0,0,0,0,0,0,0,0,0,0,0,0,0,0,0,0,0,0,0,0,0,0,0,0,0,0,0,0,0,0,0,0,0,0,0,0,0,0,0,0,0,0,0,0],"id":9,"left_children":[1,3,5,7,9,11,13,15,17,19,21,23,25,27,29,31,33,35,37,39,41,43,45,47,49,51,53,55,57,59,61,63,65,67,69,71,73,75,77,79,81,83,85,87,89,91,93,-1,95,97,99,101,103,105,107,109,111,113,115,117,119,121,123,-1,-1,-1,-1,-1,-1,-1,-1,-1,-1,-1,-1,-1,-1,-1,-1,-1,-1,-1,-1,-1,-1,-1,-1,-1,-1,-1,-1,-1,-1,-1,-1,-1,-1,-1,-1,-1,-1,-1,-1,-1,-1,-1,-1,-1,-1,-1,-1,-1,-1,-1,-1,-1,-1,-1,-1,-1,-1,-1,-1,-1,-1],"loss_changes":[1.7323722E3,4.1626038E2,2.4890906E2,9.00307E1,3.8462254E1,2.2814056E1,5.7579712E1,8.688904E0,8.733215E0,1.4648243E1,1.3901062E1,1.3185791E1,2.1452148E1,2.6460083E1,1.6265137E1,6.5753174E-1,5.860565E0,3.694641E0,7.884796E0,9.008917E0,7.3027554E0,1.4576767E1,2.1516327E1,5.996065E0,1.0746208E1,1.9982544E1,2.0141327E1,6.5298185E0,3.4549774E1,1.5091431E1,3.40058E1,3.9788694E0,1.1682129E-1,1.9127197E0,3.9317977E0,3.4043274E0,3.713562E0,5.9468803E0,9.097317E0,7.5958786E0,8.624786E0,1.3374153E1,8.227758E0,1.4065277E1,2.2294735E1,1.0207386E1,9.342059E0,0E0,4.108693E0,1.27300415E1,8.7703705E0,5.339549E1,1.3557106E1,1.4316322E1,1.4513276E1,1.0449449E1,3.820292E0,3.2721672E1,1.8544495E1,1.03966675E1,1.756987E1,9.716156E0,1.7480713E1,0E0,0E0,0E0,0E0,0E0,0E0,0E0,0E0,0E0,0E0,0E0,0E0,0E0,0E0,0E0,0E0,0E0,0E0,0E0,0E0,0E0,0E0,0E0,0E0,0E0,0E0,0E0,0E0,0E0,0E0,0E0,0E0,0E0,0E0,0E0,0E0,0E0,0E0,0E0,0E0,0E0,0E0,0E0,0E0,0E0,0E0,0E0,0E0,0E0,0E0,0E0,0E0,0E0,0E0,0E0,0E0,0E0,0E0,0E0,0E0,0E0,0E0],"parents":[2147483647,0,0,1,1,2,2,3,3,4,4,5,5,6,6,7,7,8,8,9,9,10,10,11,11,12,12,13,13,14,14,15,15,16,16,17,17,18,18,19,19,20,20,21,21,22,22,23,23,24,24,25,25,26,26,27,27,28,28,29,29,30,30,31,31,32,32,33,33,34,34,35,35,36,36,37,37,38,38,39,39,40,40,41,41,42,42,43,43,44,44,45,45,46,46,48,48,49,49,50,50,51,51,52,52,53,53,54,54,55,55,56,56,57,57,58,58,59,59,60,60,61,61,62,62],"right_children":[2,4,6,8,10,12,14,16,18,20,22,24,26,28,30,32,34,36,38,40,42,44,46,48,50,52,54,56,58,60,62,64,66,68,70,72,74,76,78,80,82,84,86,88,90,92,94,-1,96,98,100,102,104,106,108,110,112,114,116,118,120,122,124,-1,-1,-1,-1,-1,-1,-1,-1,-1,-1,-1,-1,-1,-1,-1,-1,-1,-1,-1,-1,-1,-1,-1,-1,-1,-1,-1,-1,-1,-1,-1,-1,-1,-1,-1,-1,-1,-1,-1,-1,-1,-1,-1,-1,-1,-1,-1,-1,-1,-1,-1,-1,-1,-1,-1,-1,-1,-1,-1,-1,-1,-1],"split_conditions":[4.6E0,2.6E0,2.2307692E0,3.0555555E-1,1.4444444E0,1.9454546E0,2.75E0,8.163265E-2,7.1428573E-1,1.3333334E0,5E-1,1.8E1,3E0,1.6E0,3.935484E0,3.9215687E-1,1.6666666E0,3.3333334E-1,6E-1,3.4E0,6.938887E1,1E0,6E-1,1.125E0,6.830601E-1,7.565789E-1,5.4433105E1,8E-1,7.5242716E-1,1.693989E0,1.6718266E0,2.5316456E-2,1.3E0,1.3E0,1.457738E2,2.1343747E2,1.6124515E2,6.666667E-1,2.4E0,1.2727273E0,3.3333334E-1,6.635731E1,1.3235294E0,4.2857143E1,2.6E1,1.8039216E0,4E-1,8.842149E-2,3E0,1.0181818E0,4.9E0,8E-1,5E0,1.5724381E0,2.49E1,6E-1,2.2777777E0,8.022066E1,2E-1,3.3333333E0,4.663494E1,3.54E1,1.7600574E0,-5.0466787E-2,1.4577637E-2,-5.118506E-2,-2.014958E-2,-4.30625E-2,-3.388999E-2,-1.4502917E-2,1.1465732E-1,-3.92069E-2,-2.3841908E-2,-2.3713438E-2,-3.308864E-2,-2.3775933E-2,-4.9903035E-2,-8.0274E-3,-2.8168753E-2,-1.8945534E-2,7.203245E-3,-4.6706263E-2,-1.2561333E-3,-2.882896E-3,-5.0082386E-2,7.961253E-3,-9.626632E-3,1.114858E-1,9.799819E-3,7.2612174E-2,9.93638E-3,-1.88853E-2,1.2499497E-1,-9.505688E-2,1.3434896E-2,-5.4797273E-2,8.694462E-3,-6.99378E-2,8.878257E-2,7.205055E-3,2.0897757E-2,5.062114E-2,4.0595064E-1,2.89498E-2,-8.770622E-3,1.1609816E-1,3.0676246E-2,1.1560225E-1,1.7561605E-2,-7.459582E-3,4.9961668E-2,3.60163E-2,-6.406513E-2,2.5878552E-1,-1.4392021E-3,1.1914011E-1,4.6838384E-2,6.900584E-2,9.257098E-2,7.714137E-2,4.2094816E-2,2.9794917E-1,1.2255714E-1,-1.1246233E-2,9.846007E-2],"split_indices":[6,6,3,3,3,3,3,3,3,0,14,15,1,1,3,16,0,0,1,6,5,12,14,3,16,16,5,14,16,16,16,3,6,6,5,5,5,0,6,3,0,5,16,5,15,16,1,0,0,3,6,14,12,16,15,14,3,5,14,0,5,15,16,0,0,0,0,0,0,0,0,0,0,0,0,0,0,0,0,0,0,0,0,0,0,0,0,0,0,0,0,0,0,0,0,0,0,0,0,0,0,0,0,0,0,0,0,0,0,0,0,0,0,0,0,0,0,0,0,0,0,0,0,0,0],"split_type":[0,0,0,0,0,0,0,0,0,0,0,0,0,0,0,0,0,0,0,0,0,0,0,0,0,0,0,0,0,0,0,0,0,0,0,0,0,0,0,0,0,0,0,0,0,0,0,0,0,0,0,0,0,0,0,0,0,0,0,0,0,0,0,0,0,0,0,0,0,0,0,0,0,0,0,0,0,0,0,0,0,0,0,0,0,0,0,0,0,0,0,0,0,0,0,0,0,0,0,0,0,0,0,0,0,0,0,0,0,0,0,0,0,0,0,0,0,0,0,0,0,0,0,0,0],"sum_hessian":[2.1998E4,1.4315E4,7.683E3,8.186E3,6.129E3,4.368E3,3.315E3,3.721E3,4.465E3,4.112E3,2.017E3,2.858E3,1.51E3,1.713E3,1.602E3,2.062E3,1.659E3,2.847E3,1.618E3,2.227E3,1.885E3,7.73E2,1.244E3,5.5E1,2.803E3,1.289E3,2.21E2,1.52E2,1.561E3,1.442E3,1.6E2,5.7E1,2.005E3,1.651E3,8E0,7.4E2,2.107E3,5.63E2,1.055E3,1.352E3,8.75E2,4.14E2,1.471E3,5.45E2,2.28E2,3.46E2,8.98E2,3E0,5.2E1,4.2E1,2.761E3,3.5E1,1.254E3,1.04E2,1.17E2,1.31E2,2.1E1,2.1E1,1.54E3,8.44E2,5.98E2,1.8E1,1.42E2,4.6E1,1.1E1,2.001E3,4E0,1.333E3,3.18E2,5E0,3E0,5.27E2,2.13E2,1.491E3,6.16E2,4.53E2,1.1E2,7.3E2,3.25E2,1.231E3,1.21E2,4.3E1,8.32E2,3.42E2,7.2E1,1.124E3,3.47E2,1.3E1,5.32E2,1.18E2,1.1E2,3.42E2,4E0,7E0,8.91E2,3.9E1,1.3E1,5E0,3.7E1,6.02E2,2.159E3,3.1E1,4E0,1.151E3,1.03E2,7.6E1,2.8E1,1.7E1,1E2,8E1,5.1E1,4E0,1.7E1,1.4E1,7E0,3.6E1,1.504E3,5.16E2,3.28E2,2.54E2,3.44E2,1E1,8E0,1.6E1,1.26E2],"tree_param":{"num_deleted":"0","num_feature":"17","num_nodes":"125","size_leaf_vector":"1"}},{"base_weights":[4.530455E-3,-2.1130507E-1,3.0630457E-1,-3.4691736E-1,-5.593246E-2,1.9816452E-1,5.6411284E-1,-4.1705897E-1,-2.6191702E-1,-1.4934175E-1,-2.525168E-3,8.734349E-2,2.6281855E-1,5.270974E-1,9.463027E-1,-4.423648E-1,-3.2763588E-1,-3.7833878E-1,-2.4819598E-1,-1.8755864E-1,-2.6505208E-2,-2.3845365E-2,1.0816665E-1,8.182182E-3,1.9265626E-1,2.0633945E-1,3.4005195E-1,1.1141189E-1,5.434884E-1,1.2880971E0,6.99573E-1,-4.469272E-1,-2.933837E-1,-3.3271638E-1,4.0802192E-2,-3.8895008E-1,5.4014962E-2,-2.8822157E-1,-1.9498412E-1,-6.6765904E-2,-2.3717858E-1,9.454747E-1,-5.9699513E-2,-4.403069E-2,1.749923E-1,1.304887E-1,-7.2523516E-1,-1.8792883E-1,9.6603386E-2,4.2817834E-1,1.0182124E-1,2.8539726E-1,1.1608899E-1,9.3936473E-1,3.0507016E-1,8.1458354E-1,-1.4992917E-1,4.9947926E-1,7.001487E-1,1.903992E-1,1.4378875E0,5.117977E-1,1.082392E0,-4.0660918E-2,-4.589152E-2,2.0960666E-2,-3.7473615E-2,-2.5585905E-2,-3.6277685E-2,-4.489155E-2,-2.4114868E-2,-2.7583722E-2,-5.380548E-2,-2.227862E-2,-3.479267E-3,-2.670765E-2,1.3030701E-3,-8.632905E-2,-2.2766292E-2,4.4695906E-2,1.7682602E-1,-7.887582E-3,1.1170032E-1,-2.9792503E-2,-3.3460848E-3,8.926213E-3,6.0863044E-2,1.1285541E-2,2.1756998E-1,-8.949754E-2,-1.528116E-2,-3.2621857E-2,-3.3758413E-3,5.0731387E-2,7.030362E-3,4.4365423E-3,5.6839775E-2,-5.541622E-3,1.990562E-2,2.764993E-2,1.4734599E-1,1.5403889E-2,-1.7027808E-2,1.6425015E-1,5.825428E-2,2.8191427E-2,7.0464306E-2,3.0779526E-2,2.1318953E-1,-2.826429E-2,9.014326E-2,5.4704558E-2,2.1906579E-2,1.3645984E-3,7.42205E-2,2.3924986E-1,-6.994805E-2,1.854283E-1,9.101757E-2,1.6053205E-2,8.0401234E-2,1.2571113E-1,-5.467834E-2],"categories":[],"categories_nodes":[],"categories_segments":[],"categories_sizes":[],"default_left":[0,0,0,0,0,0,0,0,0,0,0,0,0,0,0,0,0,0,0,0,0,0,0,0,0,0,0,0,0,0,0,0,0,0,0,0,0,0,0,0,0,0,0,0,0,0,0,0,0,0,0,0,0,0,0,0,0,0,0,0,0,0,0,0,0,0,0,0,0,0,0,0,0,0,0,0,0,0,0,0,0,0,0,0,0,0,0,0,0,0,0,0,0,0,0,0,0,0,0,0,0,0,0,0,0,0,0,0,0,0,0,0,0,0,0,0,0,0,0,0,0,0,0],"id":10,"left_children":[1,3,5,7,9,11,13,15,17,19,21,23,25,27,29,31,33,35,37,39,41,43,45,47,49,51,53,55,57,59,61,63,65,67,-1,69,-1,71,73,75,77,79,81,83,85,87,89,91,93,95,97,99,101,103,105,107,109,111,113,115,117,119,121,-1,-1,-1,-1,-1,-1,-1,-1,-1,-1,-1,-1,-1,-1,-1,-1,-1,-1,-1,-1,-1,-1,-1,-1,-1,-1,-1,-1,-1,-1,-1,-1,-1,-1,-1,-1,-1,-1,-1,-1,-1,-1,-1,-1,-1,-1,-1,-1,-1,-1,-1,-1,-1,-1,-1,-1,-1,-1,-1,-1],"loss_changes":[1.4281279E3,2.6928375E2,2.5471338E2,4.0513916E1,2.971232E1,4.6106308E1,3.756476E1,8.23468E0,4.7779083E0,1.0146454E1,8.9455185E0,1.9786331E1,1.7620117E1,1.666919E1,1.888652E1,1.7720947E0,3.2266083E0,3.3430443E0,5.788742E0,9.855412E0,1.6616194E1,1.2765894E1,1.1420341E1,2.3557247E1,2.1703533E1,1.6715385E1,3.5564987E1,1.764652E1,1.5877136E1,1.5677002E1,9.350372E0,1.0898438E0,3.7778144E0,1.749054E0,0E0,2.6588936E0,0E0,4.6463623E0,5.2752457E0,7.749206E0,6.6650696E0,5.961052E0,1.1266703E1,7.7125626E0,1.0768414E1,2.1055698E1,1.3130722E0,8.950107E0,1.0027659E1,1.5144012E1,1.1293373E1,1.2663475E1,1.1989837E1,2.2404762E1,1.4719452E1,1.6457394E1,9.960014E0,2.454599E1,1.4840988E1,2.7317654E1,1.6933212E1,9.628391E0,1.3567566E1,0E0,0E0,0E0,0E0,0E0,0E0,0E0,0E0,0E0,0E0,0E0,0E0,0E0,0E0,0E0,0E0,0E0,0E0,0E0,0E0,0E0,0E0,0E0,0E0,0E0,0E0,0E0,0E0,0E0,0E0,0E0,0E0,0E0,0E0,0E0,0E0,0E0,0E0,0E0,0E0,0E0,0E0,0E0,0E0,0E0,0E0,0E0,0E0,0E0,0E0,0E0,0E0,0E0,0E0,0E0,0E0,0E0,0E0,0E0,0E0],"parents":[2147483647,0,0,1,1,2,2,3,3,4,4,5,5,6,6,7,7,8,8,9,9,10,10,11,11,12,12,13,13,14,14,15,15,16,16,17,17,18,18,19,19,20,20,21,21,22,22,23,23,24,24,25,25,26,26,27,27,28,28,29,29,30,30,31,31,32,32,33,33,35,35,37,37,38,38,39,39,40,40,41,41,42,42,43,43,44,44,45,45,46,46,47,47,48,48,49,49,50,50,51,51,52,52,53,53,54,54,55,55,56,56,57,57,58,58,59,59,60,60,61,61,62,62],"right_children":[2,4,6,8,10,12,14,16,18,20,22,24,26,28,30,32,34,36,38,40,42,44,46,48,50,52,54,56,58,60,62,64,66,68,-1,70,-1,72,74,76,78,80,82,84,86,88,90,92,94,96,98,100,102,104,106,108,110,112,114,116,118,120,122,-1,-1,-1,-1,-1,-1,-1,-1,-1,-1,-1,-1,-1,-1,-1,-1,-1,-1,-1,-1,-1,-1,-1,-1,-1,-1,-1,-1,-1,-1,-1,-1,-1,-1,-1,-1,-1,-1,-1,-1,-1,-1,-1,-1,-1,-1,-1,-1,-1,-1,-1,-1,-1,-1,-1,-1,-1,-1,-1,-1],"split_conditions":[4.1E0,7.037037E-1,2.3695652E0,3.0555555E-1,2.8E0,1.6666666E0,3.7222223E0,4.5454547E-2,-5.0980395E-1,1.7316018E-1,1.6195652E0,4.5833334E-1,2.3333333E0,1E0,6E-1,1.4E0,1E1,1.4696939E0,5.138889E-1,7.379518E-1,1.904762E-1,1.045977E0,3E0,3E0,6.030227E1,1.3416408E0,1.21212125E-1,2.87E1,8.7E0,1.4696939E0,1.9956772E0,-1.1347517E-1,5.786026E-1,7.7970296E-1,4.0802192E-2,1.92E1,5.4014962E-2,3.34E1,6.969697E-1,1.8E0,7.4285716E-1,9E-1,1.8250688E0,3.3333334E-1,3.9E0,1.0238096E0,1.5896739E0,2.77E1,1.87E1,1.2033899E0,4.6E0,3.188406E-1,2.2604167E0,1.2845232E0,2.144761E0,6.025641E-1,3.7E1,1.7880795E0,2.83E1,1.2845232E0,1E0,2E0,4E0,-4.0660918E-2,-4.589152E-2,2.0960666E-2,-3.7473615E-2,-2.5585905E-2,-3.6277685E-2,-4.489155E-2,-2.4114868E-2,-2.7583722E-2,-5.380548E-2,-2.227862E-2,-3.479267E-3,-2.670765E-2,1.3030701E-3,-8.632905E-2,-2.2766292E-2,4.4695906E-2,1.7682602E-1,-7.887582E-3,1.1170032E-1,-2.9792503E-2,-3.3460848E-3,8.926213E-3,6.0863044E-2,1.1285541E-2,2.1756998E-1,-8.949754E-2,-1.528116E-2,-3.2621857E-2,-3.3758413E-3,5.0731387E-2,7.030362E-3,4.4365423E-3,5.6839775E-2,-5.541622E-3,1.990562E-2,2.764993E-2,1.4734599E-1,1.5403889E-2,-1.7027808E-2,1.6425015E-1,5.825428E-2,2.8191427E-2,7.0464306E-2,3.0779526E-2,2.1318953E-1,-2.826429E-2,9.014326E-2,5.4704558E-2,2.1906579E-2,1.3645984E-3,7.42205E-2,2.3924986E-1,-6.994805E-2,1.854283E-1,9.101757E-2,1.6053205E-2,8.0401234E-2,1.2571113E-1,-5.467834E-2],"split_indices":[6,3,3,3,6,3,3,8,8,8,3,8,0,11,14,6,12,4,3,16,8,8,0,11,5,4,8,15,6,4,16,8,16,16,0,15,0,15,8,6,16,4,16,0,6,8,16,15,15,3,6,8,3,4,4,8,15,16,15,4,12,12,12,0,0,0,0,0,0,0,0,0,0,0,0,0,0,0,0,0,0,0,0,0,0,0,0,0,0,0,0,0,0,0,0,0,0,0,0,0,0,0,0,0,0,0,0,0,0,0,0,0,0,0,0,0,0,0,0,0,0,0,0],"split_type":[0,0,0,0,0,0,0,0,0,0,0,0,0,0,0,0,0,0,0,0,0,0,0,0,0,0,0,0,0,0,0,0,0,0,0,0,0,0,0,0,0,0,0,0,0,0,0,0,0,0,0,0,0,0,0,0,0,0,0,0,0,0,0,0,0,0,0,0,0,0,0,0,0,0,0,0,0,0,0,0,0,0,0,0,0,0,0,0,0,0,0,0,0,0,0,0,0,0,0,0,0,0,0,0,0,0,0,0,0,0,0,0,0,0,0,0,0,0,0,0,0,0,0],"sum_hessian":[2.1924E4,1.2782E4,9.142E3,6.824E3,5.958E3,6.442E3,2.7E3,3.736E3,3.088E3,2.166E3,3.792E3,2.375E3,4.067E3,2.464E3,2.36E2,2.908E3,8.28E2,3.22E2,2.766E3,1.651E3,5.15E2,3.181E3,6.11E2,1.357E3,1.018E3,2.352E3,1.715E3,9.4E1,2.37E3,9.7E1,1.39E2,2.819E3,8.9E1,8.23E2,5E0,3.19E2,3E0,1.575E3,1.191E3,4.82E2,1.169E3,1.6E1,4.99E2,2.889E3,2.92E2,5.96E2,1.5E1,4.21E2,9.36E2,2.82E2,7.36E2,1.252E3,1.1E3,9.3E1,1.622E3,2.5E1,6.9E1,1.854E3,5.16E2,1.2E1,8.5E1,9.5E1,4.4E1,6.56E2,2.163E3,1.2E1,7.7E1,2.35E2,5.88E2,2.25E2,9.4E1,1.503E3,7.2E1,1.014E3,1.77E2,1.37E2,3.45E2,1.6E1,1.153E3,1.1E1,5E0,4.92E2,7E0,1.14E2,2.775E3,2.45E2,4.7E1,5.92E2,4E0,1.1E1,4E0,2.21E2,2E2,5.5E1,8.81E2,7.6E1,2.06E2,2.81E2,4.55E2,1.244E3,8E0,9.72E2,1.28E2,3E1,6.3E1,1.535E3,8.7E1,1.9E1,6E0,6.2E1,7E0,1.584E3,2.7E2,3E1,4.86E2,3E0,9E0,4.6E1,3.9E1,4.4E1,5.1E1,4E1,4E0],"tree_param":{"num_deleted":"0","num_feature":"17","num_nodes":"123","size_leaf_vector":"1"}},{"base_weights":[-1.4450253E-3,-1.6097505E-1,3.1046087E-1,-3.0123952E-1,-3.018751E-2,2.3103395E-1,5.547164E-1,-3.9925462E-1,-2.4249104E-1,-4.9148496E-2,2.871879E-1,-3.5254173E-2,2.5983438E-1,5.1828957E-1,9.234884E-1,-1.8330121E-1,-4.0283328E-1,-3.1647852E-1,-2.1148218E-1,-6.794623E-2,1.3845862E-1,4.3560284E-1,9.335897E-2,-1.5048784E-1,1.6973199E-1,2.501494E-1,7.042427E-1,-4.1124944E-2,5.40474E-1,1.0367084E0,-9.731233E-2,-2.7094877E-1,1.405601E-1,-4.1027975E-1,-3.292413E-1,-3.327583E-1,-6.1445687E-2,-2.2814438E-1,-8.662067E-2,-1.4202122E-1,-2.7920108E-2,8.942756E-2,7.1813965E-1,6.0872144E-1,6.9182135E-2,1.1900054E0,2.3322005E-2,-5.1050454E-1,-9.957779E-2,6.774941E-1,-5.1539473E-2,2.5653335E-1,-3.3120504E-1,-3.399E-1,9.346815E-1,3.8795832E-1,-4.1059273E-1,5.6032026E-1,7.0698515E-2,8.337007E-1,1.5891066E0,3.6578986E-1,-1.3019155E-1,4.622255E-4,-4.1309353E-2,-4.3793205E-2,6.1587688E-2,-3.6847632E-2,-4.16451E-2,2.3038683E-2,-3.3761326E-2,-1.8793352E-2,-3.6092438E-2,1.3447315E-1,-1.5570489E-2,-2.6244072E-2,-1.7544104E-2,1.3340676E-2,-2.3369981E-2,-1.655761E-2,-1.2417221E-3,-1.0521549E-2,3.4754977E-3,-7.155561E-3,1.8752128E-2,3.04178E-1,3.9014008E-2,1.0423016E-1,3.5593346E-2,-3.522029E-2,5.2464545E-2,1.5188473E-1,2.0982012E-2,-8.1804596E-2,9.650614E-3,-1.0064558E-1,-2.5871053E-2,-4.919652E-2,-3.0451282E-3,1.1376204E-1,2.3620795E-2,1.2672114E-1,-1.1139637E-2,2.4542784E-2,7.1915485E-2,-1.0708206E-1,-9.200966E-3,-1.0155437E-1,2.9613066E-2,7.6069616E-2,2.8249833E-1,1.3965963E-2,1.9419847E-1,-1.1951315E-1,-2.3666525E-2,1.3559583E-1,5.4881778E-2,-2.1776991E-2,7.0397705E-2,4.7879103E-3,9.6730575E-2,2.851399E-1,9.655283E-2,-4.2227888E-4,1.22437395E-1],"categories":[],"categories_nodes":[],"categories_segments":[],"categories_sizes":[],"default_left":[0,0,0,0,0,0,0,0,0,0,0,0,0,0,0,0,0,0,0,0,0,0,0,0,0,0,0,0,0,0,0,0,0,0,0,0,0,0,0,0,0,0,0,0,0,0,0,0,0,0,0,0,0,0,0,0,0,0,0,0,0,0,0,0,0,0,0,0,0,0,0,0,0,0,0,0,0,0,0,0,0,0,0,0,0,0,0,0,0,0,0,0,0,0,0,0,0,0,0,0,0,0,0,0,0,0,0,0,0,0,0,0,0,0,0,0,0,0,0,0,0,0,0,0,0],"id":11,"left_children":[1,3,5,7,9,11,13,15,17,19,21,23,25,27,29,31,33,35,37,39,41,43,45,47,49,51,53,55,57,59,61,63,65,67,69,71,73,75,77,79,81,83,85,87,89,91,93,95,97,99,101,103,105,107,109,111,113,115,117,119,121,123,-1,-1,-1,-1,-1,-1,-1,-1,-1,-1,-1,-1,-1,-1,-1,-1,-1,-1,-1,-1,-1,-1,-1,-1,-1,-1,-1,-1,-1,-1,-1,-1,-1,-1,-1,-1,-1,-1,-1,-1,-1,-1,-1,-1,-1,-1,-1,-1,-1,-1,-1,-1,-1,-1,-1,-1,-1,-1,-1,-1,-1,-1,-1],"loss_changes":[1.0906387E3,2.6599466E2,1.4368646E2,4.0129395E1,4.5159546E1,4.2971527E1,2.3812256E1,1.892334E0,9.924591E0,2.4984715E1,1.2074924E1,1.2944473E1,2.1476929E1,2.0648468E1,1.8917984E1,1.3284779E0,1.2026367E0,5.296051E0,6.3753204E0,1.9073223E1,1.8187454E1,1.505088E1,1.4059985E1,6.321451E0,2.2231106E1,1.8437439E1,2.6122551E1,1.03076315E1,1.4767883E1,1.4805481E1,1.0053364E1,1.4529111E0,3.0371766E0,3.7017822E-1,1.2270069E0,4.821213E0,1.0561543E1,4.833893E0,1.1885495E1,6.873375E0,2.027522E1,9.436712E0,3.6577744E1,1.7245014E1,1.5172209E1,3.0540342E0,1.0782381E1,4.9828377E0,8.314209E0,1.1776745E1,1.0918795E1,2.4870636E1,9.338472E0,8.967278E0,2.6434334E1,1.1096501E1,4.3498235E0,1.3067627E1,1.22588625E1,1.1296051E1,2.6776443E1,4.2571163E0,0E0,0E0,0E0,0E0,0E0,0E0,0E0,0E0,0E0,0E0,0E0,0E0,0E0,0E0,0E0,0E0,0E0,0E0,0E0,0E0,0E0,0E0,0E0,0E0,0E0,0E0,0E0,0E0,0E0,0E0,0E0,0E0,0E0,0E0,0E0,0E0,0E0,0E0,0E0,0E0,0E0,0E0,0E0,0E0,0E0,0E0,0E0,0E0,0E0,0E0,0E0,0E0,0E0,0E0,0E0,0E0,0E0,0E0,0E0,0E0,0E0,0E0,0E0],"parents":[2147483647,0,0,1,1,2,2,3,3,4,4,5,5,6,6,7,7,8,8,9,9,10,10,11,11,12,12,13,13,14,14,15,15,16,16,17,17,18,18,19,19,20,20,21,21,22,22,23,23,24,24,25,25,26,26,27,27,28,28,29,29,30,30,31,31,32,32,33,33,34,34,35,35,36,36,37,37,38,38,39,39,40,40,41,41,42,42,43,43,44,44,45,45,46,46,47,47,48,48,49,49,50,50,51,51,52,52,53,53,54,54,55,55,56,56,57,57,58,58,59,59,60,60,61,61],"right_children":[2,4,6,8,10,12,14,16,18,20,22,24,26,28,30,32,34,36,38,40,42,44,46,48,50,52,54,56,58,60,62,64,66,68,70,72,74,76,78,80,82,84,86,88,90,92,94,96,98,100,102,104,106,108,110,112,114,116,118,120,122,124,-1,-1,-1,-1,-1,-1,-1,-1,-1,-1,-1,-1,-1,-1,-1,-1,-1,-1,-1,-1,-1,-1,-1,-1,-1,-1,-1,-1,-1,-1,-1,-1,-1,-1,-1,-1,-1,-1,-1,-1,-1,-1,-1,-1,-1,-1,-1,-1,-1,-1,-1,-1,-1,-1,-1,-1,-1,-1,-1,-1,-1,-1,-1],"split_conditions":[1.65E0,7.2727275E-1,2.6111112E0,1.7948718E-1,2.2E0,2.12E1,3.935484E0,-1.6666667E-1,3.3333334E-1,1.0238096E0,6.511528E1,1.9565217E0,2.2E0,1E0,1.3473685E0,2E-1,1.7316018E-1,1.3322884E0,1E0,3E0,1.5757576E0,2.8E0,1.98E1,-1.175926E0,-1E0,3.7E0,1.0958904E0,1.6384616E0,2.1159217E0,5.3748386E1,5.8E0,1E0,2E-1,8.1E0,3.9215687E-1,5.5755395E-1,1E0,5.138889E-1,1.1E0,4.5833334E-1,1.1076924E0,2.16E1,9.292035E-1,1.2121212E0,1.7671233E0,1.257485E0,9.479866E-1,5E-1,1.57E1,2.2604167E0,2E0,3.3E0,3.2E0,2.08E0,9.491188E1,1.5982143E0,-1.2380953E0,9.5454544E-1,7.5757575E-1,2E0,1E0,4E0,-1.3019155E-1,4.622255E-4,-4.1309353E-2,-4.3793205E-2,6.1587688E-2,-3.6847632E-2,-4.16451E-2,2.3038683E-2,-3.3761326E-2,-1.8793352E-2,-3.6092438E-2,1.3447315E-1,-1.5570489E-2,-2.6244072E-2,-1.7544104E-2,1.3340676E-2,-2.3369981E-2,-1.655761E-2,-1.2417221E-3,-1.0521549E-2,3.4754977E-3,-7.155561E-3,1.8752128E-2,3.04178E-1,3.9014008E-2,1.0423016E-1,3.5593346E-2,-3.522029E-2,5.2464545E-2,1.5188473E-1,2.0982012E-2,-8.1804596E-2,9.650614E-3,-1.0064558E-1,-2.5871053E-2,-4.919652E-2,-3.0451282E-3,1.1376204E-1,2.3620795E-2,1.2672114E-1,-1.1139637E-2,2.4542784E-2,7.1915485E-2,-1.0708206E-1,-9.200966E-3,-1.0155437E-1,2.9613066E-2,7.6069616E-2,2.8249833E-1,1.3965963E-2,1.9419847E-1,-1.1951315E-1,-2.3666525E-2,1.3559583E-1,5.4881778E-2,-2.1776991E-2,7.0397705E-2,4.7879103E-3,9.6730575E-2,2.851399E-1,9.655283E-2,-4.2227888E-4,1.22437395E-1],"split_indices":[3,3,3,3,2,15,3,8,0,8,5,3,8,11,8,1,8,16,2,11,3,1,15,8,8,2,16,16,16,5,1,7,2,15,16,16,11,3,2,8,3,15,16,16,8,16,16,14,15,3,3,2,1,3,5,16,8,16,8,11,12,11,0,0,0,0,0,0,0,0,0,0,0,0,0,0,0,0,0,0,0,0,0,0,0,0,0,0,0,0,0,0,0,0,0,0,0,0,0,0,0,0,0,0,0,0,0,0,0,0,0,0,0,0,0,0,0,0,0,0,0,0,0,0,0],"split_type":[0,0,0,0,0,0,0,0,0,0,0,0,0,0,0,0,0,0,0,0,0,0,0,0,0,0,0,0,0,0,0,0,0,0,0,0,0,0,0,0,0,0,0,0,0,0,0,0,0,0,0,0,0,0,0,0,0,0,0,0,0,0,0,0,0,0,0,0,0,0,0,0,0,0,0,0,0,0,0,0,0,0,0,0,0,0,0,0,0,0,0,0,0,0,0,0,0,0,0,0,0,0,0,0,0,0,0,0,0,0,0,0,0,0,0,0,0,0,0,0,0,0,0,0,0],"sum_hessian":[2.1917E4,1.4501E4,7.416E3,6.996E3,7.505E3,5.598E3,1.818E3,2.619E3,4.377E3,7.083E3,4.22E2,5.46E2,5.052E3,1.657E3,1.61E2,4.4E1,2.575E3,1.289E3,3.088E3,6.439E3,6.44E2,2.38E2,1.84E2,3.5E2,1.96E2,4.946E3,1.06E2,6.3E1,1.594E3,1.45E2,1.6E1,3.5E1,9E0,2.333E3,2.42E2,1.211E3,7.8E1,2.723E3,3.65E2,2.257E3,4.182E3,5.95E2,4.9E1,1.61E2,7.7E1,1E1,1.74E2,4.2E1,3.08E2,5.9E1,1.37E2,4.893E3,5.3E1,1.9E1,8.7E1,2.9E1,3.4E1,1.529E3,6.5E1,1.08E2,3.7E1,1.2E1,4E0,1.2E1,2.3E1,4E0,5E0,3.1E2,2.023E3,3E0,2.39E2,1.99E2,1.012E3,4E0,7.4E1,1.646E3,1.077E3,1.46E2,2.19E2,1.909E3,3.48E2,1.873E3,2.309E3,2.25E2,3.7E2,5E0,4.4E1,5.8E1,1.03E2,4E1,3.7E1,7E0,3E0,1.3E1,1.61E2,1.3E1,2.9E1,4.5E1,2.63E2,2.8E1,3.1E1,5E0,1.32E2,4.78E3,1.13E2,1.2E1,4.1E1,9E0,1E1,8.1E1,6E0,2.6E1,3E0,5E0,2.9E1,2E1,1.509E3,4.5E1,2E1,1.6E1,9.2E1,1.1E1,2.6E1,9E0,3E0],"tree_param":{"num_deleted":"0","num_feature":"17","num_nodes":"125","size_leaf_vector":"1"}},{"base_weights":[-1.0808611E-3,-1.8146354E-1,2.1940315E-1,-2.9543853E-1,-7.179614E-2,1.1310418E-1,4.236988E-1,-3.5685784E-1,-2.3842886E-1,-9.917881E-2,8.9026645E-2,-6.430398E-2,1.5899369E-1,3.7723705E-1,6.5009725E-1,-3.7661757E-2,-3.2760733E-1,-2.4923863E-1,-9.6713E-2,-7.486173E-2,-2.3864675E-1,-2.7859578E-1,1.3039204E-1,-1.0208409E-1,3.2367402E-1,1.4931911E-1,6.977116E-1,3.939251E-1,7.499346E-2,7.1874124E-1,2.3250428E-1,-3.5571244E-1,-2.502543E-1,2.2450839E-1,-2.5134426E-1,8.080779E-2,-3.255108E-1,-7.862475E-2,8.112938E-1,1.5580054E-1,-2.7531248E-1,-7.450028E-1,-5.7891E-2,1.6612087E-1,-1.4539242E-1,-3.9618284E-1,-6.755241E-2,-4.045866E-2,6.2834513E-1,4.195534E-2,1.6756275E-1,5.087459E-1,1.6935412E0,1.1015302E-2,4.0770063E-1,-1.9466403E-1,5.83675E-1,6.186144E-1,1.4447845E0,1.3323042E-2,2.0220697E0,2.146941E-2,-3.5810716E-2,-3.474271E-2,-2.0069875E-2,8.960399E-2,-1.6239893E-2,-2.8602747E-2,-2.2506313E-2,-3.1537883E-2,1.6946299E-2,-1.6841767E-2,-5.426581E-2,-1.60332E-2,-4.4532213E-3,1.5693526E-1,-4.1470625E-2,-8.98367E-3,6.33969E-2,-3.1478606E-2,-1.48789855E-2,-5.292545E-2,-9.621351E-2,2.7116377E-2,-4.564781E-2,2.9088099E-2,5.7520247E-3,-2.9810676E-2,2.3524657E-2,-5.421215E-2,-8.206745E-3,-8.867493E-3,3.6503E-2,2.6921822E-2,-6.466474E-2,-1.539944E-3,7.76276E-2,-3.1054346E-3,2.5779799E-2,1.58464E-2,5.368146E-2,7.282814E-2,-4.3546683E-3,1.984974E-1,7.519672E-2,2.6321128E-2,-5.0677687E-2,4.105916E-2,-1.14150785E-1,-5.699131E-3,-8.413993E-2,3.3802267E-2,1.1090165E-1,6.552317E-2,-9.968067E-2,2.21839E-1,9.2214376E-2,1.2977414E-1,-1.15724085E-2,6.9862455E-2,2.550688E-1],"categories":[],"categories_nodes":[],"categories_segments":[],"categories_sizes":[],"default_left":[0,0,0,0,0,0,0,0,0,0,0,0,0,0,0,0,0,0,0,0,0,0,0,0,0,0,0,0,0,0,0,0,0,0,0,0,0,0,0,0,0,0,0,0,0,0,0,0,0,0,0,0,0,0,0,0,0,0,0,0,0,0,0,0,0,0,0,0,0,0,0,0,0,0,0,0,0,0,0,0,0,0,0,0,0,0,0,0,0,0,0,0,0,0,0,0,0,0,0,0,0,0,0,0,0,0,0,0,0,0,0,0,0,0,0,0,0,0,0,0,0],"id":12,"left_children":[1,3,5,7,9,11,13,15,17,19,21,23,25,27,29,-1,31,33,35,37,39,41,43,45,47,49,51,53,55,57,59,61,63,65,67,69,71,73,75,77,79,81,83,85,87,89,91,93,95,97,99,101,103,105,107,109,111,113,115,117,119,-1,-1,-1,-1,-1,-1,-1,-1,-1,-1,-1,-1,-1,-1,-1,-1,-1,-1,-1,-1,-1,-1,-1,-1,-1,-1,-1,-1,-1,-1,-1,-1,-1,-1,-1,-1,-1,-1,-1,-1,-1,-1,-1,-1,-1,-1,-1,-1,-1,-1,-1,-1,-1,-1,-1,-1,-1,-1,-1,-1],"loss_changes":[8.764407E2,1.5144666E2,2.152384E2,2.0664734E1,2.7220663E1,5.313272E1,3.534253E1,1.4580688E0,4.668808E0,1.7861057E1,1.3692465E1,1.9667065E1,2.6829437E1,1.41371155E1,1.6248962E1,0E0,2.376587E0,2.918045E0,9.02699E0,1.4992981E1,1.1379135E1,9.243964E0,7.99767E0,1.2347313E1,1.3286157E1,9.9496765E0,1.6042355E1,1.4037384E1,2.059082E1,3.481192E1,3.232537E1,1.2509232E0,1.3875103E0,3.596546E0,2.4859772E0,4.4293537E0,3.1463976E0,1.24546795E1,1.842451E1,7.980917E0,3.4877167E0,7.0017624E-1,8.405202E0,9.66308E0,5.482414E0,5.7608128E0,1.00191345E1,1.0536575E1,6.2779694E0,1.1723566E1,1.4470329E1,9.557514E0,2.0753517E0,1.2384031E1,1.1937012E1,8.587912E0,6.1910934E0,2.6409424E1,2.1495018E1,1.2699671E1,4.189472E0,0E0,0E0,0E0,0E0,0E0,0E0,0E0,0E0,0E0,0E0,0E0,0E0,0E0,0E0,0E0,0E0,0E0,0E0,0E0,0E0,0E0,0E0,0E0,0E0,0E0,0E0,0E0,0E0,0E0,0E0,0E0,0E0,0E0,0E0,0E0,0E0,0E0,0E0,0E0,0E0,0E0,0E0,0E0,0E0,0E0,0E0,0E0,0E0,0E0,0E0,0E0,0E0,0E0,0E0,0E0,0E0,0E0,0E0,0E0,0E0],"parents":[2147483647,0,0,1,1,2,2,3,3,4,4,5,5,6,6,7,7,8,8,9,9,10,10,11,11,12,12,13,13,14,14,16,16,17,17,18,18,19,19,20,20,21,21,22,22,23,23,24,24,25,25,26,26,27,27,28,28,29,29,30,30,31,31,32,32,33,33,34,34,35,35,36,36,37,37,38,38,39,39,40,40,41,41,42,42,43,43,44,44,45,45,46,46,47,47,48,48,49,49,50,50,51,51,52,52,53,53,54,54,55,55,56,56,57,57,58,58,59,59,60,60],"right_children":[2,4,6,8,10,12,14,16,18,20,22,24,26,28,30,-1,32,34,36,38,40,42,44,46,48,50,52,54,56,58,60,62,64,66,68,70,72,74,76,78,80,82,84,86,88,90,92,94,96,98,100,102,104,106,108,110,112,114,116,118,120,-1,-1,-1,-1,-1,-1,-1,-1,-1,-1,-1,-1,-1,-1,-1,-1,-1,-1,-1,-1,-1,-1,-1,-1,-1,-1,-1,-1,-1,-1,-1,-1,-1,-1,-1,-1,-1,-1,-1,-1,-1,-1,-1,-1,-1,-1,-1,-1,-1,-1,-1,-1,-1,-1,-1,-1,-1,-1,-1,-1],"split_conditions":[1.3125E0,5.9090906E-1,2.2307692E0,4E-1,7.751004E-1,2.22E1,3.38E0,2.5316456E-2,9E-1,4E0,2E0,1E0,3.2E0,6E0,4.8E0,-3.7661757E-2,2E0,6.635731E1,1.1E0,2.3E0,8.9E0,1.118034E0,1.24E0,6E-1,8.975275E1,-8.095238E-1,3E0,2.12E1,3.073593E-1,8.5E-1,6.236096E1,-5.689655E-1,7.5E0,2.15E1,3.3333334E-1,2E0,2.4E1,8.181818E-1,2.6E0,6.666667E-1,2E0,1.6E0,1.0545454E0,1E0,2.85E1,1.5652174E0,1.3462912E2,1.6613247E0,1.42E1,2.0142858E0,1.18321594E2,3E0,8E-1,2.2E0,4.6E0,1.9493588E0,3.4E1,8E0,1E0,3.5076923E0,4.3333335E0,2.146941E-2,-3.5810716E-2,-3.474271E-2,-2.0069875E-2,8.960399E-2,-1.6239893E-2,-2.8602747E-2,-2.2506313E-2,-3.1537883E-2,1.6946299E-2,-1.6841767E-2,-5.426581E-2,-1.60332E-2,-4.4532213E-3,1.5693526E-1,-4.1470625E-2,-8.98367E-3,6.33969E-2,-3.1478606E-2,-1.48789855E-2,-5.292545E-2,-9.621351E-2,2.7116377E-2,-4.564781E-2,2.9088099E-2,5.7520247E-3,-2.9810676E-2,2.3524657E-2,-5.421215E-2,-8.206745E-3,-8.867493E-3,3.6503E-2,2.6921822E-2,-6.466474E-2,-1.539944E-3,7.76276E-2,-3.1054346E-3,2.5779799E-2,1.58464E-2,5.368146E-2,7.282814E-2,-4.3546683E-3,1.984974E-1,7.519672E-2,2.6321128E-2,-5.0677687E-2,4.105916E-2,-1.14150785E-1,-5.699131E-3,-8.413993E-2,3.3802267E-2,1.1090165E-1,6.552317E-2,-9.968067E-2,2.21839E-1,9.2214376E-2,1.2977414E-1,-1.15724085E-2,6.9862455E-2,2.550688E-1],"split_indices":[3,3,3,4,8,15,3,3,2,9,11,8,2,9,1,0,12,5,2,2,15,4,3,1,5,8,12,15,8,8,5,8,15,15,3,9,15,3,2,0,12,1,3,12,15,3,5,4,15,3,5,9,14,1,2,4,15,12,12,3,0,0,0,0,0,0,0,0,0,0,0,0,0,0,0,0,0,0,0,0,0,0,0,0,0,0,0,0,0,0,0,0,0,0,0,0,0,0,0,0,0,0,0,0,0,0,0,0,0,0,0,0,0,0,0,0,0,0,0,0,0],"split_type":[0,0,0,0,0,0,0,0,0,0,0,0,0,0,0,0,0,0,0,0,0,0,0,0,0,0,0,0,0,0,0,0,0,0,0,0,0,0,0,0,0,0,0,0,0,0,0,0,0,0,0,0,0,0,0,0,0,0,0,0,0,0,0,0,0,0,0,0,0,0,0,0,0,0,0,0,0,0,0,0,0,0,0,0,0,0,0,0,0,0,0,0,0,0,0,0,0,0,0,0,0,0,0,0,0,0,0,0,0,0,0,0,0,0,0,0,0,0,0,0,0],"sum_hessian":[2.2035E4,1.212E4,9.915E3,5.942E3,6.178E3,6.523E3,3.392E3,2.857E3,3.085E3,5.28E3,8.98E2,1.34E3,5.183E3,2.817E3,5.75E2,1.696E3,1.161E3,2.865E3,2.2E2,4.498E3,7.82E2,9E1,8.08E2,1.222E3,1.18E2,5.093E3,9E1,2.669E3,1.48E2,4.93E2,8.2E1,8.48E2,3.13E2,1.2E1,2.853E3,1.24E2,9.6E1,4.48E3,1.8E1,6.6E1,7.16E2,2.8E1,6.2E1,7.16E2,9.2E1,1.27E2,1.095E3,5.4E1,6.4E1,7.41E2,4.352E3,7.7E1,1.3E1,9.3E1,2.576E3,9.7E1,5.1E1,4.35E2,5.8E1,7.4E1,8E0,3E0,8.45E2,1.03E2,2.1E2,4E0,8E0,1.224E3,1.629E3,2.2E1,1.02E2,5.7E1,3.9E1,1.317E3,3.163E3,1.1E1,7E0,4.4E1,2.2E1,5.44E2,1.72E2,1.6E1,1.2E1,3.4E1,2.8E1,3.32E2,3.84E2,6.6E1,2.6E1,8.6E1,4.1E1,1.045E3,5E1,3.6E1,1.8E1,1.2E1,5.2E1,5.54E2,1.87E2,4.249E3,1.03E2,5.5E1,2.2E1,9E0,4E0,6.3E1,3E1,2.572E3,4E0,8.1E1,1.6E1,3.6E1,1.5E1,4.26E2,9E0,2.2E1,3.6E1,6E0,6.8E1,3E0,5E0],"tree_param":{"num_deleted":"0","num_feature":"17","num_nodes":"121","size_leaf_vector":"1"}},{"base_weights":[1.8803054E-3,-1.6124606E-1,2.1038313E-1,-2.6693326E-1,-6.2321007E-2,1.2259362E-1,4.3712816E-1,-3.105624E-1,-1.9217186E-1,-1.09675914E-1,9.790993E-3,7.829916E-2,2.3997682E-1,3.257091E-1,5.239805E-1,-3.306455E-1,-2.3923624E-1,-2.092848E-1,-6.9931984E-2,-1.17879905E-1,1.7243434E-1,-6.7681625E-2,5.950624E-2,-6.377826E-2,1.1208778E-1,3.1320578E-1,1.0701863E-1,-9.7872086E-2,3.740655E-1,4.843051E-1,7.973799E-1,-3.3226848E-1,3.8209662E-1,-2.4525979E-1,5.843977E-2,-1.9677621E-1,-4.1588023E-1,1.1579696E0,-1.3120703E-1,-4.2865792E-1,-1.10174075E-1,-5.213032E-1,2.9846773E-1,1.14496484E-1,-1.0820555E-1,1.8739145E-1,-4.0833138E-2,-2.0243129E-1,9.495161E-2,-1.2775196E-1,1.29225E-1,-1.1304135E-1,3.482577E-1,1.9155535E-1,9.333564E-2,-2.9991663E-1,1.3567067E0,5.241546E-1,1.8805611E-1,5.1305276E-1,1.1811704E-1,1.1272985E0,4.615503E-1,-2.9410599E-2,-3.411914E-2,-5.179221E-2,1.21159114E-1,-3.3204522E-2,-2.2589086E-2,5.4225292E-2,-3.244547E-2,-3.912712E-2,-1.8292148E-2,-3.2422252E-2,-6.141155E-2,1.785013E-1,3.512163E-2,-1.7519813E-2,2.3754735E-2,-2.6348708E-2,-6.1719168E-2,-1.6307471E-2,-6.1034905E-3,-1.0183337E-2,-7.317565E-2,1.2204569E-1,1.9615749E-2,1.4374735E-3,4.51144E-2,-1.1977021E-2,6.6249155E-2,2.3573136E-2,-1.9793352E-2,2.9828127E-3,-2.577391E-2,-1.579175E-2,-5.394053E-2,2.7977346E-2,-1.5275291E-3,-6.40712E-2,-8.427404E-3,1.1470653E-2,3.2719042E-2,-6.695579E-2,1.833794E-2,3.683091E-2,-5.8852783E-3,1.5589296E-2,-1.6734852E-2,-7.70106E-2,4.656955E-3,5.6747515E-2,2.801675E-1,8.208484E-3,5.9952497E-2,-4.154761E-3,4.3318193E-2,8.335944E-2,4.749047E-2,4.8012722E-2,-4.6348136E-2,1.6645767E-1,7.381555E-2,6.449541E-2,-3.1039927E-2],"categories":[],"categories_nodes":[],"categories_segments":[],"categories_sizes":[],"default_left":[0,0,0,0,0,0,0,0,0,0,0,0,0,0,0,0,0,0,0,0,0,0,0,0,0,0,0,0,0,0,0,0,0,0,0,0,0,0,0,0,0,0,0,0,0,0,0,0,0,0,0,0,0,0,0,0,0,0,0,0,0,0,0,0,0,0,0,0,0,0,0,0,0,0,0,0,0,0,0,0,0,0,0,0,0,0,0,0,0,0,0,0,0,0,0,0,0,0,0,0,0,0,0,0,0,0,0,0,0,0,0,0,0,0,0,0,0,0,0,0,0,0,0,0,0],"id":13,"left_children":[1,3,5,7,9,11,13,15,17,19,21,23,25,27,29,31,33,35,37,39,41,43,45,47,49,51,53,55,57,59,61,63,65,67,69,71,73,75,77,79,81,83,85,87,89,91,93,95,97,99,101,103,105,-1,107,109,111,113,115,117,119,121,123,-1,-1,-1,-1,-1,-1,-1,-1,-1,-1,-1,-1,-1,-1,-1,-1,-1,-1,-1,-1,-1,-1,-1,-1,-1,-1,-1,-1,-1,-1,-1,-1,-1,-1,-1,-1,-1,-1,-1,-1,-1,-1,-1,-1,-1,-1,-1,-1,-1,-1,-1,-1,-1,-1,-1,-1,-1,-1,-1,-1,-1,-1],"loss_changes":[7.49194E2,1.2915472E2,1.9235999E2,1.9375885E1,2.1814924E1,3.6199768E1,2.5852905E1,5.2642517E0,4.570038E0,8.936993E0,9.751534E0,2.4322216E1,1.851123E1,2.4336418E1,1.5908356E1,3.5205078E0,1.5266418E0,4.8521957E0,2.0589703E1,8.872208E0,9.663624E0,7.3131237E0,1.9821964E1,2.1444118E1,1.6835533E1,1.8440056E1,1.6447699E1,3.615576E1,2.9534943E1,1.38246155E1,2.0372124E1,8.345337E-1,5.9228015E0,1.2425346E0,3.3469555E0,4.7887955E0,1.687563E0,5.735752E0,4.2693005E0,2.5519333E0,9.476585E0,1.3428636E0,8.391525E0,6.013996E0,7.244478E0,1.26978855E1,1.3288204E1,7.6450863E0,9.279765E0,5.9620695E0,1.0897545E1,1.5677929E1,9.334106E0,0E0,1.1048946E1,1.7702942E1,1.5179419E1,1.9474167E1,2.690358E1,1.4489319E1,2.085756E1,1.839341E1,1.3825178E1,0E0,0E0,0E0,0E0,0E0,0E0,0E0,0E0,0E0,0E0,0E0,0E0,0E0,0E0,0E0,0E0,0E0,0E0,0E0,0E0,0E0,0E0,0E0,0E0,0E0,0E0,0E0,0E0,0E0,0E0,0E0,0E0,0E0,0E0,0E0,0E0,0E0,0E0,0E0,0E0,0E0,0E0,0E0,0E0,0E0,0E0,0E0,0E0,0E0,0E0,0E0,0E0,0E0,0E0,0E0,0E0,0E0,0E0,0E0,0E0,0E0,0E0],"parents":[2147483647,0,0,1,1,2,2,3,3,4,4,5,5,6,6,7,7,8,8,9,9,10,10,11,11,12,12,13,13,14,14,15,15,16,16,17,17,18,18,19,19,20,20,21,21,22,22,23,23,24,24,25,25,26,26,27,27,28,28,29,29,30,30,31,31,32,32,33,33,34,34,35,35,36,36,37,37,38,38,39,39,40,40,41,41,42,42,43,43,44,44,45,45,46,46,47,47,48,48,49,49,50,50,51,51,52,52,54,54,55,55,56,56,57,57,58,58,59,59,60,60,61,61,62,62],"right_children":[2,4,6,8,10,12,14,16,18,20,22,24,26,28,30,32,34,36,38,40,42,44,46,48,50,52,54,56,58,60,62,64,66,68,70,72,74,76,78,80,82,84,86,88,90,92,94,96,98,100,102,104,106,-1,108,110,112,114,116,118,120,122,124,-1,-1,-1,-1,-1,-1,-1,-1,-1,-1,-1,-1,-1,-1,-1,-1,-1,-1,-1,-1,-1,-1,-1,-1,-1,-1,-1,-1,-1,-1,-1,-1,-1,-1,-1,-1,-1,-1,-1,-1,-1,-1,-1,-1,-1,-1,-1,-1,-1,-1,-1,-1,-1,-1,-1,-1,-1,-1,-1,-1,-1,-1],"split_conditions":[1.3529412E0,5.9090906E-1,2.3695652E0,3.0555555E-1,1.7316018E-1,2.0142858E0,2.8043478E0,5.3333335E-2,1E0,7E0,1E0,-7.419355E-1,7.2648315E1,4.209157E1,2.2113345E0,9.2195445E-1,8E0,7.751004E-1,1.0049876E0,5.7282196E1,1.07E1,2.777778E-1,1.2041595E0,2.56E1,1.79E1,4.157397E1,1.25E1,3.8E0,2.8E0,7.3702774E1,3.31E1,9.1E0,1.457738E2,3E-1,2.1343747E2,1E0,9.165151E-1,1.2E0,5.555556E-1,4.965253E1,2.01E1,7.1428573E-1,-6.698113E-1,1.0532687E2,2.6666667E0,4E0,1.24E0,1.8915663E0,-1.0833334E0,-6.698113E-1,1.0772622E2,2.1346154E0,7E0,1.9155535E-1,2.2777777E0,3.14E1,3.28E1,1.6E0,1E0,2.89E0,3.19E1,1.6129032E-1,5E0,-2.9410599E-2,-3.411914E-2,-5.179221E-2,1.21159114E-1,-3.3204522E-2,-2.2589086E-2,5.4225292E-2,-3.244547E-2,-3.912712E-2,-1.8292148E-2,-3.2422252E-2,-6.141155E-2,1.785013E-1,3.512163E-2,-1.7519813E-2,2.3754735E-2,-2.6348708E-2,-6.1719168E-2,-1.6307471E-2,-6.1034905E-3,-1.0183337E-2,-7.317565E-2,1.2204569E-1,1.9615749E-2,1.4374735E-3,4.51144E-2,-1.1977021E-2,6.6249155E-2,2.3573136E-2,-1.9793352E-2,2.9828127E-3,-2.577391E-2,-1.579175E-2,-5.394053E-2,2.7977346E-2,-1.5275291E-3,-6.40712E-2,-8.427404E-3,1.1470653E-2,3.2719042E-2,-6.695579E-2,1.833794E-2,3.683091E-2,-5.8852783E-3,1.5589296E-2,-1.6734852E-2,-7.70106E-2,4.656955E-3,5.6747515E-2,2.801675E-1,8.208484E-3,5.9952497E-2,-4.154761E-3,4.3318193E-2,8.335944E-2,4.749047E-2,4.8012722E-2,-4.6348136E-2,1.6645767E-1,7.381555E-2,6.449541E-2,-3.1039927E-2],"split_indices":[3,3,3,3,8,3,3,8,4,12,4,8,5,5,4,4,12,8,4,5,15,8,4,15,15,5,15,1,1,5,15,15,5,14,5,11,4,1,3,5,15,3,8,5,0,12,3,3,8,8,5,3,9,0,3,15,15,1,7,3,15,8,1,0,0,0,0,0,0,0,0,0,0,0,0,0,0,0,0,0,0,0,0,0,0,0,0,0,0,0,0,0,0,0,0,0,0,0,0,0,0,0,0,0,0,0,0,0,0,0,0,0,0,0,0,0,0,0,0,0,0,0,0,0,0],"split_type":[0,0,0,0,0,0,0,0,0,0,0,0,0,0,0,0,0,0,0,0,0,0,0,0,0,0,0,0,0,0,0,0,0,0,0,0,0,0,0,0,0,0,0,0,0,0,0,0,0,0,0,0,0,0,0,0,0,0,0,0,0,0,0,0,0,0,0,0,0,0,0,0,0,0,0,0,0,0,0,0,0,0,0,0,0,0,0,0,0,0,0,0,0,0,0,0,0,0,0,0,0,0,0,0,0,0,0,0,0,0,0,0,0,0,0,0,0,0,0,0,0,0,0,0,0],"sum_hessian":[2.2025E4,1.2357E4,9.668E3,5.973E3,6.384E3,6.971E3,2.697E3,3.769E3,2.204E3,3.854E3,2.53E3,5.063E3,1.908E3,1.184E3,1.513E3,2.937E3,8.32E2,1.932E3,2.72E2,3.746E3,1.08E2,9.88E2,1.542E3,9.72E2,4.091E3,1.229E3,6.79E2,1.21E2,1.063E3,1.324E3,1.89E2,2.931E3,6E0,8.16E2,1.6E1,1.824E3,1.08E2,1.2E1,2.6E2,8.9E1,3.657E3,1.6E1,9.2E1,1.79E2,8.09E2,6.78E2,8.64E2,5.19E2,4.53E2,2.72E2,3.819E3,9.3E1,1.136E3,4E0,6.75E2,1.07E2,1.4E1,5.87E2,4.76E2,1.227E3,9.7E1,9.4E1,9.5E1,5.64E2,2.367E3,3E0,3E0,1.45E2,6.71E2,7E0,9E0,1.19E2,1.705E3,7.6E1,3.2E1,6E0,6E0,2.33E2,2.7E1,4.9E1,4E1,1.759E3,1.898E3,6E0,1E1,8E0,8.4E1,1.39E2,4E1,7.98E2,1.1E1,6.03E2,7.5E1,6.52E2,2.12E2,4.6E2,5.9E1,1.69E2,2.84E2,2E1,2.52E2,3.56E3,2.59E2,3.2E1,6.1E1,1.083E3,5.3E1,5.45E2,1.3E2,4.5E1,6.2E1,1E1,4E0,8.6E1,5.01E2,2.46E2,2.3E2,1.28E2,1.099E3,6E1,3.7E1,3.8E1,5.6E1,7.7E1,1.8E1],"tree_param":{"num_deleted":"0","num_feature":"17","num_nodes":"125","size_leaf_vector":"1"}},{"base_weights":[-1.0911275E-3,-1.2121557E-1,2.4007775E-1,-2.2653477E-1,-1.8270243E-2,1.8226443E-1,4.4646543E-1,-2.917923E-1,-1.8350042E-1,-7.790604E-2,3.080785E-2,1.2753066E-1,2.666813E-1,4.2335537E-1,8.1631446E-1,-2.9411426E-1,-7.882361E-2,-1.8655084E-1,1.2688816E-1,-8.989378E-2,1.4315045E-1,2.4046099E-2,5.065807E-1,1.2067178E-1,7.963361E-1,2.9129693E-1,-1.6162924E-2,1.6601701E-1,4.702655E-1,1.848724E0,2.1601047E-1,-2.971767E-1,-2.0381312E-1,3.0167717E-1,-2.6172295E-1,-1.8358022E-1,-5.910866E-1,-2.2338647E-1,6.313466E-1,-9.416354E-2,5.250738E-1,9.748749E-2,1.6379282E-1,5.6364063E-2,-5.8246646E-2,2.2852724E-2,1.0031971E0,1.4989157E-1,1.5303192E-2,4.6056443E-1,1.859495E-1,1.5116516E-1,3.407419E-1,3.2160813E-1,-2.3801157E-1,2.9871508E-1,-3.6900333E-1,5.4365873E-1,3.25552E-1,1.1539012E0,2.4697878E0,-8.651052E-2,1.5805594E0,-3.0588254E-2,-2.6798686E-2,-2.3496836E-2,4.0266823E-2,-4.3769244E-2,6.4615235E-2,-3.462144E-2,9.168901E-3,-1.4701393E-2,-2.1047859E-2,3.536261E-3,-6.630406E-2,2.5040096E-2,-4.163819E-2,2.4798522E-2,1.5584892E-1,-3.0129207E-2,-8.658907E-3,9.202058E-2,-4.388096E-2,3.7813105E-2,-1.4612051E-2,7.7365264E-3,-9.480423E-3,-6.780971E-3,8.3481126E-2,2.5737766E-2,-6.4176306E-2,5.7117622E-2,2.2033773E-1,1.4378771E-2,1.1574321E-1,1.6250908E-1,2.1836895E-4,-1.4799664E-3,1.0178923E-1,6.7832194E-2,7.659352E-3,4.07387E-2,1.8781295E-2,-7.558807E-2,4.5081276E-2,-6.477276E-2,5.4064575E-3,3.460152E-2,-1.4911316E-1,7.081218E-2,-5.7770323E-2,5.8494985E-2,1.6592346E-2,1.3007857E-3,5.764187E-2,2.2720818E-1,2.2668803E-2,3.2482055E-1,1.4058381E-1,1.8557772E-2,-8.065644E-2,2.2758105E-1,8.438715E-2],"categories":[],"categories_nodes":[],"categories_segments":[],"categories_sizes":[],"default_left":[0,0,0,0,0,0,0,0,0,0,0,0,0,0,0,0,0,0,0,0,0,0,0,0,0,0,0,0,0,0,0,0,0,0,0,0,0,0,0,0,0,0,0,0,0,0,0,0,0,0,0,0,0,0,0,0,0,0,0,0,0,0,0,0,0,0,0,0,0,0,0,0,0,0,0,0,0,0,0,0,0,0,0,0,0,0,0,0,0,0,0,0,0,0,0,0,0,0,0,0,0,0,0,0,0,0,0,0,0,0,0,0,0,0,0,0,0,0,0,0,0,0,0],"id":14,"left_children":[1,3,5,7,9,11,13,15,17,19,21,23,25,27,29,31,33,35,37,39,41,43,45,47,49,51,53,55,57,59,61,63,65,67,69,71,73,75,77,79,81,83,-1,85,87,89,91,93,95,97,-1,99,101,103,105,107,109,111,113,115,117,119,121,-1,-1,-1,-1,-1,-1,-1,-1,-1,-1,-1,-1,-1,-1,-1,-1,-1,-1,-1,-1,-1,-1,-1,-1,-1,-1,-1,-1,-1,-1,-1,-1,-1,-1,-1,-1,-1,-1,-1,-1,-1,-1,-1,-1,-1,-1,-1,-1,-1,-1,-1,-1,-1,-1,-1,-1,-1,-1,-1,-1],"loss_changes":[6.391305E2,1.5964328E2,8.737665E1,2.0340637E1,2.1808926E1,2.641101E1,1.3240204E1,1.3686523E0,4.186142E0,8.922031E0,1.3079654E1,1.5775864E1,1.571846E1,1.811084E1,5.703182E1,6.796875E-1,2.371541E0,5.0391235E0,7.7798867E0,8.387783E0,1.1475063E1,1.0721017E1,1.3567421E1,1.0590897E1,1.1405832E1,1.4262741E1,1.3631249E1,1.67873E1,1.3309723E1,1.1459732E1,2.5054422E1,5.622711E-1,1.9295621E0,3.105301E0,7.439828E-1,4.180374E0,1.4835558E0,2.498269E0,5.8306227E0,4.9100647E0,8.830879E0,1.1632478E1,0E0,9.196389E0,9.68177E0,4.8028054E0,