{"learner":{"attributes":{"best_iteration":"40","best_score":"3.505273074758868"},"feature_names":["ra_avg_3","ra_avg_5","ra_avg_10","reb_avg_season","ast_avg_season","reb_volatility","ast_volatility","min_avg_10","is_home","reb_hot_streak","ast_hot_streak","days_rest","is_back_to_back","games_in_last_week","win_streak","loss_streak","recent_win_pct","reb_momentum","min_std_10","min_trend","plus_minus_avg_10","reb_per_min_10","reb_hit_rate"],"feature_types":[],"gradient_booster":{"model":{"cats":{"enc":[],"feature_segments":[],"sorted_idx":[]},"gbtree_model_param":{"num_parallel_tree":"1","num_trees":"61"},"iteration_indptr":[0,1,2,3,4,5,6,7,8,9,10,11,12,13,14,15,16,17,18,19,20,21,22,23,24,25,26,27,28,29,30,31,32,33,34,35,36,37,38,39,40,41,42,43,44,45,46,47,48,49,50,51,52,53,54,55,56,57,58,59,60,61],"tree_info":[0,0,0,0,0,0,0,0,0,0,0,0,0,0,0,0,0,0,0,0,0,0,0,0,0,0,0,0,0,0,0,0,0,0,0,0,0,0,0,0,0,0,0,0,0,0,0,0,0,0,0,0,0,0,0,0,0,0,0,0,0],"trees":[{"base_weights":[-3.3506334E-3,-1.9873813E0,3.9078083E0,-3.454337E0,-5.7790244E-1,2.6318645E0,7.542437E0,-4.4588127E0,-2.8670502E0,-1.3383033E0,5.8861755E-2,1.9099458E0,3.7045424E0,6.7085547E0,1.3152256E1,-4.9053707E0,-4.104324E0,-3.3610394E0,-2.439111E0,-1.508831E0,-4.448398E-1,-4.7067812E-1,4.8074666E-1,1.6394106E0,2.9024532E0,3.2310014E0,4.4605246E0,5.8107295E0,7.6652417E0,1.0684492E1,1.475209E1,-5.3026705E0,-4.568877E0,-4.4278135E0,-3.6789224E0,-3.6197014E0,-2.955665E0,-2.5498488E0,-1.7127694E-1,-1.9177018E0,-1.1213162E0,-1.9424628E0,-2.1256821E-1,-1.0365325E0,-1.318715E-2,1.794367E-1,9.427833E-1,1.7996268E-1,1.7895637E0,7.9586613E-1,3.1762505E0,1.8267611E0,3.4661365E0,3.9879491E0,5.265035E0,4.6362367E0,6.2756977E0,7.1463003E0,8.446532E0,4.0928106E0,1.1196065E1,9.471962E0,1.52613125E1,-5.870403E-1,-5.1179314E-1,-2.5773457E-1,-4.6189615E-1,-4.7800073E-1,-3.8476887E-1,-3.8185462E-1,-2.7834707E-1,-3.919906E-1,-3.2299918E-1,-3.121147E-1,-2.047743E-1,-3.1339544E-1,-2.2915912E-1,-7.834707E-2,2.1642838E-1,-1.60061E-1,-2.4689363E-1,-1.2755711E-1,-5.2580085E-2,-2.2037935E-1,1.5619986E-1,7.4066736E-2,-6.310746E-2,-1.845631E-1,-4.1317236E-2,-3.3767354E-2,5.1020015E-2,4.687074E-3,1.3802081E-1,6.573789E-2,2.3509525E-1,-1.897602E-1,4.5580924E-2,1.5729634E-1,2.6755592E-1,1.7329356E-2,6.537855E-1,2.75071E-1,3.7218493E-1,9.139232E-3,2.5506335E-1,3.171673E-1,4.539353E-1,4.1048002E-1,6.1999816E-2,5.931105E-1,4.6081543E-1,1.6418163E-1,5.1366603E-1,3.9439902E-1,6.562399E-1,7.765801E-1,6.2925917E-1,8.54498E-1,1.3619985E-1,8.161999E-1,-1.9918765E-1,4.9645814E-1,1.1534933E0,1.0424999E0,4.4581237E-1,1.551734E0,7.964582E-1],"categories":[],"categories_nodes":[],"categories_segments":[],"categories_sizes":[],"default_left":[0,0,0,0,0,0,0,0,0,0,0,0,0,0,0,0,0,0,0,0,0,0,0,0,0,0,0,0,0,0,0,0,0,0,0,0,0,0,0,0,0,0,0,0,0,0,0,0,0,0,0,0,0,0,0,0,0,0,0,0,0,0,0,0,0,0,0,0,0,0,0,0,0,0,0,0,0,0,0,0,0,0,0,0,0,0,0,0,0,0,0,0,0,0,0,0,0,0,0,0,0,0,0,0,0,0,0,0,0,0,0,0,0,0,0,0,0,0,0,0,0,0,0,0,0,0,0],"id":0,"left_children":[1,3,5,7,9,11,13,15,17,19,21,23,25,27,29,31,33,35,37,39,41,43,45,47,49,51,53,55,57,59,61,63,65,67,69,71,73,75,77,79,81,83,85,87,89,91,93,95,97,99,101,103,105,107,109,111,113,115,117,119,121,123,125,-1,-1,-1,-1,-1,-1,-1,-1,-1,-1,-1,-1,-1,-1,-1,-1,-1,-1,-1,-1,-1,-1,-1,-1,-1,-1,-1,-1,-1,-1,-1,-1,-1,-1,-1,-1,-1,-1,-1,-1,-1,-1,-1,-1,-1,-1,-1,-1,-1,-1,-1,-1,-1,-1,-1,-1,-1,-1,-1,-1,-1,-1,-1,-1],"loss_changes":[1.4957111E5,2.6438613E4,3.0063117E4,3.6828906E3,3.158618E3,3.7117422E3,7.7921016E3,3.4463672E2,8.2772266E2,4.521006E2,7.93538E2,7.662129E2,6.7609375E2,1.2158906E3,6.965586E2,1.1074609E2,1.6097266E2,1.8094727E2,5.327031E2,3.93021E2,1.6564641E2,4.0760672E2,2.7494916E2,4.9473828E2,3.512163E2,3.8639062E2,2.597998E2,3.8594336E2,2.2513281E2,2.527666E2,1.9982227E2,1.7103516E1,4.3033203E1,1.2989551E2,5.9351074E1,1.1707031E2,1.0126758E2,2.977461E2,1.4453914E2,2.0766357E2,1.1709888E2,6.21192E1,1.6601454E2,3.540808E2,1.482486E2,1.9049194E2,3.116339E2,1.2221564E2,3.885835E2,2.5558188E2,1.1518555E2,2.1682275E2,3.068584E2,1.8234424E2,9.018506E1,3.205542E2,3.3606445E2,1.7819922E2,1.805664E2,2.1495259E2,1.1423926E2,1.8932983E1,9.076953E1,0E0,0E0,0E0,0E0,0E0,0E0,0E0,0E0,0E0,0E0,0E0,0E0,0E0,0E0,0E0,0E0,0E0,0E0,0E0,0E0,0E0,0E0,0E0,0E0,0E0,0E0,0E0,0E0,0E0,0E0,0E0,0E0,0E0,0E0,0E0,0E0,0E0,0E0,0E0,0E0,0E0,0E0,0E0,0E0,0E0,0E0,0E0,0E0,0E0,0E0,0E0,0E0,0E0,0E0,0E0,0E0,0E0,0E0,0E0,0E0,0E0,0E0,0E0,0E0],"parents":[2147483647,0,0,1,1,2,2,3,3,4,4,5,5,6,6,7,7,8,8,9,9,10,10,11,11,12,12,13,13,14,14,15,15,16,16,17,17,18,18,19,19,20,20,21,21,22,22,23,23,24,24,25,25,26,26,27,27,28,28,29,29,30,30,31,31,32,32,33,33,34,34,35,35,36,36,37,37,38,38,39,39,40,40,41,41,42,42,43,43,44,44,45,45,46,46,47,47,48,48,49,49,50,50,51,51,52,52,53,53,54,54,55,55,56,56,57,57,58,58,59,59,60,60,61,61,62,62],"right_children":[2,4,6,8,10,12,14,16,18,20,22,24,26,28,30,32,34,36,38,40,42,44,46,48,50,52,54,56,58,60,62,64,66,68,70,72,74,76,78,80,82,84,86,88,90,92,94,96,98,100,102,104,106,108,110,112,114,116,118,120,122,124,126,-1,-1,-1,-1,-1,-1,-1,-1,-1,-1,-1,-1,-1,-1,-1,-1,-1,-1,-1,-1,-1,-1,-1,-1,-1,-1,-1,-1,-1,-1,-1,-1,-1,-1,-1,-1,-1,-1,-1,-1,-1,-1,-1,-1,-1,-1,-1,-1,-1,-1,-1,-1,-1,-1,-1,-1,-1,-1,-1,-1,-1,-1,-1,-1],"split_conditions":[8.1E0,4.9E0,1.25E1,2.8E0,6.2E0,1.02E1,1.81E1,1.6666666E0,3.8E0,4.2941175E0,7E0,4.6666665E0,1.14E1,1.43E1,1.97E1,1.2727273E0,3E0,2.371134E0,7.6E0,3.3333335E-2,-4.3E0,2.0833333E0,7.5E0,-3.8E0,2.75E1,2.63E1,7.5666666E0,7.034483E0,1.58E1,-3.0555556E0,8.759259E0,8E-1,2.173913E-1,2.0434783E0,3.3333333E0,3.3333334E-1,2.6E0,-1.7333333E0,8.988882E1,6.0008335E0,2.7E0,2.5507247E0,7.608859E1,4.357143E0,3.3333335E-2,2.857143E-1,3.4E0,-8E0,7.0963855E0,9.8E0,4.0416665E0,-4.848485E-1,6.964286E0,7.253275E0,1E0,4E0,2E0,6E-1,4E0,1.88E1,2.3684211E-1,2.22E1,2.64E1,-5.870403E-1,-5.1179314E-1,-2.5773457E-1,-4.6189615E-1,-4.7800073E-1,-3.8476887E-1,-3.8185462E-1,-2.7834707E-1,-3.919906E-1,-3.2299918E-1,-3.121147E-1,-2.047743E-1,-3.1339544E-1,-2.2915912E-1,-7.834707E-2,2.1642838E-1,-1.60061E-1,-2.4689363E-1,-1.2755711E-1,-5.2580085E-2,-2.2037935E-1,1.5619986E-1,7.4066736E-2,-6.310746E-2,-1.845631E-1,-4.1317236E-2,-3.3767354E-2,5.1020015E-2,4.687074E-3,1.3802081E-1,6.573789E-2,2.3509525E-1,-1.897602E-1,4.5580924E-2,1.5729634E-1,2.6755592E-1,1.7329356E-2,6.537855E-1,2.75071E-1,3.7218493E-1,9.139232E-3,2.5506335E-1,3.171673E-1,4.539353E-1,4.1048002E-1,6.1999816E-2,5.931105E-1,4.6081543E-1,1.6418163E-1,5.1366603E-1,3.9439902E-1,6.562399E-1,7.765801E-1,6.2925917E-1,8.54498E-1,1.3619985E-1,8.161999E-1,-1.9918765E-1,4.9645814E-1,1.1534933E0,1.0424999E0,4.4581237E-1,1.551734E0,7.964582E-1],"split_indices":[2,2,2,1,2,2,2,0,2,3,1,4,2,2,2,3,13,3,19,19,19,4,2,19,7,7,3,3,2,9,3,2,4,3,0,17,20,19,5,18,4,4,6,3,19,21,19,19,3,2,3,9,3,18,15,4,13,9,17,2,21,1,2,0,0,0,0,0,0,0,0,0,0,0,0,0,0,0,0,0,0,0,0,0,0,0,0,0,0,0,0,0,0,0,0,0,0,0,0,0,0,0,0,0,0,0,0,0,0,0,0,0,0,0,0,0,0,0,0,0,0,0,0,0,0,0,0],"split_type":[0,0,0,0,0,0,0,0,0,0,0,0,0,0,0,0,0,0,0,0,0,0,0,0,0,0,0,0,0,0,0,0,0,0,0,0,0,0,0,0,0,0,0,0,0,0,0,0,0,0,0,0,0,0,0,0,0,0,0,0,0,0,0,0,0,0,0,0,0,0,0,0,0,0,0,0,0,0,0,0,0,0,0,0,0,0,0,0,0,0,0,0,0,0,0,0,0,0,0,0,0,0,0,0,0,0,0,0,0,0,0,0,0,0,0,0,0,0,0,0,0,0,0,0,0,0,0],"sum_hessian":[1.9273E4,1.2787E4,6.486E3,6.265E3,6.522E3,4.802E3,1.684E3,2.309E3,3.956E3,2.972E3,3.55E3,2.872E3,1.93E3,1.468E3,2.16E2,1.016E3,1.293E3,1.833E3,2.123E3,2.495E3,4.77E2,1.574E3,1.976E3,2.259E3,6.13E2,1.19E3,7.4E2,7.61E2,7.07E2,8.8E1,1.28E2,4.59E2,5.57E2,7.29E2,5.64E2,1.114E3,7.19E2,2.024E3,9.9E1,1.212E3,1.283E3,6.3E1,4.14E2,7.03E2,8.71E2,1.197E3,7.79E2,2.11E2,2.048E3,7.1E1,5.42E2,1.72E2,1.018E3,4.7E2,2.7E2,2.19E2,5.42E2,4.31E2,2.76E2,7E0,8.1E1,1.3E1,1.15E2,1.05E2,3.54E2,1.5E1,5.42E2,4.49E2,2.8E2,4.85E2,7.9E1,6.24E2,4.9E2,6.06E2,1.13E2,6.17E2,1.407E3,7.9E1,2E1,7.72E2,4.4E2,1.018E3,2.65E2,5.9E1,4E0,1.26E2,2.88E2,3.05E2,3.98E2,5.38E2,3.33E2,1.079E3,1.18E2,6.49E2,1.3E2,2.4E1,1.87E2,1.648E3,4E2,6.5E1,6E0,3.08E2,2.34E2,5.1E1,1.21E2,8.02E2,2.16E2,4.54E2,1.6E1,1.3E2,1.4E2,3.2E1,1.87E2,6.1E1,4.81E2,2.45E2,1.86E2,2.72E2,4E0,4E0,3E0,5E0,7.6E1,1E1,3E0,1.1E2,5E0],"tree_param":{"num_deleted":"0","num_feature":"23","num_nodes":"127","size_leaf_vector":"1"}},{"base_weights":[-3.5121303E-2,-1.7846178E0,3.5670326E0,-3.1775954E0,-6.630441E-1,2.3960152E0,6.765702E0,-4.1299295E0,-2.6791651E0,-1.215105E0,1.20214455E-1,1.7077489E0,3.3872972E0,6.0335183E0,1.1685783E1,-4.318134E0,-3.3617563E0,-3.0762177E0,-2.20384E0,-1.3707137E0,-2.6204717E-1,-1.0792439E0,2.663178E-1,1.3238195E0,2.1303337E0,-2.0606518E0,3.434661E0,5.2226353E0,6.8317804E0,9.76615E0,1.3431627E1,-4.5446606E0,-3.8739655E0,-2.9670236E0,-4.170435E0,-3.3817825E0,-2.5901146E0,-2.3244922E0,-1.1280729E0,-2.1444554E0,-1.1930057E0,-1.59535E0,-4.6462353E-2,-1.7055974E0,-8.85071E-2,5.3932997E-3,8.8091683E-1,4.4434154E-1,1.5272362E0,3.3250124E0,1.8965713E0,-2.6452003E0,4.7543105E-2,3.0591147E0,4.160866E0,4.596411E0,6.0146255E0,7.96329E0,6.4820075E0,1.1477416E1,8.501747E0,8.9668226E-1,1.3828122E1,-4.8615265E-1,-4.252451E-1,-3.971236E-1,-2.8462273E-1,-3.0771476E-1,2.3929723E-1,-4.5696312E-1,-3.1754622E-1,-3.68938E-1,-2.860978E-1,-3.8572857E-1,-2.4739325E-1,-1.9926003E-1,-2.6324943E-1,-2.6588053E-1,-3.841841E-2,-2.249512E-1,-1.3510354E-3,-1.3914788E-1,-7.209247E-2,-2.713329E-1,-7.621949E-2,1.273843E-1,-2.3686899E-2,-2.3352943E-1,-8.498876E-2,2.8129837E-1,-3.887604E-2,4.0769573E-2,-2.6631897E-2,9.734326E-2,-9.850787E-2,-1.4342247E-1,6.835614E-2,9.400734E-2,1.7492273E-1,3.7444794E-1,1.2371414E-1,-2.4353968E-1,1.9389121E-1,-1.451667E-1,-3.617067E-1,-1.7455646E-1,3.103368E-1,3.1293172E-1,4.5153126E-1,9.4457515E-2,4.7490025E-1,3.4892568E-1,6.358885E-1,3.15793E-1,8.118286E-1,6.202898E-1,8.147543E-1,1.2439743E0,8.292066E-1,9.104374E-1,2.1075585E-1,1.40395E0,6.941796E-1],"categories":[],"categories_nodes":[],"categories_segments":[],"categories_sizes":[],"default_left":[0,0,0,0,0,0,0,0,0,0,0,0,0,0,0,0,0,0,0,0,0,0,0,0,0,0,0,0,0,0,0,0,0,0,0,0,0,0,0,0,0,0,0,0,0,0,0,0,0,0,0,0,0,0,0,0,0,0,0,0,0,0,0,0,0,0,0,0,0,0,0,0,0,0,0,0,0,0,0,0,0,0,0,0,0,0,0,0,0,0,0,0,0,0,0,0,0,0,0,0,0,0,0,0,0,0,0,0,0,0,0,0,0,0,0,0,0,0,0,0,0,0,0],"id":1,"left_children":[1,3,5,7,9,11,13,15,17,19,21,23,25,27,29,31,33,35,37,39,41,43,45,47,49,51,53,55,57,59,61,63,65,67,69,71,73,75,77,79,81,83,85,87,89,91,93,95,97,99,101,103,-1,105,107,109,111,113,115,117,119,-1,121,-1,-1,-1,-1,-1,-1,-1,-1,-1,-1,-1,-1,-1,-1,-1,-1,-1,-1,-1,-1,-1,-1,-1,-1,-1,-1,-1,-1,-1,-1,-1,-1,-1,-1,-1,-1,-1,-1,-1,-1,-1,-1,-1,-1,-1,-1,-1,-1,-1,-1,-1,-1,-1,-1,-1,-1,-1,-1,-1,-1],"loss_changes":[1.22257836E5,2.0398371E4,2.3738078E4,2.7527422E3,3.1287166E3,3.1621484E3,6.048211E3,2.7371875E2,7.1476953E2,6.288794E2,5.245389E2,4.4186572E2,4.9799805E2,9.217578E2,6.0045703E2,1.4273828E2,1.1395947E2,2.9989453E2,2.2352344E2,4.987085E2,1.7136331E2,2.0134888E2,4.2775757E2,2.567412E2,3.573413E2,2.667646E1,5.0090625E2,3.3781055E2,2.409961E2,1.3410742E2,7.199805E1,7.609961E1,4.279785E1,1.6739331E2,3.555493E1,1.9304199E2,1.0878027E2,1.5457812E2,2.0136188E2,1.5197534E2,2.769673E2,7.48947E1,1.2966641E2,1.0492554E2,1.1149129E2,2.0497061E2,1.3820172E2,1.2313948E2,1.5045947E2,1.8053735E2,2.0514917E2,1.0481728E1,0E0,2.7069336E2,2.191084E2,2.2731348E2,2.5763867E2,1.0059766E2,2.1439453E2,2.658496E1,2.3400879E2,0E0,4.7458984E1,0E0,0E0,0E0,0E0,0E0,0E0,0E0,0E0,0E0,0E0,0E0,0E0,0E0,0E0,0E0,0E0,0E0,0E0,0E0,0E0,0E0,0E0,0E0,0E0,0E0,0E0,0E0,0E0,0E0,0E0,0E0,0E0,0E0,0E0,0E0,0E0,0E0,0E0,0E0,0E0,0E0,0E0,0E0,0E0,0E0,0E0,0E0,0E0,0E0,0E0,0E0,0E0,0E0,0E0,0E0,0E0,0E0,0E0,0E0,0E0],"parents":[2147483647,0,0,1,1,2,2,3,3,4,4,5,5,6,6,7,7,8,8,9,9,10,10,11,11,12,12,13,13,14,14,15,15,16,16,17,17,18,18,19,19,20,20,21,21,22,22,23,23,24,24,25,25,26,26,27,27,28,28,29,29,30,30,31,31,32,32,33,33,34,34,35,35,36,36,37,37,38,38,39,39,40,40,41,41,42,42,43,43,44,44,45,45,46,46,47,47,48,48,49,49,50,50,51,51,53,53,54,54,55,55,56,56,57,57,58,58,59,59,60,60,62,62],"right_children":[2,4,6,8,10,12,14,16,18,20,22,24,26,28,30,32,34,36,38,40,42,44,46,48,50,52,54,56,58,60,62,64,66,68,70,72,74,76,78,80,82,84,86,88,90,92,94,96,98,100,102,104,-1,106,108,110,112,114,116,118,120,-1,122,-1,-1,-1,-1,-1,-1,-1,-1,-1,-1,-1,-1,-1,-1,-1,-1,-1,-1,-1,-1,-1,-1,-1,-1,-1,-1,-1,-1,-1,-1,-1,-1,-1,-1,-1,-1,-1,-1,-1,-1,-1,-1,-1,-1,-1,-1,-1,-1,-1,-1,-1,-1,-1,-1,-1,-1,-1,-1,-1,-1],"split_conditions":[8.2E0,4.7E0,1.25E1,2.7E0,6.6E0,1.02E1,1.81E1,3.2E0,4E0,4.6E0,-4E0,9.2E0,1.94E1,1.43E1,2.02E1,3E0,3E0,1.8E1,7.6E0,-2.9333334E0,-3.5333333E0,7.5E0,5.214286E0,-2.3E0,1.2637363E-1,1.13E1,6.964286E0,8.759259E0,-1.1538461E0,-3.3333335E-2,5E-1,1.2391304E0,3.3333333E0,2.3333333E0,1.06E1,-7.3333335E-1,-6.8333335E0,5E-1,3E0,9.229582E1,5.9E0,4.8E0,1.4457831E-1,2.69E1,-6.8E0,1.3636364E-1,3.5E1,2.1E1,8.2E0,1.8764045E0,-8E0,1.0666667E1,4.7543105E-2,-7.1666665E0,2.67E1,1E1,2.72E1,1.44E1,1.8E1,1.93E1,4.1121495E-1,8.9668226E-1,5.673913E0,-4.8615265E-1,-4.252451E-1,-3.971236E-1,-2.8462273E-1,-3.0771476E-1,2.3929723E-1,-4.5696312E-1,-3.1754622E-1,-3.68938E-1,-2.860978E-1,-3.8572857E-1,-2.4739325E-1,-1.9926003E-1,-2.6324943E-1,-2.6588053E-1,-3.841841E-2,-2.249512E-1,-1.3510354E-3,-1.3914788E-1,-7.209247E-2,-2.713329E-1,-7.621949E-2,1.273843E-1,-2.3686899E-2,-2.3352943E-1,-8.498876E-2,2.8129837E-1,-3.887604E-2,4.0769573E-2,-2.6631897E-2,9.734326E-2,-9.850787E-2,-1.4342247E-1,6.835614E-2,9.400734E-2,1.7492273E-1,3.7444794E-1,1.2371414E-1,-2.4353968E-1,1.9389121E-1,-1.451667E-1,-3.617067E-1,-1.7455646E-1,3.103368E-1,3.1293172E-1,4.5153126E-1,9.4457515E-2,4.7490025E-1,3.4892568E-1,6.358885E-1,3.15793E-1,8.118286E-1,6.202898E-1,8.147543E-1,1.2439743E0,8.292066E-1,9.104374E-1,2.1075585E-1,1.40395E0,6.941796E-1],"split_indices":[2,2,2,2,2,2,2,19,0,3,19,2,7,2,2,13,11,7,19,19,19,2,3,19,21,2,3,3,9,10,16,3,0,17,7,19,19,9,13,5,2,1,21,7,20,21,7,7,1,10,19,0,0,19,7,1,7,2,1,2,21,0,9,0,0,0,0,0,0,0,0,0,0,0,0,0,0,0,0,0,0,0,0,0,0,0,0,0,0,0,0,0,0,0,0,0,0,0,0,0,0,0,0,0,0,0,0,0,0,0,0,0,0,0,0,0,0,0,0,0,0,0,0],"split_type":[0,0,0,0,0,0,0,0,0,0,0,0,0,0,0,0,0,0,0,0,0,0,0,0,0,0,0,0,0,0,0,0,0,0,0,0,0,0,0,0,0,0,0,0,0,0,0,0,0,0,0,0,0,0,0,0,0,0,0,0,0,0,0,0,0,0,0,0,0,0,0,0,0,0,0,0,0,0,0,0,0,0,0,0,0,0,0,0,0,0,0,0,0,0,0,0,0,0,0,0,0,0,0,0,0,0,0,0,0,0,0,0,0,0,0,0,0,0,0,0,0,0,0],"sum_hessian":[1.9398E4,1.3057E4,6.341E3,5.823E3,7.234E3,4.643E3,1.698E3,1.998E3,3.825E3,4.243E3,2.991E3,2.742E3,1.901E3,1.48E3,2.18E2,1.601E3,3.97E2,2.081E3,1.744E3,3.647E3,5.96E2,3.24E2,2.667E3,1.439E3,1.303E3,1.6E1,1.885E3,7.38E2,7.42E2,1.07E2,1.11E2,1.054E3,5.47E2,2.7E2,1.27E2,1.274E3,8.07E2,1.567E3,1.77E2,6.79E2,2.968E3,8.2E1,5.14E2,1.98E2,1.26E2,1.873E3,7.94E2,2.71E2,1.168E3,2.11E2,1.092E3,1.3E1,3E0,1.246E3,6.39E2,4.16E2,3.22E2,1.7E2,5.72E2,4.2E1,6.5E1,1.1E1,1E2,4.98E2,5.56E2,4.97E2,5E1,2.65E2,5E0,8.8E1,3.9E1,7.97E2,4.77E2,6.5E1,7.42E2,7.58E2,8.09E2,5.7E1,1.2E2,6.47E2,3.2E1,2.088E3,8.8E2,3.4E1,4.8E1,6.4E1,4.5E2,1.13E2,8.5E1,1.1E1,1.15E2,7.55E2,1.118E3,7.57E2,3.7E1,3E1,2.41E2,3.22E2,8.46E2,1.75E2,3.6E1,1E1,1.082E3,7E0,6E0,1.1E1,1.235E3,1.66E2,4.73E2,1.7E1,3.99E2,4E1,2.82E2,6E0,1.64E2,4.94E2,7.8E1,3E1,1.2E1,5.9E1,6E0,9.6E1,4E0],"tree_param":{"num_deleted":"0","num_feature":"23","num_nodes":"123","size_leaf_vector":"1"}},{"base_weights":[8.233751E-3,-1.6030976E0,3.089236E0,-2.6970272E0,-4.5022106E-1,2.2385921E0,6.5081325E0,-3.583354E0,-2.2088046E0,-1.0078574E0,4.6858083E-2,1.4519845E0,3.0720556E0,5.6867194E0,9.625156E0,-3.9533439E0,-3.1147163E0,-2.3959033E0,-1.3233211E0,-1.4864837E0,-4.6018925E-1,-1.0728469E-1,1.2943574E0,1.2134278E0,2.5455709E0,2.539813E0,3.980881E0,5.186737E0,7.006085E0,7.91566E0,1.1263666E1,-4.495747E0,-3.7422955E0,-3.5785534E0,-2.8825061E0,-2.9421952E0,-2.1626484E0,-1.6620641E0,-9.143938E-1,-2.0426586E0,-1.0756797E0,-7.59288E-1,4.6251625E-1,-4.899488E-1,5.255896E-1,7.790366E-1,3.045775E0,8.7523335E-1,2.21847E0,2.1071734E0,3.5445364E0,1.7909297E0,2.9455888E0,3.1488578E0,4.6934977E0,4.394418E0,5.8125706E0,6.575465E0,9.328335E0,8.525251E0,3.4064028E0,2.812465E-1,1.1495939E1,-4.5701966E-1,-3.0928E-1,-4.2566657E-1,-3.5578156E-1,-1.1901142E-1,-3.6478612E-1,-3.1199756E-1,-2.4719813E-1,-3.5988808E-1,-2.739102E-1,-2.2115767E-1,-6.212562E-2,-2.746341E-2,-1.9065218E-1,-1.1002971E-1,5.1744636E-2,-3.259642E-1,-1.8305853E-1,-4.0008697E-1,-1.0277521E-1,9.8031014E-2,-8.668779E-2,-1.530102E-1,7.968431E-2,-8.955266E-2,-2.4643898E-2,4.9182843E-2,3.789588E-1,-6.101119E-2,1.0867889E-1,2.566119E-1,7.08937E-1,8.543396E-2,9.375448E-1,1.9760153E-1,4.512356E-1,1.1711174E-1,2.636205E-1,2.8005108E-1,4.9299356E-1,1.670583E-1,4.1590306E-1,2.6855681E-2,3.0621934E-1,4.10606E-1,2.59227E-1,4.253125E-1,5.6327236E-1,-1.7616924E-2,4.5053846E-1,6.463235E-1,4.6256945E-1,6.886894E-1,4.9187E-1,9.860348E-1,1.7841272E-1,2.6110777E-1,8.758815E-1,5.899431E-1,-1.3397025E-1,1.2017392E0,8.3141804E-1],"categories":[],"categories_nodes":[],"categories_segments":[],"categories_sizes":[],"default_left":[0,0,0,0,0,0,0,0,0,0,0,0,0,0,0,0,0,0,0,0,0,0,0,0,0,0,0,0,0,0,0,0,0,0,0,0,0,0,0,0,0,0,0,0,0,0,0,0,0,0,0,0,0,0,0,0,0,0,0,0,0,0,0,0,0,0,0,0,0,0,0,0,0,0,0,0,0,0,0,0,0,0,0,0,0,0,0,0,0,0,0,0,0,0,0,0,0,0,0,0,0,0,0,0,0,0,0,0,0,0,0,0,0,0,0,0,0,0,0,0,0,0,0,0,0],"id":2,"left_children":[1,3,5,7,9,11,13,15,17,19,21,23,25,27,29,31,33,35,37,39,41,43,45,47,49,51,53,55,57,59,61,63,65,67,69,71,73,75,77,79,81,83,85,87,89,91,93,95,97,99,101,103,105,107,109,111,113,115,117,119,121,-1,123,-1,-1,-1,-1,-1,-1,-1,-1,-1,-1,-1,-1,-1,-1,-1,-1,-1,-1,-1,-1,-1,-1,-1,-1,-1,-1,-1,-1,-1,-1,-1,-1,-1,-1,-1,-1,-1,-1,-1,-1,-1,-1,-1,-1,-1,-1,-1,-1,-1,-1,-1,-1,-1,-1,-1,-1,-1,-1,-1,-1,-1,-1],"loss_changes":[9.5532305E4,1.5933297E4,1.920236E4,2.7968633E3,1.7056897E3,3.4652207E3,3.3131758E3,3.8595117E2,6.8946875E2,7.5929346E2,6.25979E2,7.0743945E2,1.2319043E3,6.511211E2,6.7360156E2,1.2910547E2,9.890039E1,4.329961E2,9.962024E1,3.5094775E2,3.7405783E2,7.0184436E2,3.2035474E2,7.587844E2,2.0524438E2,4.874453E2,5.4592676E2,3.507871E2,2.2107324E2,3.4635254E2,2.3516602E2,2.207373E1,7.2228516E1,5.079541E1,5.8506836E1,1.2687793E2,1.8108008E2,1.345863E2,8.953299E1,1.6283081E2,1.2044116E2,1.9230634E2,2.2231961E2,1.7802957E2,1.1804242E2,1.19559555E2,1.3794452E2,2.8880444E2,3.035547E2,1.6539612E2,1.3694409E2,1.5577014E2,3.2691797E2,2.2310352E2,1.8516797E2,1.7366895E2,2.9488574E2,9.0325195E1,1.4981543E2,1.4175293E2,2.213386E2,0E0,1.187168E2,0E0,0E0,0E0,0E0,0E0,0E0,0E0,0E0,0E0,0E0,0E0,0E0,0E0,0E0,0E0,0E0,0E0,0E0,0E0,0E0,0E0,0E0,0E0,0E0,0E0,0E0,0E0,0E0,0E0,0E0,0E0,0E0,0E0,0E0,0E0,0E0,0E0,0E0,0E0,0E0,0E0,0E0,0E0,0E0,0E0,0E0,0E0,0E0,0E0,0E0,0E0,0E0,0E0,0E0,0E0,0E0,0E0,0E0,0E0,0E0,0E0,0E0],"parents":[2147483647,0,0,1,1,2,2,3,3,4,4,5,5,6,6,7,7,8,8,9,9,10,10,11,11,12,12,13,13,14,14,15,15,16,16,17,17,18,18,19,19,20,20,21,21,22,22,23,23,24,24,25,25,26,26,27,27,28,28,29,29,30,30,31,31,32,32,33,33,34,34,35,35,36,36,37,37,38,38,39,39,40,40,41,41,42,42,43,43,44,44,45,45,46,46,47,47,48,48,49,49,50,50,51,51,52,52,53,53,54,54,55,55,56,56,57,57,58,58,59,59,60,60,62,62],"right_children":[2,4,6,8,10,12,14,16,18,20,22,24,26,28,30,32,34,36,38,40,42,44,46,48,50,52,54,56,58,60,62,64,66,68,70,72,74,76,78,80,82,84,86,88,90,92,94,96,98,100,102,104,106,108,110,112,114,116,118,120,122,-1,124,-1,-1,-1,-1,-1,-1,-1,-1,-1,-1,-1,-1,-1,-1,-1,-1,-1,-1,-1,-1,-1,-1,-1,-1,-1,-1,-1,-1,-1,-1,-1,-1,-1,-1,-1,-1,-1,-1,-1,-1,-1,-1,-1,-1,-1,-1,-1,-1,-1,-1,-1,-1,-1,-1,-1,-1,-1,-1,-1,-1,-1,-1],"split_conditions":[8.2E0,5E0,1.36E1,2.8E0,6.4E0,1.02E1,1.8E1,1.7333333E0,2.010101E0,1.773585E0,4.3636365E0,4.888889E0,7.034483E0,1.059596E1,2.0333334E1,1E0,1.6666666E0,2.1904762E0,4.3333335E0,3.3292682E0,4.2272725E0,4.7887325E0,3.8285713E0,6.625E0,4.6923075E0,4E0,2.5507247E0,4.8333335E0,5.361111E0,4.0333334E-1,3E-1,1.2266667E0,4.0447497E0,3.043478E-1,2.7777777E0,2E0,5.862069E0,-5.6E0,1.6053511E-1,2E0,-8E0,3.8676155E1,3.903124E1,1.8125E0,9.28125E0,6E0,7.864477E0,1.4813657E2,9.5161295E0,5.75E0,5.536842E0,6E0,1E0,3.3333332E1,4.448718E0,8.75E-1,8.333333E-1,2.7E0,3.3333332E1,6.9E0,4.117647E-1,2.812465E-1,3.6666667E0,-4.5701966E-1,-3.0928E-1,-4.2566657E-1,-3.5578156E-1,-1.1901142E-1,-3.6478612E-1,-3.1199756E-1,-2.4719813E-1,-3.5988808E-1,-2.739102E-1,-2.2115767E-1,-6.212562E-2,-2.746341E-2,-1.9065218E-1,-1.1002971E-1,5.1744636E-2,-3.259642E-1,-1.8305853E-1,-4.0008697E-1,-1.0277521E-1,9.8031014E-2,-8.668779E-2,-1.530102E-1,7.968431E-2,-8.955266E-2,-2.4643898E-2,4.9182843E-2,3.789588E-1,-6.101119E-2,1.0867889E-1,2.566119E-1,7.08937E-1,8.543396E-2,9.375448E-1,1.9760153E-1,4.512356E-1,1.1711174E-1,2.636205E-1,2.8005108E-1,4.9299356E-1,1.670583E-1,4.1590306E-1,2.6855681E-2,3.0621934E-1,4.10606E-1,2.59227E-1,4.253125E-1,5.6327236E-1,-1.7616924E-2,4.5053846E-1,6.463235E-1,4.6256945E-1,6.886894E-1,4.9187E-1,9.860348E-1,1.7841272E-1,2.6110777E-1,8.758815E-1,5.899431E-1,-1.3397025E-1,1.2017392E0,8.3141804E-1],"split_indices":[1,1,1,1,1,1,1,3,4,4,4,4,3,3,0,0,0,3,0,3,3,3,3,3,3,4,4,4,4,21,22,4,18,4,3,13,3,20,21,13,19,6,5,4,3,0,18,6,3,4,4,15,13,5,4,4,19,19,5,3,10,0,10,0,0,0,0,0,0,0,0,0,0,0,0,0,0,0,0,0,0,0,0,0,0,0,0,0,0,0,0,0,0,0,0,0,0,0,0,0,0,0,0,0,0,0,0,0,0,0,0,0,0,0,0,0,0,0,0,0,0,0,0,0,0],"split_type":[0,0,0,0,0,0,0,0,0,0,0,0,0,0,0,0,0,0,0,0,0,0,0,0,0,0,0,0,0,0,0,0,0,0,0,0,0,0,0,0,0,0,0,0,0,0,0,0,0,0,0,0,0,0,0,0,0,0,0,0,0,0,0,0,0,0,0,0,0,0,0,0,0,0,0,0,0,0,0,0,0,0,0,0,0,0,0,0,0,0,0,0,0,0,0,0,0,0,0,0,0,0,0,0,0,0,0,0,0,0,0,0,0,0,0,0,0,0,0,0,0,0,0,0,0],"sum_hessian":[1.9241E4,1.2634E4,6.607E3,6.482E3,6.152E3,5.292E3,1.315E3,2.3E3,4.182E3,2.899E3,3.253E3,2.724E3,2.568E3,1.043E3,2.72E2,1.281E3,1.019E3,3.451E3,7.31E2,1.546E3,1.353E3,2.896E3,3.57E2,2.238E3,4.86E2,1.622E3,9.46E2,7.6E2,2.83E2,1.36E2,1.36E2,3.53E2,9.28E2,3.35E2,6.84E2,1.029E3,2.422E3,3.98E2,3.33E2,6.55E2,8.91E2,1.022E3,3.31E2,1.805E3,1.091E3,2.77E2,8E1,1.676E3,5.62E2,3.4E2,1.46E2,5.72E2,1.05E3,4.39E2,5.07E2,3.39E2,4.21E2,2.42E2,4.1E1,1.19E2,1.7E1,4E0,1.32E2,3.33E2,2E1,2.39E2,6.89E2,1E1,3.25E2,4.29E2,2.55E2,2.39E2,7.9E2,2.347E3,7.5E1,6E1,3.38E2,2.95E2,3.8E1,9.5E1,5.6E2,1.3E1,8.78E2,5.9E1,9.63E2,4.7E1,2.84E2,6.76E2,1.129E3,1.081E3,1E1,5E1,2.27E2,7.3E1,7E0,1.673E3,3E0,5.1E2,5.2E1,1.24E2,2.16E2,9.7E1,4.9E1,5.46E2,2.6E1,4.4E1,1.006E3,1.59E2,2.8E2,3.49E2,1.58E2,8E0,3.31E2,2.69E2,1.52E2,2.01E2,4.1E1,3.8E1,3E0,5E0,1.14E2,1.1E1,6E0,1.11E2,2.1E1],"tree_param":{"num_deleted":"0","num_feature":"23","num_nodes":"125","size_leaf_vector":"1"}},{"base_weights":[-8.864037E-3,-1.4511317E0,2.9573162E0,-2.635724E0,-4.9226633E-1,1.970602E0,5.5468197E0,-3.3059669E0,-2.2024012E0,-1.1367673E0,-2.4717934E-2,1.4223542E0,2.77443E0,4.9746847E0,9.406507E0,-3.6368394E0,-2.917609E0,-2.7174253E0,-1.9939256E0,-1.238311E0,-2.9579183E-1,-1.212562E0,1.0240713E-1,2.0946178E0,1.2466692E0,2.3916492E0,3.426663E0,4.30311E0,5.7156963E0,7.644272E0,1.0869241E1,-3.8240306E0,-3.2038848E0,-2.724843E0,-3.5710168E0,-2.260838E0,-2.8820114E0,-2.075534E0,-3.713492E-1,-1.1365137E0,-1.9018059E0,3.3223224E0,-3.9725652E-1,-1.910429E0,-6.515364E-1,-1.21692516E-1,6.448442E-1,2.3752418E0,1.5438092E0,2.3053251E-1,1.3751019E0,1.3915173E0,2.5944571E0,3.242701E0,5.070868E0,3.855492E0,5.0007634E0,5.8266964E0,2.3928313E0,1.7538222E0,8.046102E0,9.411435E0,1.1880468E1,-4.1263348E-1,-3.5203412E-1,-3.331631E-1,-2.0418337E-1,-3.087378E-1,-2.4474986E-1,-3.7949237E-1,-2.4056338E-1,-2.0974593E-1,-3.6740634E-1,-2.9806393E-1,-1.9889383E-1,-2.3760791E-1,-1.8343247E-1,-1.0306378E-1,7.005079E-2,-1.4265676E-1,-8.7930076E-2,1.7147644E-1,-1.9687979E-1,1.2932788E-1,4.6669015E-1,-4.7257908E-2,3.0132023E-1,-5.9628654E-3,-2.2381394E-1,-1.4814952E-1,-1.7370204E-2,-2.3547305E-2,6.979441E-2,4.8549872E-2,1.9673108E-1,2.5871903E-1,1.2088843E-1,1.3078457E-1,4.46021E-1,-2.1342154E-1,4.2876117E-2,1.8034534E-1,1.03087775E-1,1.5886836E-1,-1.5591584E-1,1.9469196E-1,2.9999426E-1,3.5788628E-1,2.0356014E-1,6.7830825E-1,2.8604552E-1,4.108924E-1,1.4182845E-1,5.477974E-1,3.6929363E-1,5.404909E-1,6.471794E-1,1.051619E-1,6.4480674E-1,4.6152958E-1,-2.236475E-1,8.6543083E-1,4.3818995E-1,9.785512E-1,2.264101E-1,1.214525E0,4.6488643E-1],"categories":[],"categories_nodes":[],"categories_segments":[],"categories_sizes":[],"default_left":[0,0,0,0,0,0,0,0,0,0,0,0,0,0,0,0,0,0,0,0,0,0,0,0,0,0,0,0,0,0,0,0,0,0,0,0,0,0,0,0,0,0,0,0,0,0,0,0,0,0,0,0,0,0,0,0,0,0,0,0,0,0,0,0,0,0,0,0,0,0,0,0,0,0,0,0,0,0,0,0,0,0,0,0,0,0,0,0,0,0,0,0,0,0,0,0,0,0,0,0,0,0,0,0,0,0,0,0,0,0,0,0,0,0,0,0,0,0,0,0,0,0,0,0,0,0,0],"id":3,"left_children":[1,3,5,7,9,11,13,15,17,19,21,23,25,27,29,31,33,35,37,39,41,43,45,47,49,51,53,55,57,59,61,63,65,67,69,71,73,75,77,79,81,83,85,87,89,91,93,95,97,99,101,103,105,107,109,111,113,115,117,119,121,123,125,-1,-1,-1,-1,-1,-1,-1,-1,-1,-1,-1,-1,-1,-1,-1,-1,-1,-1,-1,-1,-1,-1,-1,-1,-1,-1,-1,-1,-1,-1,-1,-1,-1,-1,-1,-1,-1,-1,-1,-1,-1,-1,-1,-1,-1,-1,-1,-1,-1,-1,-1,-1,-1,-1,-1,-1,-1,-1,-1,-1,-1,-1,-1,-1],"loss_changes":[8.268127E4,1.4769172E4,1.6144215E4,1.6816094E3,2.1658545E3,2.0140254E3,3.8029766E3,2.819629E2,3.7377148E2,2.5754663E2,6.294719E2,3.188955E2,4.5459668E2,7.313203E2,4.924629E2,8.6569336E1,1.22521484E2,6.932031E1,3.3280664E2,1.7962842E2,1.2107254E2,1.5628217E2,4.5780396E2,8.296411E1,2.8180518E2,2.339165E2,1.8961523E2,2.3028418E2,2.5079688E2,2.3343896E2,6.295996E1,6.292871E1,4.8624756E1,7.423877E1,5.2092773E1,5.4980835E1,5.901953E1,1.6920605E2,8.6967896E1,1.7309229E2,8.989575E1,1.7922272E1,8.311604E1,1.0820502E2,8.880827E1,2.4865245E2,2.3081223E2,8.820679E1,1.2640552E2,1.1512216E2,2.8095923E2,1.1883469E2,2.494043E2,2.4292578E2,2.3320776E2,2.981289E2,1.7232666E2,1.5321289E2,1.2844246E2,1.0190492E2,1.7917578E2,1.210166E2,7.015039E1,0E0,0E0,0E0,0E0,0E0,0E0,0E0,0E0,0E0,0E0,0E0,0E0,0E0,0E0,0E0,0E0,0E0,0E0,0E0,0E0,0E0,0E0,0E0,0E0,0E0,0E0,0E0,0E0,0E0,0E0,0E0,0E0,0E0,0E0,0E0,0E0,0E0,0E0,0E0,0E0,0E0,0E0,0E0,0E0,0E0,0E0,0E0,0E0,0E0,0E0,0E0,0E0,0E0,0E0,0E0,0E0,0E0,0E0,0E0,0E0,0E0,0E0,0E0,0E0],"parents":[2147483647,0,0,1,1,2,2,3,3,4,4,5,5,6,6,7,7,8,8,9,9,10,10,11,11,12,12,13,13,14,14,15,15,16,16,17,17,18,18,19,19,20,20,21,21,22,22,23,23,24,24,25,25,26,26,27,27,28,28,29,29,30,30,31,31,32,32,33,33,34,34,35,35,36,36,37,37,38,38,39,39,40,40,41,41,42,42,43,43,44,44,45,45,46,46,47,47,48,48,49,49,50,50,51,51,52,52,53,53,54,54,55,55,56,56,57,57,58,58,59,59,60,60,61,61,62,62],"right_children":[2,4,6,8,10,12,14,16,18,20,22,24,26,28,30,32,34,36,38,40,42,44,46,48,50,52,54,56,58,60,62,64,66,68,70,72,74,76,78,80,82,84,86,88,90,92,94,96,98,100,102,104,106,108,110,112,114,116,118,120,122,124,126,-1,-1,-1,-1,-1,-1,-1,-1,-1,-1,-1,-1,-1,-1,-1,-1,-1,-1,-1,-1,-1,-1,-1,-1,-1,-1,-1,-1,-1,-1,-1,-1,-1,-1,-1,-1,-1,-1,-1,-1,-1,-1,-1,-1,-1,-1,-1,-1,-1,-1,-1,-1,-1,-1,-1,-1,-1,-1,-1,-1,-1,-1,-1,-1],"split_conditions":[8.2E0,4.7E0,1.24E1,2.8E0,6E0,1.02E1,1.81E1,2E0,3.3E0,4.567901E0,-4.3E0,4.0089188E1,1.14E1,1.43E1,2.01E1,3E0,4E0,1.0909091E-1,7.6E0,4E0,1.1923077E-1,2.48E1,7.5E0,1.5306123E-1,-3.5333333E0,-2.3666666E0,3.4666667E0,7.3333335E-1,4.4067797E-1,-2.2222223E0,3.6728735E0,1.2391304E0,3.2E0,1.7333333E0,2.796875E0,6E0,8.6977005E0,4E0,7E0,-6.666667E-2,2.6E0,4.6E0,9E0,2E0,4.8956043E1,5.814815E0,3.8E0,1.4444444E0,2.8125E-1,-8E0,6.666667E-2,5.9160797E1,4.888889E0,1.4108527E0,3.06E1,3.6666667E-1,1.7383966E0,1.58E1,3.09E1,4.1121495E-1,3.64E1,3.9568347E-1,5.673913E0,-4.1263348E-1,-3.5203412E-1,-3.331631E-1,-2.0418337E-1,-3.087378E-1,-2.4474986E-1,-3.7949237E-1,-2.4056338E-1,-2.0974593E-1,-3.6740634E-1,-2.9806393E-1,-1.9889383E-1,-2.3760791E-1,-1.8343247E-1,-1.0306378E-1,7.005079E-2,-1.4265676E-1,-8.7930076E-2,1.7147644E-1,-1.9687979E-1,1.2932788E-1,4.6669015E-1,-4.7257908E-2,3.0132023E-1,-5.9628654E-3,-2.2381394E-1,-1.4814952E-1,-1.7370204E-2,-2.3547305E-2,6.979441E-2,4.8549872E-2,1.9673108E-1,2.5871903E-1,1.2088843E-1,1.3078457E-1,4.46021E-1,-2.1342154E-1,4.2876117E-2,1.8034534E-1,1.03087775E-1,1.5886836E-1,-1.5591584E-1,1.9469196E-1,2.9999426E-1,3.5788628E-1,2.0356014E-1,6.7830825E-1,2.8604552E-1,4.108924E-1,1.4182845E-1,5.477974E-1,3.6929363E-1,5.404909E-1,6.471794E-1,1.051619E-1,6.4480674E-1,4.6152958E-1,-2.236475E-1,8.6543083E-1,4.3818995E-1,9.785512E-1,2.264101E-1,1.214525E0,4.6488643E-1],"split_indices":[2,2,2,1,2,2,2,1,2,3,19,6,2,2,2,13,11,21,19,11,21,7,2,21,19,19,19,19,21,9,18,3,19,3,3,11,18,0,0,19,1,1,15,11,5,3,19,10,21,19,10,5,3,9,7,19,10,2,7,21,7,21,9,0,0,0,0,0,0,0,0,0,0,0,0,0,0,0,0,0,0,0,0,0,0,0,0,0,0,0,0,0,0,0,0,0,0,0,0,0,0,0,0,0,0,0,0,0,0,0,0,0,0,0,0,0,0,0,0,0,0,0,0,0,0,0,0],"split_type":[0,0,0,0,0,0,0,0,0,0,0,0,0,0,0,0,0,0,0,0,0,0,0,0,0,0,0,0,0,0,0,0,0,0,0,0,0,0,0,0,0,0,0,0,0,0,0,0,0,0,0,0,0,0,0,0,0,0,0,0,0,0,0,0,0,0,0,0,0,0,0,0,0,0,0,0,0,0,0,0,0,0,0,0,0,0,0,0,0,0,0,0,0,0,0,0,0,0,0,0,0,0,0,0,0,0,0,0,0,0,0,0,0,0,0,0,0,0,0,0,0,0,0,0,0,0,0],"sum_hessian":[1.9325E4,1.3003E4,6.322E3,5.816E3,7.187E3,4.579E3,1.743E3,2.281E3,3.535E3,3.021E3,4.166E3,2.724E3,1.855E3,1.52E3,2.23E2,1.227E3,1.054E3,1.015E3,2.52E3,2.695E3,3.26E2,4.02E2,3.764E3,5.62E2,2.162E3,1.172E3,6.83E2,8.01E2,7.19E2,1.04E2,1.19E2,8.51E2,3.76E2,8.18E2,2.36E2,2.73E2,7.42E2,2.399E3,1.21E2,2.339E3,3.56E2,8E0,3.18E2,1.78E2,2.24E2,2.664E3,1.1E3,3.7E2,1.92E2,2.43E2,1.919E3,1.99E2,9.73E2,6.17E2,6.6E1,4.92E2,3.09E2,6.95E2,2.4E1,7E0,9.7E1,5.3E1,6.6E1,4.2E2,4.31E2,3.37E2,3.9E1,3.5E2,4.68E2,1.96E2,4E1,2.47E2,2.6E1,6.66E2,7.6E1,1.064E3,1.335E3,7.5E1,4.6E1,1.097E3,1.242E3,6E0,3.5E2,4E0,4E0,3.12E2,6E0,2.7E1,1.51E2,8.1E1,1.43E2,2.34E3,3.24E2,9.83E2,1.17E2,3.12E2,5.8E1,1.79E2,1.3E1,1.8E1,2.25E2,8.53E2,1.066E3,1.87E2,1.2E1,3.77E2,5.96E2,4.81E2,1.36E2,3.6E1,3E1,4.45E2,4.7E1,2.24E2,8.5E1,4.26E2,2.69E2,1.9E1,5E0,4E0,3E0,8.2E1,1.5E1,5E1,3E0,6.3E1,3E0],"tree_param":{"num_deleted":"0","num_feature":"23","num_nodes":"127","size_leaf_vector":"1"}},{"base_weights":[1.5277617E-2,-1.2838597E0,2.6799824E0,-2.2765975E0,-3.8268152E-1,1.9190711E0,5.4655056E0,-3.0289729E0,-1.9315081E0,-9.101767E-1,3.888669E-2,1.3919657E0,2.8496354E0,4.7897754E0,8.80178E0,-3.6401799E0,-2.882268E0,-2.329132E0,-1.6477491E0,-2.2278626E0,-8.4957933E-1,-2.9765323E-1,4.1348153E-1,1.1882397E0,1.9841989E0,2.3791425E0,3.42589E0,4.876358E0,1.8549404E0,7.337126E0,9.781031E0,-3.160593E0,-3.8975809E0,-3.2441196E0,-2.6597285E0,-2.6047313E0,-1.7509949E0,-2.0003526E0,-1.3369235E0,4.7206688E-1,-2.578897E0,-9.946392E-1,-3.5845336E-1,-5.2757233E-1,3.8289803E-1,3.147396E-1,1.218E0,-2.260327E0,1.2216709E0,1.2027252E0,2.431696E0,1.2265809E0,2.6707098E0,3.1187525E0,4.487965E0,5.5827913E0,4.6090913E0,3.2801366E0,-6.9192564E-1,5.813697E0,8.705615E0,1.0277082E1,6.957435E0,-3.1848736E-2,-3.2441804E-1,-4.0010124E-1,-2.9004624E-1,-3.387713E-1,-1.11861266E-1,-2.4653625E-1,-3.2418594E-1,-2.715033E-1,-1.6684389E-1,-1.6916806E-1,-3.6964828E-1,-2.1296893E-1,-1.5103303E-1,-1.417316E-1,5.316719E-2,-1.24753736E-1,5.967764E-1,-2.7493462E-1,1.01596884E-1,-1.1372741E-1,-4.848656E-2,-7.295104E-2,1.17135E-2,-8.712544E-2,5.15748E-3,-1.2740521E-1,6.9951765E-2,1.4987375E-2,8.5564345E-2,6.933608E-2,2.4742606E-1,-3.8184423E-2,-3.6682492E-1,8.133828E-2,1.5152068E-1,9.7262934E-2,3.0109882E-1,2.8309748E-1,1.7353944E-1,8.600483E-3,2.2784846E-1,4.048349E-1,2.5118044E-1,2.7521864E-1,4.5536527E-1,3.2066926E-1,5.127717E-1,1.5233974E-1,5.778565E-1,4.2031407E-1,5.234855E-1,-1.5152322E-1,4.1223127E-1,-2.1822079E-1,1.3937715E-1,1.5215081E-1,6.275079E-1,9.5612764E-1,5.3335255E-1,7.9599303E-1,1.0891036E0,8.039484E-1,1.4341608E-1],"categories":[],"categories_nodes":[],"categories_segments":[],"categories_sizes":[],"default_left":[0,0,0,0,0,0,0,0,0,0,0,0,0,0,0,0,0,0,0,0,0,0,0,0,0,0,0,0,0,0,0,0,0,0,0,0,0,0,0,0,0,0,0,0,0,0,0,0,0,0,0,0,0,0,0,0,0,0,0,0,0,0,0,0,0,0,0,0,0,0,0,0,0,0,0,0,0,0,0,0,0,0,0,0,0,0,0,0,0,0,0,0,0,0,0,0,0,0,0,0,0,0,0,0,0,0,0,0,0,0,0,0,0,0,0,0,0,0,0,0,0,0,0,0,0,0,0],"id":4,"left_children":[1,3,5,7,9,11,13,15,17,19,21,23,25,27,29,31,33,35,37,39,41,43,45,47,49,51,53,55,57,59,61,63,65,67,69,71,73,75,77,79,81,83,85,87,89,91,93,95,97,99,101,103,105,107,109,111,113,115,117,119,121,123,125,-1,-1,-1,-1,-1,-1,-1,-1,-1,-1,-1,-1,-1,-1,-1,-1,-1,-1,-1,-1,-1,-1,-1,-1,-1,-1,-1,-1,-1,-1,-1,-1,-1,-1,-1,-1,-1,-1,-1,-1,-1,-1,-1,-1,-1,-1,-1,-1,-1,-1,-1,-1,-1,-1,-1,-1,-1,-1,-1,-1,-1,-1,-1,-1],"loss_changes":[6.673358E4,1.1592418E4,1.3380004E4,1.5945781E3,1.5109396E3,2.4304785E3,3.0112266E3,1.6254102E2,4.730332E2,2.3878174E2,4.7628638E2,3.79917E2,4.7766406E2,2.7716797E2,2.5210156E2,3.2773926E1,1.1696582E2,2.7527148E2,2.6791846E2,1.2653345E2,2.0518579E2,3.115952E2,1.4150156E2,2.7497095E2,2.799746E2,3.2935986E2,2.4750977E2,1.8017969E2,1.25941086E2,1.4599219E2,1.1306152E2,3.0681763E1,1.2147705E1,1.7644287E2,1.0186719E2,1.1782568E2,5.9098633E1,6.968408E1,1.986836E2,1.5912383E2,7.465741E1,1.612876E2,1.1661718E2,2.9630215E2,2.6471906E2,1.4191866E2,1.2648898E2,5.902372E1,2.789773E2,1.2024698E2,1.3753198E2,2.419224E2,1.6211768E2,3.1653027E2,1.2862964E2,2.2570508E2,1.8053125E2,9.535492E1,4.3527943E1,8.4729004E1,8.6012695E1,6.9333984E1,1.2498108E2,0E0,0E0,0E0,0E0,0E0,0E0,0E0,0E0,0E0,0E0,0E0,0E0,0E0,0E0,0E0,0E0,0E0,0E0,0E0,0E0,0E0,0E0,0E0,0E0,0E0,0E0,0E0,0E0,0E0,0E0,0E0,0E0,0E0,0E0,0E0,0E0,0E0,0E0,0E0,0E0,0E0,0E0,0E0,0E0,0E0,0E0,0E0,0E0,0E0,0E0,0E0,0E0,0E0,0E0,0E0,0E0,0E0,0E0,0E0,0E0,0E0,0E0,0E0,0E0],"parents":[2147483647,0,0,1,1,2,2,3,3,4,4,5,5,6,6,7,7,8,8,9,9,10,10,11,11,12,12,13,13,14,14,15,15,16,16,17,17,18,18,19,19,20,20,21,21,22,22,23,23,24,24,25,25,26,26,27,27,28,28,29,29,30,30,31,31,32,32,33,33,34,34,35,35,36,36,37,37,38,38,39,39,40,40,41,41,42,42,43,43,44,44,45,45,46,46,47,47,48,48,49,49,50,50,51,51,52,52,53,53,54,54,55,55,56,56,57,57,58,58,59,59,60,60,61,61,62,62],"right_children":[2,4,6,8,10,12,14,16,18,20,22,24,26,28,30,32,34,36,38,40,42,44,46,48,50,52,54,56,58,60,62,64,66,68,70,72,74,76,78,80,82,84,86,88,90,92,94,96,98,100,102,104,106,108,110,112,114,116,118,120,122,124,126,-1,-1,-1,-1,-1,-1,-1,-1,-1,-1,-1,-1,-1,-1,-1,-1,-1,-1,-1,-1,-1,-1,-1,-1,-1,-1,-1,-1,-1,-1,-1,-1,-1,-1,-1,-1,-1,-1,-1,-1,-1,-1,-1,-1,-1,-1,-1,-1,-1,-1,-1,-1,-1,-1,-1,-1,-1,-1,-1,-1,-1,-1,-1,-1],"split_conditions":[8.2E0,4.9E0,1.32E1,2.7E0,6.2E0,1.06E1,1.81E1,3.3406587E0,-7E-1,-6.8333335E0,3.6666667E-1,4.6666665E0,6.964286E0,4.4067797E-1,1.2189655E1,-2.2222222E-1,-1.2666667E0,2.06E1,3.8E0,6.5268674E0,4.021739E0,5.285714E0,6.1578946E0,-8E0,3.3636363E0,3.7777777E0,4.265306E0,-1.0166667E0,1E0,1.5E0,1.8266667E0,-6.666667E-1,8.7E0,2.4150944E-1,4E0,4.6E0,1.0779611E1,2.9333334E0,9.066667E0,6.791351E1,6.1578946E0,2.7E0,3.3333334E-1,3.1818182E0,-4.3E0,3.4814816E0,3.1666667E0,4.9715744E1,5.4390244E0,4E0,5.0797134E1,-5E-1,-1.4268292E0,2.4333334E0,7.275E0,-2.3333333E0,4.148494E0,1.35E1,1.57E1,-1.3484849E0,4E0,1.95E1,4.816638E0,-3.1848736E-2,-3.2441804E-1,-4.0010124E-1,-2.9004624E-1,-3.387713E-1,-1.11861266E-1,-2.4653625E-1,-3.2418594E-1,-2.715033E-1,-1.6684389E-1,-1.6916806E-1,-3.6964828E-1,-2.1296893E-1,-1.5103303E-1,-1.417316E-1,5.316719E-2,-1.24753736E-1,5.967764E-1,-2.7493462E-1,1.01596884E-1,-1.1372741E-1,-4.848656E-2,-7.295104E-2,1.17135E-2,-8.712544E-2,5.15748E-3,-1.2740521E-1,6.9951765E-2,1.4987375E-2,8.5564345E-2,6.933608E-2,2.4742606E-1,-3.8184423E-2,-3.6682492E-1,8.133828E-2,1.5152068E-1,9.7262934E-2,3.0109882E-1,2.8309748E-1,1.7353944E-1,8.600483E-3,2.2784846E-1,4.048349E-1,2.5118044E-1,2.7521864E-1,4.5536527E-1,3.2066926E-1,5.127717E-1,1.5233974E-1,5.778565E-1,4.2031407E-1,5.234855E-1,-1.5152322E-1,4.1223127E-1,-2.1822079E-1,1.3937715E-1,1.5215081E-1,6.275079E-1,9.5612764E-1,5.3335255E-1,7.9599303E-1,1.0891036E0,8.039484E-1,1.4341608E-1],"split_indices":[2,2,2,2,2,2,2,18,19,19,19,4,3,21,3,10,19,7,2,18,3,3,3,19,3,4,4,9,17,10,10,17,7,21,11,2,18,3,19,5,3,4,17,4,19,4,19,5,3,14,5,19,10,19,3,17,18,2,2,9,14,2,18,0,0,0,0,0,0,0,0,0,0,0,0,0,0,0,0,0,0,0,0,0,0,0,0,0,0,0,0,0,0,0,0,0,0,0,0,0,0,0,0,0,0,0,0,0,0,0,0,0,0,0,0,0,0,0,0,0,0,0,0,0,0,0,0],"split_type":[0,0,0,0,0,0,0,0,0,0,0,0,0,0,0,0,0,0,0,0,0,0,0,0,0,0,0,0,0,0,0,0,0,0,0,0,0,0,0,0,0,0,0,0,0,0,0,0,0,0,0,0,0,0,0,0,0,0,0,0,0,0,0,0,0,0,0,0,0,0,0,0,0,0,0,0,0,0,0,0,0,0,0,0,0,0,0,0,0,0,0,0,0,0,0,0,0,0,0,0,0,0,0,0,0,0,0,0,0,0,0,0,0,0,0,0,0,0,0,0,0,0,0,0,0,0,0],"sum_hessian":[1.9275E4,1.2958E4,6.317E3,6.165E3,6.793E3,4.963E3,1.354E3,1.936E3,4.229E3,3.017E3,3.776E3,3.17E3,1.793E3,1.128E3,2.26E2,3.7E2,1.566E3,1.758E3,2.471E3,1.31E2,2.886E3,1.989E3,1.787E3,2.361E3,8.09E2,9.9E2,8.03E2,1.095E3,3.3E1,9.4E1,1.32E2,1.34E2,2.36E2,5.91E2,9.75E2,1.188E3,5.7E2,1.155E3,1.316E3,1.5E1,1.16E2,2.227E3,6.59E2,1.487E3,5.02E2,1.593E3,1.94E2,2.2E1,2.339E3,2.96E2,5.13E2,2.01E2,7.89E2,6.26E2,1.77E2,2.95E2,8E2,2.1E1,1.2E1,4.7E1,4.7E1,1.1E2,2.2E1,4E0,1.3E2,2.11E2,2.5E1,5.53E2,3.8E1,7.35E2,2.4E2,1.061E3,1.27E2,5.55E2,1.5E1,9.11E2,2.44E2,1.262E3,5.4E1,1.2E1,3E0,1.11E2,5E0,1.739E3,4.88E2,3.7E2,2.89E2,9.33E2,5.54E2,8E1,4.22E2,1.222E3,3.71E2,1.38E2,5.6E1,1E1,1.2E1,9.8E2,1.359E3,2.64E2,3.2E1,3.24E2,1.89E2,9.7E1,1.04E2,7.9E1,7.1E2,5.01E2,1.25E2,6.1E1,1.16E2,1.4E1,2.81E2,4.9E2,3.1E2,3E0,1.8E1,7E0,5E0,5E0,4.2E1,3.6E1,1.1E1,2.6E1,8.4E1,1.8E1,4E0],"tree_param":{"num_deleted":"0","num_feature":"23","num_nodes":"127","size_leaf_vector":"1"}},{"base_weights":[-1.034417E-2,-1.1680073E0,2.37063E0,-2.1086097E0,-4.0907568E-1,1.6264633E0,4.3572326E0,-2.702901E0,-1.7972251E0,-9.259023E-1,-7.9016104E-2,1.1156117E0,2.217157E0,3.947046E0,7.999722E0,-2.7295392E0,2.157046E-1,-2.4147847E0,-1.6499066E0,-1.0833354E0,-4.4558087E-1,-2.8244385E-1,4.5442167E-1,7.871222E-1,1.3887777E0,7.986731E-1,2.344536E0,3.4392838E0,4.739348E0,5.843016E0,8.53881E0,-3.251309E0,-2.6078503E0,-1.7205211E0,2.5693467E0,-2.1917336E0,-2.9401164E0,-1.7226598E0,-4.6895227E-1,-5.9321004E-1,-1.1983222E0,-3.2845554E-1,-1.8901458E0,-1.2831694E0,-1.5164053E-1,2.9954955E-1,1.8175715E0,7.233002E-1,2.9472954E0,1.3517787E0,5.7673035E0,1.1084436E0,-3.5705223E0,2.0834925E0,2.8420455E0,2.2288032E0,3.6486166E0,5.208561E0,4.117306E0,6.26945E0,6.259637E-2,9.095691E0,5.807679E0,-2.694426E-1,-3.4464893E-1,-2.8909627E-1,-2.4310282E-1,-3.1994212E-1,1.6424094E-1,5.625114E-1,8.727771E-3,-3.24909E-1,-2.0170759E-1,-2.9927155E-1,5.7082262E-2,-2.0069742E-1,-1.4068305E-1,-1.2747087E-1,3.23298E-2,5.0761826E-2,-7.939651E-2,-1.9835603E-1,-1.1100638E-1,-5.757285E-2,4.9236506E-2,1.6851318E-1,-2.3952936E-1,-1.4519043E-1,4.7582574E-2,-3.633503E-2,2.2289366E-2,1.596008E-1,1.6898189E-2,3.0526745E-1,8.511893E-2,8.2600586E-2,-5.7392158E-2,5.279344E-1,8.346277E-2,2.531142E-1,1.2401513E-1,8.76853E-1,3.5332772E-1,7.153148E-2,2.8765544E-1,-7.985726E-2,-4.8441753E-1,4.622788E-1,2.0214479E-1,2.574788E-1,3.5758594E-1,3.0469343E-1,5.440249E-2,3.4156772E-1,4.6026334E-1,1.7407462E-1,5.407467E-1,3.1416705E-1,5.200556E-1,7.2443634E-1,3.0977318E-1,9.325649E-1,3.4621364E-1,1.0876025E0,4.0782624E-1],"categories":[],"categories_nodes":[],"categories_segments":[],"categories_sizes":[],"default_left":[0,0,0,0,0,0,0,0,0,0,0,0,0,0,0,0,0,0,0,0,0,0,0,0,0,0,0,0,0,0,0,0,0,0,0,0,0,0,0,0,0,0,0,0,0,0,0,0,0,0,0,0,0,0,0,0,0,0,0,0,0,0,0,0,0,0,0,0,0,0,0,0,0,0,0,0,0,0,0,0,0,0,0,0,0,0,0,0,0,0,0,0,0,0,0,0,0,0,0,0,0,0,0,0,0,0,0,0,0,0,0,0,0,0,0,0,0,0,0,0,0,0,0,0,0],"id":5,"left_children":[1,3,5,7,9,11,13,15,17,19,21,23,25,27,29,31,33,35,37,39,41,43,45,47,49,51,53,55,57,59,61,63,65,67,69,71,73,75,77,79,81,83,85,87,89,91,93,95,97,99,101,103,105,107,109,111,113,115,117,119,-1,121,123,-1,-1,-1,-1,-1,-1,-1,-1,-1,-1,-1,-1,-1,-1,-1,-1,-1,-1,-1,-1,-1,-1,-1,-1,-1,-1,-1,-1,-1,-1,-1,-1,-1,-1,-1,-1,-1,-1,-1,-1,-1,-1,-1,-1,-1,-1,-1,-1,-1,-1,-1,-1,-1,-1,-1,-1,-1,-1,-1,-1,-1,-1],"loss_changes":[5.347615E4,9.317521E3,9.375488E3,1.0733652E3,1.2324633E3,1.3910078E3,2.5505312E3,1.5648926E2,3.4387305E2,2.1230615E2,4.787754E2,2.2113525E2,3.8466016E2,6.088613E2,1.509707E2,1.1690625E2,9.109196E1,7.9166504E1,2.648037E2,1.1858887E2,1.170863E2,4.1775082E2,2.563806E2,1.5301453E2,2.1051685E2,2.4462521E2,2.486543E2,2.3250977E2,1.542041E2,7.992578E1,1.5405078E2,3.0424805E1,7.323633E1,6.011828E1,6.719943E1,8.895093E1,4.1839844E1,2.5849707E2,1.1605054E2,8.993538E1,1.1641431E2,1.314083E2,9.802168E1,1.1030914E2,2.2417572E2,1.8491055E2,1.4501532E2,1.4665479E2,1.526413E2,1.7315723E2,4.154117E1,1.1366406E2,3.7933334E1,1.9354492E2,1.2216455E2,1.9509009E2,1.6348145E2,2.2508301E2,2.6289453E2,8.474988E1,0E0,1.115293E2,1.8204657E2,0E0,0E0,0E0,0E0,0E0,0E0,0E0,0E0,0E0,0E0,0E0,0E0,0E0,0E0,0E0,0E0,0E0,0E0,0E0,0E0,0E0,0E0,0E0,0E0,0E0,0E0,0E0,0E0,0E0,0E0,0E0,0E0,0E0,0E0,0E0,0E0,0E0,0E0,0E0,0E0,0E0,0E0,0E0,0E0,0E0,0E0,0E0,0E0,0E0,0E0,0E0,0E0,0E0,0E0,0E0,0E0,0E0,0E0,0E0,0E0,0E0,0E0],"parents":[2147483647,0,0,1,1,2,2,3,3,4,4,5,5,6,6,7,7,8,8,9,9,10,10,11,11,12,12,13,13,14,14,15,15,16,16,17,17,18,18,19,19,20,20,21,21,22,22,23,23,24,24,25,25,26,26,27,27,28,28,29,29,30,30,31,31,32,32,33,33,34,34,35,35,36,36,37,37,38,38,39,39,40,40,41,41,42,42,43,43,44,44,45,45,46,46,47,47,48,48,49,49,50,50,51,51,52,52,53,53,54,54,55,55,56,56,57,57,58,58,59,59,61,61,62,62],"right_children":[2,4,6,8,10,12,14,16,18,20,22,24,26,28,30,32,34,36,38,40,42,44,46,48,50,52,54,56,58,60,62,64,66,68,70,72,74,76,78,80,82,84,86,88,90,92,94,96,98,100,102,104,106,108,110,112,114,116,118,120,-1,122,124,-1,-1,-1,-1,-1,-1,-1,-1,-1,-1,-1,-1,-1,-1,-1,-1,-1,-1,-1,-1,-1,-1,-1,-1,-1,-1,-1,-1,-1,-1,-1,-1,-1,-1,-1,-1,-1,-1,-1,-1,-1,-1,-1,-1,-1,-1,-1,-1,-1,-1,-1,-1,-1,-1,-1,-1,-1,-1,-1,-1,-1,-1],"split_conditions":[8.2E0,4.7E0,1.24E1,2.7E0,5.9E0,1E1,1.87E1,2E0,-3.4E0,2.4333334E0,7.5E0,9E0,-3.6666667E0,1.48E1,1.6E0,3.3406587E0,1E0,1.160034E2,7.6E0,1.0909091E-1,5E0,-3.9E0,3.7333333E0,4.2E0,3.6666667E0,8.893256E0,1.14E1,5.814815E0,3.3333334E-1,4.796874E0,4.6811943E1,-3.2E-1,-1.4E0,1.19E1,1.4356966E2,1.5E0,-3.4666667E0,2.64E0,3.8E0,-1.1666666E0,-5.2E0,1E0,2E-1,3.15E1,4.4545455E0,-7.1E0,2.58E1,3.5164836E-1,-4E-1,-8.787879E-1,5.366248E1,4E0,6.2186714E1,-1.9607843E0,1E0,1.8145162E-1,1.7666667E0,3E-1,4.0447497E0,2.28E1,6.259637E-2,2.64E1,3.2684824E-1,-2.694426E-1,-3.4464893E-1,-2.8909627E-1,-2.4310282E-1,-3.1994212E-1,1.6424094E-1,5.625114E-1,8.727771E-3,-3.24909E-1,-2.0170759E-1,-2.9927155E-1,5.7082262E-2,-2.0069742E-1,-1.4068305E-1,-1.2747087E-1,3.23298E-2,5.0761826E-2,-7.939651E-2,-1.9835603E-1,-1.1100638E-1,-5.757285E-2,4.9236506E-2,1.6851318E-1,-2.3952936E-1,-1.4519043E-1,4.7582574E-2,-3.633503E-2,2.2289366E-2,1.596008E-1,1.6898189E-2,3.0526745E-1,8.511893E-2,8.2600586E-2,-5.7392158E-2,5.279344E-1,8.346277E-2,2.531142E-1,1.2401513E-1,8.76853E-1,3.5332772E-1,7.153148E-2,2.8765544E-1,-7.985726E-2,-4.8441753E-1,4.622788E-1,2.0214479E-1,2.574788E-1,3.5758594E-1,3.0469343E-1,5.440249E-2,3.4156772E-1,4.6026334E-1,1.7407462E-1,5.407467E-1,3.1416705E-1,5.200556E-1,7.2443634E-1,3.0977318E-1,9.325649E-1,3.4621364E-1,1.0876025E0,4.0782624E-1],"split_indices":[2,2,2,2,2,2,2,17,19,19,2,1,19,2,20,18,8,6,19,21,11,19,19,19,17,18,2,3,19,18,6,10,19,7,6,3,19,3,2,10,19,17,16,7,3,20,7,21,20,10,5,11,6,10,17,21,19,16,18,1,0,2,21,0,0,0,0,0,0,0,0,0,0,0,0,0,0,0,0,0,0,0,0,0,0,0,0,0,0,0,0,0,0,0,0,0,0,0,0,0,0,0,0,0,0,0,0,0,0,0,0,0,0,0,0,0,0,0,0,0,0,0,0,0,0],"split_type":[0,0,0,0,0,0,0,0,0,0,0,0,0,0,0,0,0,0,0,0,0,0,0,0,0,0,0,0,0,0,0,0,0,0,0,0,0,0,0,0,0,0,0,0,0,0,0,0,0,0,0,0,0,0,0,0,0,0,0,0,0,0,0,0,0,0,0,0,0,0,0,0,0,0,0,0,0,0,0,0,0,0,0,0,0,0,0,0,0,0,0,0,0,0,0,0,0,0,0,0,0,0,0,0,0,0,0,0,0,0,0,0,0,0,0,0,0,0,0,0,0,0,0,0,0],"sum_hessian":[1.9399E4,1.3053E4,6.346E3,5.828E3,7.225E3,4.618E3,1.728E3,2.001E3,3.827E3,2.815E3,4.41E3,2.478E3,2.14E3,1.555E3,1.73E2,1.983E3,1.8E1,7.34E2,3.093E3,2.119E3,6.96E2,3.193E3,1.217E3,1.127E3,1.351E3,1.77E2,1.963E3,9.51E2,6.04E2,3.7E1,1.36E2,3.7E2,1.613E3,1E1,8E0,5.19E2,2.15E2,2.913E3,1.8E2,4.04E2,1.715E3,6.45E2,5.1E1,3.68E2,2.825E3,1.094E3,1.23E2,1.096E3,3.1E1,1.341E3,1E1,1.66E2,1.1E1,1.291E3,6.72E2,1.42E2,8.09E2,3.4E2,2.64E2,3.4E1,3E0,1.11E2,2.5E1,1E2,2.7E2,6.14E2,9.99E2,7E0,3E0,3E0,5E0,7.1E1,4.48E2,2.12E2,3E0,1.53E3,1.383E3,8.9E1,9.1E1,6.2E1,3.42E2,1.71E2,1.544E3,4.96E2,1.49E2,6E0,4.5E1,3.36E2,3.2E1,1.805E3,1.02E3,9.9E1,9.95E2,5.3E1,7E1,1.016E3,8E1,1.4E1,1.7E1,1.14E2,1.227E3,3E0,7E0,1.37E2,2.9E1,4E0,7E0,2.9E1,1.262E3,4.96E2,1.76E2,9.5E1,4.7E1,6.54E2,1.55E2,1.9E1,3.21E2,1.41E2,1.23E2,2.5E1,9E0,1.06E2,5E0,5E0,2E1],"tree_param":{"num_deleted":"0","num_feature":"23","num_nodes":"125","size_leaf_vector":"1"}},{"base_weights":[8.617471E-3,-1.1813661E0,1.8589398E0,-1.9871607E0,-5.425986E-1,1.0382437E0,3.5607204E0,-2.4269066E0,-1.651761E0,-8.6683625E-1,-1.9323054E-1,6.272374E-1,1.4764653E0,3.1775334E0,6.832758E0,-2.512874E0,-1.6605946E0,-1.5118651E0,-2.2895477E0,-7.666423E-1,-1.462288E0,-6.429697E-1,1.1780443E-1,4.6519482E-1,1.2503083E0,3.7861323E-1,1.5685508E0,2.6810453E0,3.9796524E0,5.8454766E0,7.843942E0,-2.6808815E0,-2.2135258E0,-4.357552E-1,-1.8799398E0,-1.5511401E0,2.1756295E-2,-6.5824926E-1,-2.369596E0,-1.6516408E0,-6.8552715E-1,-1.6115202E0,-6.1031586E-1,-2.3020985E0,-5.806715E-1,-1.7100175E-1,3.5369724E-1,3.4475654E-1,9.3507695E-1,9.3536097E-1,2.1669025E0,1.0232053E0,-1.0441328E0,-1.3751006E-1,1.6337049E0,1.6261288E0,2.8100548E0,2.0644445E0,4.14413E0,6.341012E0,3.326544E0,8.411317E0,4.6828213E0,-3.1218585E-1,-2.581028E-1,-2.3087938E-1,-1.3007192E-1,-1.3020894E-1,7.222931E-2,-2.193408E-1,-8.283478E-2,-1.6009894E-1,-8.500577E-2,-6.2009092E-2,3.3671862E-1,-1.7319973E-1,3.1929103E-1,-2.0946693E-1,-2.735753E-1,-3.1739216E-2,-1.9217244E-1,-7.592419E-2,2.6199315E-2,-1.8711646E-1,-9.6329264E-2,7.458956E-2,-1.3625532E-1,-2.729953E-1,2.8478608E-1,-1.15784526E-1,-4.524983E-2,6.994318E-2,-3.852563E-2,4.2095363E-2,-1.1469952E-1,-5.2598126E-2,4.662397E-2,7.974907E-2,3.402104E-1,4.097638E-2,1.617226E-1,3.5323796E-1,1.2067366E-1,1.668452E-1,-3.4878116E-2,2.8881556E-1,-1.4559436E-1,-1.5330087E-1,1.10376656E-1,3.9950415E-1,1.5976861E-1,2.1582904E-1,-1.162242E-2,2.7737114E-1,6.8657416E-1,2.4981831E-1,-2.8172165E-1,-1.8267761E-1,4.1779575E-1,1.0722982E-1,6.528773E-1,-3.4497228E-2,4.5751032E-1,8.189873E-2,8.629897E-1,-3.615389E-3,5.476882E-1],"categories":[],"categories_nodes":[],"categories_segments":[],"categories_sizes":[],"default_left":[0,0,0,0,0,0,0,0,0,0,0,0,0,0,0,0,0,0,0,0,0,0,0,0,0,0,0,0,0,0,0,0,0,0,0,0,0,0,0,0,0,0,0,0,0,0,0,0,0,0,0,0,0,0,0,0,0,0,0,0,0,0,0,0,0,0,0,0,0,0,0,0,0,0,0,0,0,0,0,0,0,0,0,0,0,0,0,0,0,0,0,0,0,0,0,0,0,0,0,0,0,0,0,0,0,0,0,0,0,0,0,0,0,0,0,0,0,0,0,0,0,0,0,0,0,0,0],"id":6,"left_children":[1,3,5,7,9,11,13,15,17,19,21,23,25,27,29,31,33,35,37,39,41,43,45,47,49,51,53,55,57,59,61,63,65,67,69,71,73,75,77,79,81,83,85,87,89,91,93,95,97,99,101,103,105,107,109,111,113,115,117,119,121,123,125,-1,-1,-1,-1,-1,-1,-1,-1,-1,-1,-1,-1,-1,-1,-1,-1,-1,-1,-1,-1,-1,-1,-1,-1,-1,-1,-1,-1,-1,-1,-1,-1,-1,-1,-1,-1,-1,-1,-1,-1,-1,-1,-1,-1,-1,-1,-1,-1,-1,-1,-1,-1,-1,-1,-1,-1,-1,-1,-1,-1,-1,-1,-1,-1],"loss_changes":[4.2213992E4,6.004369E3,1.0476268E4,7.564863E2,7.3716785E2,9.109502E2,3.0378203E3,1.4231738E2,2.575835E2,2.0007056E2,4.386665E2,2.632677E2,2.4689697E2,8.596211E2,2.0735156E2,9.43125E1,6.0204285E1,1.4510693E2,6.669336E1,2.0624146E2,6.0458008E1,1.3088348E2,1.26386765E2,1.1709082E2,1.5326093E2,1.7623059E2,2.5158936E2,1.7925879E2,2.5354199E2,1.4395312E2,1.7990674E2,4.7646484E1,5.9769775E1,3.711571E1,6.1501587E1,8.038281E1,1.3334521E2,1.1289857E2,4.4119873E1,8.6372925E1,1.8541101E2,6.72572E1,7.657226E1,1.0912065E2,9.082608E1,1.557743E2,1.0346098E2,1.7530508E2,1.4044531E2,1.4356433E2,1.7488202E2,1.175695E2,1.012233E2,1.4723978E2,1.7821777E2,1.3953702E2,1.5760645E2,1.5098676E2,1.6278711E2,1.0105713E2,1.1201984E2,1.6291943E2,7.943225E1,0E0,0E0,0E0,0E0,0E0,0E0,0E0,0E0,0E0,0E0,0E0,0E0,0E0,0E0,0E0,0E0,0E0,0E0,0E0,0E0,0E0,0E0,0E0,0E0,0E0,0E0,0E0,0E0,0E0,0E0,0E0,0E0,0E0,0E0,0E0,0E0,0E0,0E0,0E0,0E0,0E0,0E0,0E0,0E0,0E0,0E0,0E0,0E0,0E0,0E0,0E0,0E0,0E0,0E0,0E0,0E0,0E0,0E0,0E0,0E0,0E0,0E0,0E0,0E0],"parents":[2147483647,0,0,1,1,2,2,3,3,4,4,5,5,6,6,7,7,8,8,9,9,10,10,11,11,12,12,13,13,14,14,15,15,16,16,17,17,18,18,19,19,20,20,21,21,22,22,23,23,24,24,25,25,26,26,27,27,28,28,29,29,30,30,31,31,32,32,33,33,34,34,35,35,36,36,37,37,38,38,39,39,40,40,41,41,42,42,43,43,44,44,45,45,46,46,47,47,48,48,49,49,50,50,51,51,52,52,53,53,54,54,55,55,56,56,57,57,58,58,59,59,60,60,61,61,62,62],"right_children":[2,4,6,8,10,12,14,16,18,20,22,24,26,28,30,32,34,36,38,40,42,44,46,48,50,52,54,56,58,60,62,64,66,68,70,72,74,76,78,80,82,84,86,88,90,92,94,96,98,100,102,104,106,108,110,112,114,116,118,120,122,124,126,-1,-1,-1,-1,-1,-1,-1,-1,-1,-1,-1,-1,-1,-1,-1,-1,-1,-1,-1,-1,-1,-1,-1,-1,-1,-1,-1,-1,-1,-1,-1,-1,-1,-1,-1,-1,-1,-1,-1,-1,-1,-1,-1,-1,-1,-1,-1,-1,-1,-1,-1,-1,-1,-1,-1,-1,-1,-1,-1,-1,-1,-1,-1,-1],"split_conditions":[7.5E0,4.4E0,1.14E1,2.8E0,5.9E0,9.2E0,1.76E1,1.45E0,4E0,4E0,-5.3333336E-1,2.4333334E0,-3.9E0,1.38E1,2.0333334E1,3E0,1.5681819E0,9.9E0,7.575758E-2,-4.8333335E0,2.7E0,-8.633333E0,6.6E0,5E0,2.5E-1,4.9715744E1,1E0,2E0,3E-1,2E0,2.6333334E1,9.6525095E-2,3.3333333E0,3.1E0,2.6666668E-1,2.1666667E0,8E-1,2.0333333E0,1.1435438E2,-6.1E0,3.2931035E0,1.9E0,3.1818182E0,2.96E1,2E0,-4.3E0,7E0,2E0,1.1E1,3.4242425E0,4E-1,-4.5E0,-9.1E0,3.21875E0,8.4210527E-1,6.8E0,9.129032E0,7.4357247E0,-8E0,2.0512821E1,3E0,2.531798E0,2.9732137E0,-3.1218585E-1,-2.581028E-1,-2.3087938E-1,-1.3007192E-1,-1.3020894E-1,7.222931E-2,-2.193408E-1,-8.283478E-2,-1.6009894E-1,-8.500577E-2,-6.2009092E-2,3.3671862E-1,-1.7319973E-1,3.1929103E-1,-2.0946693E-1,-2.735753E-1,-3.1739216E-2,-1.9217244E-1,-7.592419E-2,2.6199315E-2,-1.8711646E-1,-9.6329264E-2,7.458956E-2,-1.3625532E-1,-2.729953E-1,2.8478608E-1,-1.15784526E-1,-4.524983E-2,6.994318E-2,-3.852563E-2,4.2095363E-2,-1.1469952E-1,-5.2598126E-2,4.662397E-2,7.974907E-2,3.402104E-1,4.097638E-2,1.617226E-1,3.5323796E-1,1.2067366E-1,1.668452E-1,-3.4878116E-2,2.8881556E-1,-1.4559436E-1,-1.5330087E-1,1.10376656E-1,3.9950415E-1,1.5976861E-1,2.1582904E-1,-1.162242E-2,2.7737114E-1,6.8657416E-1,2.4981831E-1,-2.8172165E-1,-1.8267761E-1,4.1779575E-1,1.0722982E-1,6.528773E-1,-3.4497228E-2,4.5751032E-1,8.189873E-2,8.629897E-1,-3.615389E-3,5.476882E-1],"split_indices":[2,2,2,1,2,2,2,4,11,11,19,19,19,2,0,13,4,19,21,19,4,19,2,20,21,5,13,13,22,15,0,21,0,2,19,4,22,19,6,20,4,20,4,7,13,20,11,13,0,4,16,19,20,4,4,20,4,18,19,6,13,18,18,0,0,0,0,0,0,0,0,0,0,0,0,0,0,0,0,0,0,0,0,0,0,0,0,0,0,0,0,0,0,0,0,0,0,0,0,0,0,0,0,0,0,0,0,0,0,0,0,0,0,0,0,0,0,0,0,0,0,0,0,0,0,0,0],"split_type":[0,0,0,0,0,0,0,0,0,0,0,0,0,0,0,0,0,0,0,0,0,0,0,0,0,0,0,0,0,0,0,0,0,0,0,0,0,0,0,0,0,0,0,0,0,0,0,0,0,0,0,0,0,0,0,0,0,0,0,0,0,0,0,0,0,0,0,0,0,0,0,0,0,0,0,0,0,0,0,0,0,0,0,0,0,0,0,0,0,0,0,0,0,0,0,0,0,0,0,0,0,0,0,0,0,0,0,0,0,0,0,0,0,0,0,0,0,0,0,0,0,0,0,0,0,0,0],"sum_hessian":[1.917E4,1.1667E4,7.503E3,5.158E3,6.509E3,5.063E3,2.44E3,2.229E3,2.929E3,3.375E3,3.134E3,2.614E3,2.449E3,2.186E3,2.54E2,2.002E3,2.27E2,2.405E3,5.24E2,2.891E3,4.84E2,1.281E3,1.853E3,2.076E3,5.38E2,1.9E2,2.259E3,1.353E3,8.33E2,1.32E2,1.22E2,1.277E3,7.25E2,3.5E1,1.92E2,2.345E3,6E1,2.5E1,4.99E2,2.41E2,2.65E3,4.11E2,7.3E1,4.5E1,1.236E3,8.33E2,1.02E3,1.654E3,4.22E2,4.02E2,1.36E2,1.31E2,5.9E1,8.3E1,2.176E3,1.49E2,1.204E3,6.7E1,7.66E2,1.09E2,2.3E1,1.02E2,2E1,2.3E2,1.047E3,6.55E2,7E1,2E1,1.5E1,1.47E2,4.5E1,2.188E3,1.57E2,5.1E1,9E0,2E1,5E0,2.89E2,2.1E2,4.1E1,2E2,2.459E3,1.91E2,2.92E2,1.19E2,2.6E1,4.7E1,4.2E1,3E0,2.23E2,1.013E3,1.64E2,6.69E2,9.77E2,4.3E1,2.02E2,1.452E3,4.01E2,2.1E1,2.28E2,1.74E2,5.5E1,8.1E1,8.9E1,4.2E1,5E0,5.4E1,3.9E1,4.4E1,3.1E1,2.145E3,1.14E2,3.5E1,1.195E3,9E0,6.2E1,5E0,4E0,7.62E2,4E0,1.05E2,6E0,1.7E1,3E0,9.9E1,3E0,1.7E1],"tree_param":{"num_deleted":"0","num_feature":"23","num_nodes":"127","size_leaf_vector":"1"}},{"base_weights":[1.0886519E-2,-1.0561199E0,1.6266865E0,-1.7992464E0,-5.669976E-1,1.1589419E0,3.5583773E0,-1.9986522E0,-9.745064E-1,-9.712366E-2,-9.000726E-1,2.6845057E0,9.399257E-1,3.0884802E0,5.4948287E0,-1.8357438E0,-2.4234703E0,-1.1915104E0,-2.8870216E-1,-4.5725143E-1,4.565546E-1,-1.1684012E0,-4.4557962E-1,2.0534976E0,3.6363184E0,6.093434E-1,1.7403182E0,-1.9756377E-1,3.2189329E0,3.4797616E0,6.547155E0,-2.2596936E0,-1.689799E0,-2.4584055E0,-7.872311E-1,-2.1972537E0,-1.0449572E0,-7.5431365E-1,6.261947E-1,6.116742E-2,-6.078168E-1,2.9492817E0,3.777377E-1,-1.2911476E0,-4.559784E-1,7.082835E-2,-8.7653875E-1,3.61149E0,1.4640925E0,3.9958043E0,2.2821112E0,1.0279489E0,3.4534344E-1,2.2032723E0,1.3302237E0,-2.5013041E0,4.1125116E-1,4.4728513E0,2.9917438E0,1.5869448E0,4.0724044E0,7.4237585E0,4.8637815E0,-1.2338364E-1,-2.3469968E-1,-1.3541071E-1,-1.8745904E-1,-3.0387422E-1,-2.3592786E-1,-1.5459603E-1,3.1782228E-1,-2.33355E-1,1.1552089E-1,-1.2189503E-1,-5.9073117E-2,-1.7672649E-1,-4.7382843E-2,3.6855783E-2,3.0252108E-1,-2.4343327E-2,9.723118E-2,-6.917869E-2,4.5141056E-2,4.486405E-1,-8.032054E-2,4.9124897E-2,-7.8999124E-2,-1.1787235E-1,-1.9479941E-1,8.586947E-2,-5.5099394E-2,3.5250965E-1,2.0225567E-3,1.566947E-1,-9.26493E-2,5.882318E-1,2.7922317E-1,2.4049401E-1,1.0366919E-1,5.6704935E-2,4.1561905E-1,-1.0951811E-1,3.0407056E-1,1.5618563E-1,8.408566E-2,5.336258E-2,-2.1105554E-2,2.6614177E-1,1.8387084E-1,1.7563628E-1,7.182094E-2,-5.941353E-2,-4.269646E-1,3.0759844E-1,-2.8646221E-2,2.3823595E-1,4.8683745E-1,3.9639157E-1,2.6700646E-1,3.145307E-1,-8.149408E-2,1.3667117E-1,4.6503884E-1,8.1057876E-1,4.69485E-1,5.3625697E-1,1.4245568E-1],"categories":[],"categories_nodes":[],"categories_segments":[],"categories_sizes":[],"default_left":[0,0,0,0,0,0,0,0,0,0,0,0,0,0,0,0,0,0,0,0,0,0,0,0,0,0,0,0,0,0,0,0,0,0,0,0,0,0,0,0,0,0,0,0,0,0,0,0,0,0,0,0,0,0,0,0,0,0,0,0,0,0,0,0,0,0,0,0,0,0,0,0,0,0,0,0,0,0,0,0,0,0,0,0,0,0,0,0,0,0,0,0,0,0,0,0,0,0,0,0,0,0,0,0,0,0,0,0,0,0,0,0,0,0,0,0,0,0,0,0,0,0,0,0,0,0,0],"id":7,"left_children":[1,3,5,7,9,11,13,15,17,19,21,23,25,27,29,31,33,35,37,39,41,43,45,47,49,51,53,55,57,59,61,63,65,67,69,71,73,75,77,79,81,83,85,87,89,91,93,95,97,99,101,103,105,107,109,111,113,115,117,119,121,123,125,-1,-1,-1,-1,-1,-1,-1,-1,-1,-1,-1,-1,-1,-1,-1,-1,-1,-1,-1,-1,-1,-1,-1,-1,-1,-1,-1,-1,-1,-1,-1,-1,-1,-1,-1,-1,-1,-1,-1,-1,-1,-1,-1,-1,-1,-1,-1,-1,-1,-1,-1,-1,-1,-1,-1,-1,-1,-1,-1,-1,-1,-1,-1,-1],"loss_changes":[3.330044E4,4.2271025E3,6.936383E3,7.570576E2,1.0979963E3,2.064E3,1.3443398E3,2.5236426E2,1.3359686E2,5.808468E2,5.0005908E2,4.5803076E2,1.4304307E3,5.183467E2,5.932832E2,1.6228906E2,5.644629E1,9.8197815E1,9.3350204E1,1.3786057E2,2.2409966E2,2.2493774E2,3.39755E2,4.248822E2,1.401936E2,4.2287854E2,2.9687646E2,6.7157585E1,3.1661328E2,1.0739136E2,2.4303711E2,5.818457E1,1.2157666E2,5.010547E1,7.39504E1,4.2109467E1,4.643927E1,4.0135605E1,4.4283207E1,1.1076859E2,1.2201102E2,2.0585303E2,1.4801933E2,1.599248E2,4.803473E1,1.210571E2,1.0294385E2,2.2083838E2,1.3468732E2,1.3025317E2,1.7517834E2,1.4638354E2,2.4643582E2,1.18420654E2,2.1782654E2,3.070214E1,7.1810455E1,1.332002E2,2.9710352E2,1.0011447E2,1.1345886E2,1.895918E2,1.0833203E2,0E0,0E0,0E0,0E0,0E0,0E0,0E0,0E0,0E0,0E0,0E0,0E0,0E0,0E0,0E0,0E0,0E0,0E0,0E0,0E0,0E0,0E0,0E0,0E0,0E0,0E0,0E0,0E0,0E0,0E0,0E0,0E0,0E0,0E0,0E0,0E0,0E0,0E0,0E0,0E0,0E0,0E0,0E0,0E0,0E0,0E0,0E0,0E0,0E0,0E0,0E0,0E0,0E0,0E0,0E0,0E0,0E0,0E0,0E0,0E0,0E0,0E0,0E0,0E0],"parents":[2147483647,0,0,1,1,2,2,3,3,4,4,5,5,6,6,7,7,8,8,9,9,10,10,11,11,12,12,13,13,14,14,15,15,16,16,17,17,18,18,19,19,20,20,21,21,22,22,23,23,24,24,25,25,26,26,27,27,28,28,29,29,30,30,31,31,32,32,33,33,34,34,35,35,36,36,37,37,38,38,39,39,40,40,41,41,42,42,43,43,44,44,45,45,46,46,47,47,48,48,49,49,50,50,51,51,52,52,53,53,54,54,55,55,56,56,57,57,58,58,59,59,60,60,61,61,62,62],"right_children":[2,4,6,8,10,12,14,16,18,20,22,24,26,28,30,32,34,36,38,40,42,44,46,48,50,52,54,56,58,60,62,64,66,68,70,72,74,76,78,80,82,84,86,88,90,92,94,96,98,100,102,104,106,108,110,112,114,116,118,120,122,124,126,-1,-1,-1,-1,-1,-1,-1,-1,-1,-1,-1,-1,-1,-1,-1,-1,-1,-1,-1,-1,-1,-1,-1,-1,-1,-1,-1,-1,-1,-1,-1,-1,-1,-1,-1,-1,-1,-1,-1,-1,-1,-1,-1,-1,-1,-1,-1,-1,-1,-1,-1,-1,-1,-1,-1,-1,-1,-1,-1,-1,-1,-1,-1,-1],"split_conditions":[7.6666665E0,4E0,1.3666667E1,2.11E1,-2.9411766E-1,-1.254902E0,1.8333334E1,4E0,1.9473684E0,6E0,6.3333335E0,1.0333333E1,1.1E1,1.2266667E0,5.888889E0,1.6666666E0,2.7E0,-6.6E0,2.72E1,-1.7826087E0,-3.2873564E0,2.25E0,6.969697E-1,-7.878788E-1,7.7E0,4.761905E-2,9.166667E-1,1.4E1,-6.896552E-1,3.7749171E0,1.8266667E0,-2.4666667E0,-7.368421E-1,-5.5666666E0,8.3904705E0,2.97E1,3.6666667E0,2.23E1,4.265306E0,2.98E1,2.6145554E-1,8.5763466E1,3.3009708E-1,4E0,-2.3809524E0,-6.3E0,3.353104E1,-3.6E0,4.1463413E1,2E-1,8.8E0,-9.5035464E-1,1.7747748E0,1E0,1.0666667E0,3.9568347E-1,-3.7E0,2.297825E1,-2E-1,3.3E0,6E-1,2.4666667E0,2.6333334E1,-1.2338364E-1,-2.3469968E-1,-1.3541071E-1,-1.8745904E-1,-3.0387422E-1,-2.3592786E-1,-1.5459603E-1,3.1782228E-1,-2.33355E-1,1.1552089E-1,-1.2189503E-1,-5.9073117E-2,-1.7672649E-1,-4.7382843E-2,3.6855783E-2,3.0252108E-1,-2.4343327E-2,9.723118E-2,-6.917869E-2,4.5141056E-2,4.486405E-1,-8.032054E-2,4.9124897E-2,-7.8999124E-2,-1.1787235E-1,-1.9479941E-1,8.586947E-2,-5.5099394E-2,3.5250965E-1,2.0225567E-3,1.566947E-1,-9.26493E-2,5.882318E-1,2.7922317E-1,2.4049401E-1,1.0366919E-1,5.6704935E-2,4.1561905E-1,-1.0951811E-1,3.0407056E-1,1.5618563E-1,8.408566E-2,5.336258E-2,-2.1105554E-2,2.6614177E-1,1.8387084E-1,1.7563628E-1,7.182094E-2,-5.941353E-2,-4.269646E-1,3.0759844E-1,-2.8646221E-2,2.3823595E-1,4.8683745E-1,3.9639157E-1,2.6700646E-1,3.145307E-1,-8.149408E-2,1.3667117E-1,4.6503884E-1,8.1057876E-1,4.69485E-1,5.3625697E-1,1.4245568E-1],"split_indices":[0,0,0,7,9,9,0,11,4,0,0,0,0,4,4,0,4,19,7,9,9,4,9,10,20,10,9,0,9,18,10,9,9,19,18,7,0,7,4,7,21,6,21,11,10,19,6,20,6,16,20,10,9,14,10,21,20,5,10,18,16,9,0,0,0,0,0,0,0,0,0,0,0,0,0,0,0,0,0,0,0,0,0,0,0,0,0,0,0,0,0,0,0,0,0,0,0,0,0,0,0,0,0,0,0,0,0,0,0,0,0,0,0,0,0,0,0,0,0,0,0,0,0,0,0,0,0],"split_type":[0,0,0,0,0,0,0,0,0,0,0,0,0,0,0,0,0,0,0,0,0,0,0,0,0,0,0,0,0,0,0,0,0,0,0,0,0,0,0,0,0,0,0,0,0,0,0,0,0,0,0,0,0,0,0,0,0,0,0,0,0,0,0,0,0,0,0,0,0,0,0,0,0,0,0,0,0,0,0,0,0,0,0,0,0,0,0,0,0,0,0,0,0,0,0,0,0,0,0,0,0,0,0,0,0,0,0,0,0,0,0,0,0,0,0,0,0,0,0,0,0,0,0,0,0,0,0],"sum_hessian":[1.9313E4,1.1632E4,7.681E3,4.616E3,7.016E3,6.185E3,1.496E3,3.716E3,9E2,2.911E3,4.105E3,7.75E2,5.41E3,1.206E3,2.9E2,2.69E3,1.026E3,6.83E2,2.17E2,1.764E3,1.147E3,2.58E3,1.525E3,4.68E2,3.07E2,3.83E3,1.58E3,4.6E1,1.16E3,1.01E2,1.89E2,6.85E2,2.005E3,1.004E3,2.2E1,8.5E1,5.98E2,1.44E2,7.3E1,3.97E2,1.367E3,3.4E1,1.113E3,2.2E3,3.8E2,6.94E2,8.31E2,1.27E2,3.41E2,2.41E2,6.6E1,1.48E3,2.35E3,7.4E2,8.4E2,9E0,3.7E1,1.75E2,9.85E2,2.5E1,7.6E1,1.22E2,6.7E1,5.5E1,6.3E2,7.15E2,1.29E3,1.42E2,8.62E2,1.9E1,3E0,8.2E1,3E0,4.31E2,1.67E2,3E1,1.14E2,6.7E1,6E0,2.98E2,9.9E1,1.267E3,1E2,2.4E1,1E1,1.015E3,9.8E1,1.881E3,3.19E2,2.5E1,3.55E2,9E0,6.85E2,1.6E1,8.15E2,3.2E1,9.5E1,1.05E2,2.36E2,1.1E1,2.3E2,1.2E1,5.4E1,3.82E2,1.098E3,1.756E3,5.94E2,3.25E2,4.15E2,4.94E2,3.46E2,5E0,4E0,7E0,3E1,2.9E1,1.46E2,2.42E2,7.43E2,1.5E1,1E1,1.4E1,6.2E1,9.6E1,2.6E1,5.8E1,9E0],"tree_param":{"num_deleted":"0","num_feature":"23","num_nodes":"127","size_leaf_vector":"1"}},{"base_weights":[-1.1353313E-2,-8.026978E-1,1.8502942E0,-1.488255E0,-2.167803E-1,1.3952953E0,3.741241E0,-1.8683476E0,-1.1447002E0,-5.1786697E-1,2.3329303E-1,1.1111308E0,1.9749566E0,3.1924338E0,5.747387E0,-2.1146615E0,-1.6137573E0,-2.0067618E0,-1.0586549E0,-7.3027635E-1,-1.5585028E-1,8.153279E-2,7.28852E-1,6.820739E-1,1.3546764E0,3.0426123E0,1.8594735E0,2.9849293E0,4.626182E0,9.658608E0,5.4215393E0,-2.2821083E0,-1.7702197E0,-1.7520452E0,-1.2165825E0,-2.0584044E0,8.157038E-2,-8.928999E-1,-1.4518081E0,5.422095E-1,-7.804767E-1,-3.4174272E-1,4.647715E-1,-5.965301E-1,2.709053E-1,6.933135E-1,6.5809566E-1,-3.5401908E-1,8.4742135E-1,1.0973868E0,1.7959672E0,1.377653E0,4.050965E0,1.6675303E0,2.7176836E0,4.752375E0,2.7523484E0,4.8338575E0,-6.402402E-2,5.103566E-1,1.0659885E1,4.1626606E0,6.329656E0,-2.307564E-1,-1.0352677E-1,-1.8534084E-1,-1.281372E-2,-1.8748121E-1,-1.2772998E-1,-3.9340194E-2,-1.3848789E-1,-2.6148722E-1,-1.7875004E-1,-9.2723496E-2,8.083979E-2,-1.8752128E-1,-1.20121256E-1,-1.634743E-3,3.656454E-1,-1.6327415E-1,-7.205969E-2,-3.956891E-2,1.2907831E-1,7.225969E-2,-5.026116E-2,-2.177577E-1,-4.0318448E-2,1.5243443E-2,8.29526E-2,3.875219E-2,1.19710304E-1,-2.0454645E-1,1.1560014E-2,-1.3076754E-1,9.484706E-2,8.0976546E-2,1.5527399E-1,3.5269418E-1,1.6437463E-1,6.5461524E-2,4.7004697E-1,4.4275966E-1,-1.086845E-1,9.74031E-2,1.8709232E-1,3.0434713E-2,3.020247E-1,5.359785E-1,1.1517944E-1,1.0540656E-1,2.9922143E-1,4.7209937E-2,5.0924283E-1,1.1660212E0,5.4691E-1,4.6967563E-1,9.587613E-2,1.13101475E-1,6.5326256E-1],"categories":[],"categories_nodes":[],"categories_segments":[],"categories_sizes":[],"default_left":[0,0,0,0,0,0,0,0,0,0,0,0,0,0,0,0,0,0,0,0,0,0,0,0,0,0,0,0,0,0,0,0,0,0,0,0,0,0,0,0,0,0,0,0,0,0,0,0,0,0,0,0,0,0,0,0,0,0,0,0,0,0,0,0,0,0,0,0,0,0,0,0,0,0,0,0,0,0,0,0,0,0,0,0,0,0,0,0,0,0,0,0,0,0,0,0,0,0,0,0,0,0,0,0,0,0,0,0,0,0,0,0,0,0,0,0,0,0,0],"id":8,"left_children":[1,3,5,7,9,11,13,15,17,19,21,23,25,27,29,31,33,35,37,39,41,43,45,47,49,51,53,55,57,59,61,63,65,67,69,71,-1,73,75,77,79,81,83,85,87,89,-1,91,93,95,97,99,101,103,105,107,109,111,-1,-1,113,115,117,-1,-1,-1,-1,-1,-1,-1,-1,-1,-1,-1,-1,-1,-1,-1,-1,-1,-1,-1,-1,-1,-1,-1,-1,-1,-1,-1,-1,-1,-1,-1,-1,-1,-1,-1,-1,-1,-1,-1,-1,-1,-1,-1,-1,-1,-1,-1,-1,-1,-1,-1,-1,-1,-1,-1,-1],"loss_changes":[2.8384139E4,5.4302197E3,4.9388613E3,8.1108984E2,9.881606E2,7.608047E2,1.2072578E3,1.8158301E2,2.4049658E2,3.35755E2,2.196871E2,3.240608E2,1.8163281E2,2.463457E2,2.494497E2,8.2010254E1,7.765161E1,4.4948242E1,1.9266724E2,1.763064E2,1.8669803E2,2.876311E2,1.3717285E2,1.9376434E2,2.230022E2,2.4066956E2,2.2185938E2,3.0228564E2,1.2272827E2,2.155481E1,2.2639502E2,2.9174805E1,6.718262E1,6.0177246E1,5.1921936E1,3.8753784E1,0E0,1.23372925E2,9.102295E1,1.8306949E2,1.3377588E2,1.10066895E2,9.341732E1,1.4834563E2,1.1565701E2,1.0444284E2,0E0,1.2434575E2,2.1331323E2,1.6300378E2,1.8577026E2,1.3333124E2,1.8123706E2,1.5700073E2,1.8129504E2,1.8563391E2,2.7426123E2,1.1546045E2,0E0,0E0,2.0183105E0,1.5920544E2,1.25850586E2,0E0,0E0,0E0,0E0,0E0,0E0,0E0,0E0,0E0,0E0,0E0,0E0,0E0,0E0,0E0,0E0,0E0,0E0,0E0,0E0,0E0,0E0,0E0,0E0,0E0,0E0,0E0,0E0,0E0,0E0,0E0,0E0,0E0,0E0,0E0,0E0,0E0,0E0,0E0,0E0,0E0,0E0,0E0,0E0,0E0,0E0,0E0,0E0,0E0,0E0,0E0,0E0,0E0,0E0,0E0,0E0],"parents":[2147483647,0,0,1,1,2,2,3,3,4,4,5,5,6,6,7,7,8,8,9,9,10,10,11,11,12,12,13,13,14,14,15,15,16,16,17,17,18,18,19,19,20,20,21,21,22,22,23,23,24,24,25,25,26,26,27,27,28,28,29,29,30,30,31,31,32,32,33,33,34,34,35,35,37,37,38,38,39,39,40,40,41,41,42,42,43,43,44,44,45,45,47,47,48,48,49,49,50,50,51,51,52,52,53,53,54,54,55,55,56,56,57,57,60,60,61,61,62,62],"right_children":[2,4,6,8,10,12,14,16,18,20,22,24,26,28,30,32,34,36,38,40,42,44,46,48,50,52,54,56,58,60,62,64,66,68,70,72,-1,74,76,78,80,82,84,86,88,90,-1,92,94,96,98,100,102,104,106,108,110,112,-1,-1,114,116,118,-1,-1,-1,-1,-1,-1,-1,-1,-1,-1,-1,-1,-1,-1,-1,-1,-1,-1,-1,-1,-1,-1,-1,-1,-1,-1,-1,-1,-1,-1,-1,-1,-1,-1,-1,-1,-1,-1,-1,-1,-1,-1,-1,-1,-1,-1,-1,-1,-1,-1,-1,-1,-1,-1,-1,-1],"split_conditions":[8.6E0,4.9E0,1.38E1,3.3E0,6.9E0,1.12E1,1.8E1,2.4E0,-5.2E0,1.3E0,5.714286E0,2.5789473E0,-1.4268292E0,8E-1,-3.2333333E0,3E0,2.5333333E0,1.6666666E0,3E0,4.0089188E1,4.2622952E0,1.8421053E0,4.6132597E-1,7.3333335E0,5.214286E0,3E0,2.3666666E0,-2.1666667E0,2.4083333E0,1.86E1,1.2189655E1,1.6666666E0,2.8421052E0,1.66E1,2E0,1E0,8.157038E-2,9.9E0,1.6E1,9.18239E-1,-6.8333335E0,2.3333333E0,2.9090908E-1,-3.9E0,2.9E0,8.2E0,6.5809566E-1,5.6666665E0,1E0,5.75E0,-2.2222223E0,1.6666666E0,1.8888888E0,2.91E1,1.5111111E-1,6.3245552E1,1.34E1,3.2092815E1,-6.402402E-2,5.103566E-1,1.6515151E0,4E0,-3E0,-2.307564E-1,-1.0352677E-1,-1.8534084E-1,-1.281372E-2,-1.8748121E-1,-1.2772998E-1,-3.9340194E-2,-1.3848789E-1,-2.6148722E-1,-1.7875004E-1,-9.2723496E-2,8.083979E-2,-1.8752128E-1,-1.20121256E-1,-1.634743E-3,3.656454E-1,-1.6327415E-1,-7.205969E-2,-3.956891E-2,1.2907831E-1,7.225969E-2,-5.026116E-2,-2.177577E-1,-4.0318448E-2,1.5243443E-2,8.29526E-2,3.875219E-2,1.19710304E-1,-2.0454645E-1,1.1560014E-2,-1.3076754E-1,9.484706E-2,8.0976546E-2,1.5527399E-1,3.5269418E-1,1.6437463E-1,6.5461524E-2,4.7004697E-1,4.4275966E-1,-1.086845E-1,9.74031E-2,1.8709232E-1,3.0434713E-2,3.020247E-1,5.359785E-1,1.1517944E-1,1.0540656E-1,2.9922143E-1,4.7209937E-2,5.0924283E-1,1.1660212E0,5.4691E-1,4.6967563E-1,9.587613E-2,1.13101475E-1,6.5326256E-1],"split_indices":[2,2,2,2,2,2,2,2,19,19,3,4,10,22,19,13,19,17,11,6,3,4,21,0,3,13,19,9,10,2,3,17,3,7,11,4,0,19,7,10,19,17,21,19,19,1,0,3,13,4,9,17,9,7,21,6,1,6,0,0,10,13,17,0,0,0,0,0,0,0,0,0,0,0,0,0,0,0,0,0,0,0,0,0,0,0,0,0,0,0,0,0,0,0,0,0,0,0,0,0,0,0,0,0,0,0,0,0,0,0,0,0,0,0,0,0,0,0,0],"split_type":[0,0,0,0,0,0,0,0,0,0,0,0,0,0,0,0,0,0,0,0,0,0,0,0,0,0,0,0,0,0,0,0,0,0,0,0,0,0,0,0,0,0,0,0,0,0,0,0,0,0,0,0,0,0,0,0,0,0,0,0,0,0,0,0,0,0,0,0,0,0,0,0,0,0,0,0,0,0,0,0,0,0,0,0,0,0,0,0,0,0,0,0,0,0,0,0,0,0,0,0,0,0,0,0,0,0,0,0,0,0,0,0,0,0,0,0,0,0,0],"sum_hessian":[1.9265E4,1.3519E4,5.746E3,6.229E3,7.29E3,4.633E3,1.113E3,2.955E3,3.274E3,4.368E3,2.922E3,3.111E3,1.522E3,8.76E2,2.37E2,1.498E3,1.457E3,2.95E2,2.979E3,2.752E3,1.616E3,2.238E3,6.84E2,1.128E3,1.983E3,1.46E2,1.376E3,7.68E2,1.08E2,1.6E1,2.21E2,1.004E3,4.94E2,1.078E3,3.79E2,2.9E2,5E0,2.098E3,8.81E2,1.04E2,2.648E3,1.244E3,3.72E2,4.88E2,1.75E3,6.81E2,3E0,1.55E2,9.73E2,1.255E3,7.28E2,5.6E1,9E1,1.127E3,2.49E2,8.7E1,6.81E2,1.04E2,4E0,4E0,1.2E1,9.5E1,1.26E2,9.83E2,2.1E1,4.7E2,2.4E1,8.54E2,2.24E2,6.5E1,3.14E2,9.2E1,1.98E2,2.057E3,4.1E1,3.25E2,5.56E2,8.9E1,1.5E1,1.72E2,2.476E3,1.205E3,3.9E1,2.94E2,7.8E1,5.2E1,4.36E2,1.445E3,3.05E2,4.25E2,2.56E2,3.3E1,1.22E2,4.3E1,9.3E2,7.71E2,4.84E2,5.7E1,6.71E2,4.7E1,9E0,8.4E1,6E0,2.57E2,8.7E2,2.8E1,2.21E2,7.4E1,1.3E1,8.5E1,5.96E2,6E0,9.8E1,9E0,3E0,8.1E1,1.4E1,5E0,1.21E2],"tree_param":{"num_deleted":"0","num_feature":"23","num_nodes":"119","size_leaf_vector":"1"}},{"base_weights":[1.5964141E-2,-7.1231514E-1,1.624206E0,-1.2902488E0,-1.598227E-1,1.1461842E0,3.0469995E0,-1.6004106E0,-9.6675843E-1,-4.4362813E-1,1.8640979E-1,9.113474E-1,1.8354143E0,2.5926075E0,4.2636075E0,-1.8980088E0,-1.3381604E0,-1.0785145E0,-3.7611687E-1,2.0011494E0,-4.7272626E-1,-1.4052253E0,2.4803399E-1,3.41468E-1,1.1275936E0,1.6969671E0,3.6031826E0,2.9110172E0,1.6990362E0,3.281114E0,5.3037467E0,-2.1360273E0,-1.6236473E0,-1.5247005E0,-9.492502E-1,-1.279978E0,-8.271756E-1,2.614634E0,-4.4791704E-1,9.1957355E-1,3.6589713E0,-6.142047E-1,-5.5251475E-2,8.2339203E-1,-1.8327098E0,2.0595208E-1,1.6943991E0,-6.0300744E-1,5.817389E-1,6.423334E-1,1.3724669E0,1.3259182E0,2.0443377E0,5.2571115E0,2.4375255E0,2.7038953E0,4.2054596E0,2.8408508E0,1.2315172E0,3.517207E0,1.2711661E0,4.0568385E0,5.9434333E0,-2.5770867E-1,-2.0316239E-1,-1.2759747E-1,-1.9646563E-1,-1.7605409E-1,-1.1948601E-1,-1.2000481E-1,-2.9218558E-2,-1.7021038E-1,-9.579847E-2,-8.9202575E-2,1.21685326E-1,4.9760756E-1,-5.5948675E-2,-7.979484E-2,9.058518E-4,-7.471868E-2,1.5155025E-1,-2.7213117E-2,4.5279312E-1,-7.288159E-2,-1.2645649E-2,-7.718546E-3,5.0386965E-1,4.860781E-1,-5.7063043E-2,-1.472126E-1,-3.2112798E-1,1.8417167E-3,5.2115288E-2,2.7725992E-1,6.246177E-2,-2.5126744E-2,-3.54006E-1,9.904899E-2,2.1221554E-2,-3.6498655E-2,9.034022E-2,1.1008709E-1,1.6353011E-1,-2.2065912E-1,1.4146021E-1,6.2475365E-2,2.2793865E-1,8.179308E-1,3.816317E-1,1.1224909E-1,4.195312E-1,2.8547296E-1,1.1271062E-1,-9.932967E-2,4.5159003E-1,2.5198922E-1,7.3880213E-1,2.1787703E-1,4.95958E-2,3.608418E-1,6.029169E-2,2.4775444E-1,-1.438783E-1,5.4234844E-1,2.5323793E-1,4.4591862E-1,7.2267145E-1],"categories":[],"categories_nodes":[],"categories_segments":[],"categories_sizes":[],"default_left":[0,0,0,0,0,0,0,0,0,0,0,0,0,0,0,0,0,0,0,0,0,0,0,0,0,0,0,0,0,0,0,0,0,0,0,0,0,0,0,0,0,0,0,0,0,0,0,0,0,0,0,0,0,0,0,0,0,0,0,0,0,0,0,0,0,0,0,0,0,0,0,0,0,0,0,0,0,0,0,0,0,0,0,0,0,0,0,0,0,0,0,0,0,0,0,0,0,0,0,0,0,0,0,0,0,0,0,0,0,0,0,0,0,0,0,0,0,0,0,0,0,0,0,0,0,0,0],"id":9,"left_children":[1,3,5,7,9,11,13,15,17,19,21,23,25,27,29,31,33,35,37,39,41,43,45,47,49,51,53,55,57,59,61,63,65,67,69,71,73,75,77,79,81,83,85,87,89,91,93,95,97,99,101,103,105,107,109,111,113,115,117,119,121,123,125,-1,-1,-1,-1,-1,-1,-1,-1,-1,-1,-1,-1,-1,-1,-1,-1,-1,-1,-1,-1,-1,-1,-1,-1,-1,-1,-1,-1,-1,-1,-1,-1,-1,-1,-1,-1,-1,-1,-1,-1,-1,-1,-1,-1,-1,-1,-1,-1,-1,-1,-1,-1,-1,-1,-1,-1,-1,-1,-1,-1,-1,-1,-1,-1],"loss_changes":[2.257239E4,4.2352163E3,4.0816074E3,6.486631E2,6.666241E2,7.26084E2,8.230137E2,2.5531055E2,2.0908911E2,2.659972E2,2.9997516E2,4.1316528E2,2.7285132E2,3.0813623E2,3.9970898E2,9.717969E1,1.2613379E2,1.3392749E2,1.0982586E2,7.50721E1,2.1754877E2,1.1021767E2,1.7858905E2,2.1025883E2,2.8802393E2,1.3370605E2,1.4450525E2,2.0537305E2,1.5196967E2,9.612622E1,1.3202148E2,3.2293213E1,8.288757E1,9.009253E1,9.408984E1,1.9926758E2,1.5892664E2,9.317173E1,7.942419E1,2.9020777E1,5.9729294E1,1.5366284E2,1.0424913E2,1.1013873E2,4.2524902E1,1.6905344E2,9.366385E1,1.9295016E2,1.111393E2,2.1550104E2,1.1328369E2,1.6469312E2,1.8047021E2,1.06525024E2,1.1033652E2,1.6334326E2,1.8236731E2,1.0298633E2,1.4427496E2,4.7908203E1,8.212988E1,1.3130774E2,2.104082E2,0E0,0E0,0E0,0E0,0E0,0E0,0E0,0E0,0E0,0E0,0E0,0E0,0E0,0E0,0E0,0E0,0E0,0E0,0E0,0E0,0E0,0E0,0E0,0E0,0E0,0E0,0E0,0E0,0E0,0E0,0E0,0E0,0E0,0E0,0E0,0E0,0E0,0E0,0E0,0E0,0E0,0E0,0E0,0E0,0E0,0E0,0E0,0E0,0E0,0E0,0E0,0E0,0E0,0E0,0E0,0E0,0E0,0E0,0E0,0E0,0E0,0E0,0E0,0E0],"parents":[2147483647,0,0,1,1,2,2,3,3,4,4,5,5,6,6,7,7,8,8,9,9,10,10,11,11,12,12,13,13,14,14,15,15,16,16,17,17,18,18,19,19,20,20,21,21,22,22,23,23,24,24,25,25,26,26,27,27,28,28,29,29,30,30,31,31,32,32,33,33,34,34,35,35,36,36,37,37,38,38,39,39,40,40,41,41,42,42,43,43,44,44,45,45,46,46,47,47,48,48,49,49,50,50,51,51,52,52,53,53,54,54,55,55,56,56,57,57,58,58,59,59,60,60,61,61,62,62],"right_children":[2,4,6,8,10,12,14,16,18,20,22,24,26,28,30,32,34,36,38,40,42,44,46,48,50,52,54,56,58,60,62,64,66,68,70,72,74,76,78,80,82,84,86,88,90,92,94,96,98,100,102,104,106,108,110,112,114,116,118,120,122,124,126,-1,-1,-1,-1,-1,-1,-1,-1,-1,-1,-1,-1,-1,-1,-1,-1,-1,-1,-1,-1,-1,-1,-1,-1,-1,-1,-1,-1,-1,-1,-1,-1,-1,-1,-1,-1,-1,-1,-1,-1,-1,-1,-1,-1,-1,-1,-1,-1,-1,-1,-1,-1,-1,-1,-1,-1,-1,-1,-1,-1,-1,-1,-1,-1],"split_conditions":[8.6E0,5E0,1.32E1,3.3333333E0,6.8E0,7.034483E0,1.1333333E1,1.8571428E0,2.142857E0,-2.3809524E0,1E0,2.5789473E0,5.2E0,5.516773E1,3.8181818E0,6.4285713E-1,1.81E1,3.3333334E-1,2E-1,6.3245552E1,4.2941175E0,-9.122807E-1,1.0333333E1,4.3235292E0,4E0,2.235294E0,5.6875E0,1.78E1,-1.6666667E-1,3.4814816E0,3.45E1,8E-1,1E0,1.9375E-1,7E-1,1.73E1,5.1666665E0,6.1286216E0,6.984907E1,2.24E1,3.6666667E0,3.106383E0,1.6936936E0,4E-1,9.689043E1,2.8039215E0,6.0595997E1,4E0,4E-1,2.74E1,1E0,2.2340426E-1,2E0,1.0666667E1,6.666667E-1,2.9166667E0,3.19E1,7E0,4.2426405E0,2.1066666E0,1.74E1,1.76E1,3.5284557E0,-2.5770867E-1,-2.0316239E-1,-1.2759747E-1,-1.9646563E-1,-1.7605409E-1,-1.1948601E-1,-1.2000481E-1,-2.9218558E-2,-1.7021038E-1,-9.579847E-2,-8.9202575E-2,1.21685326E-1,4.9760756E-1,-5.5948675E-2,-7.979484E-2,9.058518E-4,-7.471868E-2,1.5155025E-1,-2.7213117E-2,4.5279312E-1,-7.288159E-2,-1.2645649E-2,-7.718546E-3,5.0386965E-1,4.860781E-1,-5.7063043E-2,-1.472126E-1,-3.2112798E-1,1.8417167E-3,5.2115288E-2,2.7725992E-1,6.246177E-2,-2.5126744E-2,-3.54006E-1,9.904899E-2,2.1221554E-2,-3.6498655E-2,9.034022E-2,1.1008709E-1,1.6353011E-1,-2.2065912E-1,1.4146021E-1,6.2475365E-2,2.2793865E-1,8.179308E-1,3.816317E-1,1.1224909E-1,4.195312E-1,2.8547296E-1,1.1271062E-1,-9.932967E-2,4.5159003E-1,2.5198922E-1,7.3880213E-1,2.1787703E-1,4.95958E-2,3.608418E-1,6.029169E-2,2.4775444E-1,-1.438783E-1,5.4234844E-1,2.5323793E-1,4.4591862E-1,7.2267145E-1],"split_indices":[1,1,1,0,1,3,3,3,4,10,13,4,4,6,4,4,7,17,22,6,3,10,0,3,3,4,4,1,10,4,7,1,8,21,16,7,3,18,6,7,0,4,10,22,6,4,5,14,22,7,8,21,13,0,17,10,7,14,18,10,1,1,18,0,0,0,0,0,0,0,0,0,0,0,0,0,0,0,0,0,0,0,0,0,0,0,0,0,0,0,0,0,0,0,0,0,0,0,0,0,0,0,0,0,0,0,0,0,0,0,0,0,0,0,0,0,0,0,0,0,0,0,0,0,0,0,0],"split_type":[0,0,0,0,0,0,0,0,0,0,0,0,0,0,0,0,0,0,0,0,0,0,0,0,0,0,0,0,0,0,0,0,0,0,0,0,0,0,0,0,0,0,0,0,0,0,0,0,0,0,0,0,0,0,0,0,0,0,0,0,0,0,0,0,0,0,0,0,0,0,0,0,0,0,0,0,0,0,0,0,0,0,0,0,0,0,0,0,0,0,0,0,0,0,0,0,0,0,0,0,0,0,0,0,0,0,0,0,0,0,0,0,0,0,0,0,0,0,0,0,0,0,0,0,0,0,0],"sum_hessian":[1.927E4,1.3264E4,6.006E3,6.482E3,6.782E3,4.497E3,1.509E3,3.307E3,3.175E3,3.727E3,3.055E3,3.356E3,1.141E3,1.101E3,4.08E2,1.546E3,1.761E3,2.669E3,5.06E2,4.3E1,3.684E3,1.13E2,2.942E3,9.24E2,2.432E3,1.06E3,8.1E1,8.1E2,2.91E2,2.12E2,1.96E2,8.24E2,7.22E2,1.188E3,5.73E2,1.479E3,1.19E3,1.1E1,4.95E2,2.7E1,1.6E1,2.751E3,9.33E2,1.8E1,9.5E1,2.86E3,8.2E1,1.87E2,7.37E2,8.17E2,1.615E3,5.15E2,5.45E2,3.2E1,4.9E1,7.01E2,1.09E2,8.3E1,2.08E2,1.89E2,2.3E1,6.9E1,1.27E2,1.53E2,6.71E2,3.6E2,3.62E2,6.9E2,4.98E2,4.14E2,1.59E2,6.38E2,8.41E2,1.154E3,3.6E1,6E0,5E0,2.8E2,2.15E2,7E0,2E1,3E0,1.3E1,2.227E3,5.24E2,9.3E2,3E0,4E0,1.4E1,7.7E1,1.8E1,1.794E3,1.066E3,4E1,4.2E1,1.68E2,1.9E1,3.49E2,3.88E2,1.68E2,6.49E2,7.97E2,8.18E2,1.2E1,5.03E2,7.8E1,4.67E2,9E0,2.3E1,2.9E1,2E1,6.39E2,6.2E1,6E0,1.03E2,7.9E1,4E0,9E1,1.18E2,1.83E2,6E0,1.6E1,7E0,3.5E1,3.4E1,6.1E1,6.6E1],"tree_param":{"num_deleted":"0","num_feature":"23","num_nodes":"127","size_leaf_vector":"1"}},{"base_weights":[-2.98149E-3,-6.99986E-1,1.4207448E0,-1.3417448E0,-2.6659048E-1,1.0602875E0,3.156121E0,-1.6929972E0,-1.1513071E0,-5.899389E-1,-1.2719265E-2,8.3774877E-1,1.7129422E0,2.8496397E0,5.218534E0,-1.765948E0,-1.2040509E0,-1.4338981E0,-9.4094425E-1,-7.0480555E-1,-2.3237377E-1,-1.4012307E-1,5.435919E-1,7.0881706E-1,1.5088779E0,-1.9620138E0,1.7424119E0,-8.503423E-1,2.9102733E0,5.889977E0,3.2762775E0,-8.872839E-1,-1.8175962E0,-1.2694674E0,2.9478878E-1,-1.7477092E0,-1.2134938E0,-9.5471877E-1,4.546959E-1,2.6777442E0,-7.165022E-1,4.24647E-1,-2.7053946E-1,-7.139255E-1,-5.0617747E-2,6.9442046E-1,-1.0954287E0,5.093961E-1,1.0687923E0,1.4180261E0,4.3362374E0,6.500248E-2,-4.2637166E-1,1.0393133E0,1.893276E0,1.5778165E0,-2.4750192E0,2.9681618E0,-1.9326331E-2,1.0695509E0,6.287784E0,-1.3405158E-1,3.7131603E0,2.7464294E-1,-1.2765051E-1,-1.9752388E-1,-1.6077723E-1,-6.188445E-2,-1.6921227E-1,-1.7954971E-1,7.265053E-3,-1.2752822E-1,9.543017E-2,-1.9524798E-1,-8.92156E-2,-1.1082502E-1,5.94819E-1,-6.698062E-2,-1.497441E-1,-7.34559E-2,-6.4836214E-3,-2.7056453E-1,-6.289659E-2,-2.4031788E-2,1.4181896E-2,2.0191334E-1,5.8852162E-2,-1.4701281E-1,9.707518E-2,-1.9805287E-1,5.41505E-2,-7.631951E-2,1.1603441E-1,8.010684E-2,1.6627377E-1,7.6404047E-1,2.2158216E-1,2.2637871E-1,6.955972E-2,1.9689904E-1,1.3929553E-3,-1.6707148E-1,4.4568935E-1,-4.375846E-1,2.8097674E-2,4.196014E-1,2.8319836E-1,1.0296585E-1,-3.1824154E-1,3.1500953E-1,-4.790706E-2,4.7235632E-1,7.625873E-1,5.9029245E-1,1.7706907E-1],"categories":[],"categories_nodes":[],"categories_segments":[],"categories_sizes":[],"default_left":[0,0,0,0,0,0,0,0,0,0,0,0,0,0,0,0,0,0,0,0,0,0,0,0,0,0,0,0,0,0,0,0,0,0,0,0,0,0,0,0,0,0,0,0,0,0,0,0,0,0,0,0,0,0,0,0,0,0,0,0,0,0,0,0,0,0,0,0,0,0,0,0,0,0,0,0,0,0,0,0,0,0,0,0,0,0,0,0,0,0,0,0,0,0,0,0,0,0,0,0,0,0,0,0,0,0,0,0,0,0,0,0,0,0,0],"id":10,"left_children":[1,3,5,7,9,11,13,15,17,19,21,23,25,27,29,31,33,35,37,39,41,43,45,47,49,51,53,55,57,59,61,63,65,67,-1,69,71,73,-1,75,77,-1,79,81,83,85,87,89,91,93,95,-1,-1,97,99,101,103,105,107,109,111,-1,113,-1,-1,-1,-1,-1,-1,-1,-1,-1,-1,-1,-1,-1,-1,-1,-1,-1,-1,-1,-1,-1,-1,-1,-1,-1,-1,-1,-1,-1,-1,-1,-1,-1,-1,-1,-1,-1,-1,-1,-1,-1,-1,-1,-1,-1,-1,-1,-1,-1,-1,-1,-1],"loss_changes":[1.9040027E4,3.5821436E3,3.9408184E3,3.4506836E2,6.3119556E2,7.569033E2,6.695088E2,6.2601074E1,1.9874805E2,1.3864905E2,3.054412E2,3.3591553E2,1.471106E2,2.1491064E2,1.610586E2,7.000049E1,6.8759674E1,9.690454E1,1.5025452E2,1.0296802E2,1.416043E2,1.8000119E2,1.992311E2,2.3411182E2,1.5433337E2,6.92664E1,1.3743604E2,6.711442E1,1.5824072E2,1.8813403E2,8.186069E1,1.3064746E2,4.5916504E1,6.3894165E1,0E0,5.162744E1,1.1470007E2,1.1851184E2,0E0,1.1851308E2,9.180701E1,0E0,7.7950806E1,7.8003815E1,1.10837425E2,1.0180112E2,5.4122406E1,1.6938043E2,1.9632117E2,9.0366455E1,1.15202576E2,0E0,0E0,9.703418E1,1.5387793E2,7.3194214E1,5.4025696E1,1.4007324E2,6.653468E1,3.0774002E1,1.5949194E2,0E0,1.3765466E2,0E0,0E0,0E0,0E0,0E0,0E0,0E0,0E0,0E0,0E0,0E0,0E0,0E0,0E0,0E0,0E0,0E0,0E0,0E0,0E0,0E0,0E0,0E0,0E0,0E0,0E0,0E0,0E0,0E0,0E0,0E0,0E0,0E0,0E0,0E0,0E0,0E0,0E0,0E0,0E0,0E0,0E0,0E0,0E0,0E0,0E0,0E0,0E0,0E0,0E0,0E0,0E0],"parents":[2147483647,0,0,1,1,2,2,3,3,4,4,5,5,6,6,7,7,8,8,9,9,10,10,11,11,12,12,13,13,14,14,15,15,16,16,17,17,18,18,19,19,20,20,21,21,22,22,23,23,24,24,25,25,26,26,27,27,28,28,29,29,30,30,31,31,32,32,33,33,35,35,36,36,37,37,39,39,40,40,42,42,43,43,44,44,45,45,46,46,47,47,48,48,49,49,50,50,53,53,54,54,55,55,56,56,57,57,58,58,59,59,60,60,62,62],"right_children":[2,4,6,8,10,12,14,16,18,20,22,24,26,28,30,32,34,36,38,40,42,44,46,48,50,52,54,56,58,60,62,64,66,68,-1,70,72,74,-1,76,78,-1,80,82,84,86,88,90,92,94,96,-1,-1,98,100,102,104,106,108,110,112,-1,114,-1,-1,-1,-1,-1,-1,-1,-1,-1,-1,-1,-1,-1,-1,-1,-1,-1,-1,-1,-1,-1,-1,-1,-1,-1,-1,-1,-1,-1,-1,-1,-1,-1,-1,-1,-1,-1,-1,-1,-1,-1,-1,-1,-1,-1,-1,-1,-1,-1,-1,-1,-1],"split_conditions":[8.2E0,4.4E0,1.38E1,2.6E0,5.9E0,1.14E1,2.0333334E1,4.5666666E0,-7E-1,2.5E0,2.9E0,5.6235294E0,8.4210527E-1,-6.6E0,3.0333333E0,-1.9425287E0,2.3333333E0,1.49E1,4.408602E0,9.8E0,-2.4666667E0,2E0,6.8E0,1.0333333E1,1.8243243E-1,8E-1,1.5662651E-1,1.34E1,9.1473206E1,-2.6666667E0,3.1333334E0,5.769231E-1,6.4285713E-1,8.7E0,2.9478878E-1,8E0,1.6666666E0,-1.3333334E0,4.546959E-1,1.18321594E2,8.6977005E0,4.24647E-1,3E0,1.53E1,2.235294E0,8.153846E-1,4E0,-8E0,1.99E1,9.917355E-2,9E0,6.500248E-2,-4.2637166E-1,-6.666667E-1,7E0,5E-1,1.56E1,-2.342723E0,5E0,3.6507937E-1,7.5E0,-1.3405158E-1,4.0858555E1,2.7464294E-1,-1.2765051E-1,-1.9752388E-1,-1.6077723E-1,-6.188445E-2,-1.6921227E-1,-1.7954971E-1,7.265053E-3,-1.2752822E-1,9.543017E-2,-1.9524798E-1,-8.92156E-2,-1.1082502E-1,5.94819E-1,-6.698062E-2,-1.497441E-1,-7.34559E-2,-6.4836214E-3,-2.7056453E-1,-6.289659E-2,-2.4031788E-2,1.4181896E-2,2.0191334E-1,5.8852162E-2,-1.4701281E-1,9.707518E-2,-1.9805287E-1,5.41505E-2,-7.631951E-2,1.1603441E-1,8.010684E-2,1.6627377E-1,7.6404047E-1,2.2158216E-1,2.2637871E-1,6.955972E-2,1.9689904E-1,1.3929553E-3,-1.6707148E-1,4.4568935E-1,-4.375846E-1,2.8097674E-2,4.196014E-1,2.8319836E-1,1.0296585E-1,-3.1824154E-1,3.1500953E-1,-4.790706E-2,4.7235632E-1,7.625873E-1,5.9029245E-1,1.7706907E-1],"split_indices":[2,2,2,2,2,2,0,19,19,19,19,4,4,19,9,9,17,7,9,7,9,13,20,0,21,4,21,1,6,17,9,4,4,7,0,15,17,17,0,6,18,0,13,7,4,4,11,19,7,21,0,0,0,9,11,22,1,9,20,21,20,0,6,0,0,0,0,0,0,0,0,0,0,0,0,0,0,0,0,0,0,0,0,0,0,0,0,0,0,0,0,0,0,0,0,0,0,0,0,0,0,0,0,0,0,0,0,0,0,0,0,0,0,0,0],"split_type":[0,0,0,0,0,0,0,0,0,0,0,0,0,0,0,0,0,0,0,0,0,0,0,0,0,0,0,0,0,0,0,0,0,0,0,0,0,0,0,0,0,0,0,0,0,0,0,0,0,0,0,0,0,0,0,0,0,0,0,0,0,0,0,0,0,0,0,0,0,0,0,0,0,0,0,0,0,0,0,0,0,0,0,0,0,0,0,0,0,0,0,0,0,0,0,0,0,0,0,0,0,0,0,0,0,0,0,0,0,0,0,0,0,0,0],"sum_hessian":[1.9185E4,1.288E4,6.305E3,5.191E3,7.689E3,5.222E3,1.083E3,1.822E3,3.369E3,3.381E3,4.308E3,3.896E3,1.326E3,9.45E2,1.38E2,1.583E3,2.39E2,1.435E3,1.934E3,2.558E3,8.23E2,3.506E3,8.02E2,3.27E3,6.26E2,1E1,1.316E3,1.5E1,9.3E2,1.01E2,3.7E1,8.9E1,1.494E3,2.36E2,3E0,5.89E2,8.46E2,1.93E3,4E0,8E0,2.55E3,6E0,8.17E2,4.72E2,3.034E3,7.35E2,6.7E1,2.106E3,1.164E3,6.08E2,1.8E1,5E0,5E0,2.34E2,1.082E3,6E0,9E0,9.12E2,1.8E1,8E0,9.3E1,3E0,3.4E1,8E0,8.1E1,8.48E2,6.46E2,9.4E1,1.42E2,5.74E2,1.5E1,8.23E2,2.3E1,1.12E2,1.818E3,4E0,4E0,2.408E3,1.42E2,2.5E2,5.67E2,1.8E1,4.54E2,1.528E3,1.506E3,5.3E1,6.82E2,5.7E1,1E1,2.6E1,2.08E3,5.5E1,1.109E3,1.74E2,4.34E2,6E0,1.2E1,5E1,1.84E2,1.04E3,4.2E1,3E0,3E0,5E0,4E0,8.8E1,8.24E2,1.4E1,4E0,3E0,5E0,4.5E1,4.8E1,1.5E1,1.9E1],"tree_param":{"num_deleted":"0","num_feature":"23","num_nodes":"115","size_leaf_vector":"1"}},{"base_weights":[-3.6009115E-3,-5.3795E-1,1.3842043E0,-1.0298438E0,-1.07856154E-1,1.0617354E0,2.785583E0,-1.3195534E0,-7.887835E-1,-3.3679628E-1,2.5748518E-1,7.973573E-1,1.4910864E0,2.4697495E0,5.0271297E0,-1.7221711E0,-1.2377545E0,-8.009695E-1,2.8381011E0,-4.4218832E-1,3.5187814E-1,-1.4686235E0,2.939699E-1,1.9686497E0,7.2622573E-1,1.4403732E0,4.599464E0,2.1576562E0,3.1248846E0,6.014002E0,2.8511913E0,-1.8015743E0,-9.654926E-1,-1.0926994E0,-1.4506655E0,-7.1093863E-1,-1.2647063E0,-1.4083734E-1,4.42119E0,-5.427489E-1,-1.180698E-1,4.125292E-1,-2.9406633E0,-3.0446893E-1,-2.7430634E0,2.8448567E-1,5.494093E-1,2.3046503E0,-1.0461466E0,5.31054E-1,1.0912626E0,1.2390214E0,2.1391804E0,1.9854579E0,6.3773713E0,1.978053E0,3.2581205E0,2.2430055E0,3.6988575E0,6.8737016E0,3.861056E0,3.5965297E0,-1.1620519E0,-1.952446E-1,-1.4410426E-1,-1.3593797E-1,2.0672612E-1,-1.2125514E-1,-5.5203557E-2,-1.5279076E-1,-5.80209E-2,-7.251879E-2,1.9375162E-1,2.2745995E-1,-1.3129297E-1,2.3464666E-1,6.402977E-1,-4.5842513E-2,-9.484145E-2,4.0620103E-2,-2.8711602E-2,5.548903E-2,-9.341447E-2,-1.23168804E-1,-3.7269795E-1,-3.047127E-1,1.0761541E-1,-1.6348816E-1,-3.46577E-1,-7.266425E-2,3.347438E-2,4.8492154E-1,2.0671904E-1,1.782212E-1,-2.5028744E-1,4.8440594E-2,2.4969904E-1,1.1293348E-1,-3.1920353E-1,-8.349073E-2,1.300582E-1,1.9930303E-1,5.1688665E-1,-3.388992E-2,3.708413E-1,7.744951E-1,3.6937162E-1,2.3968275E-1,1.1780248E-1,4.2017594E-1,9.345537E-2,-2.6336966E-2,2.660174E-1,4.0390977E-1,1.3739046E-1,8.3832186E-1,5.382119E-1,1.15528144E-1,5.4737103E-1,4.0987006E-1,-1.1694256E-1,5.007106E-2,-2.5593016E-1],"categories":[],"categories_nodes":[],"categories_segments":[],"categories_sizes":[],"default_left":[0,0,0,0,0,0,0,0,0,0,0,0,0,0,0,0,0,0,0,0,0,0,0,0,0,0,0,0,0,0,0,0,0,0,0,0,0,0,0,0,0,0,0,0,0,0,0,0,0,0,0,0,0,0,0,0,0,0,0,0,0,0,0,0,0,0,0,0,0,0,0,0,0,0,0,0,0,0,0,0,0,0,0,0,0,0,0,0,0,0,0,0,0,0,0,0,0,0,0,0,0,0,0,0,0,0,0,0,0,0,0,0,0,0,0,0,0,0,0,0,0,0,0],"id":11,"left_children":[1,3,5,7,9,11,13,15,17,19,21,23,25,27,29,31,33,35,37,39,41,43,45,47,49,51,53,55,57,59,61,63,65,67,69,71,73,-1,75,77,79,81,83,85,87,89,-1,91,93,95,97,99,101,103,105,107,109,111,113,115,117,119,121,-1,-1,-1,-1,-1,-1,-1,-1,-1,-1,-1,-1,-1,-1,-1,-1,-1,-1,-1,-1,-1,-1,-1,-1,-1,-1,-1,-1,-1,-1,-1,-1,-1,-1,-1,-1,-1,-1,-1,-1,-1,-1,-1,-1,-1,-1,-1,-1,-1,-1,-1,-1,-1,-1,-1,-1,-1,-1,-1,-1],"loss_changes":[1.4212895E4,2.927349E3,2.4043857E3,4.4954932E2,6.177019E2,4.904253E2,6.91958E2,9.406836E1,1.5790894E2,3.2968152E2,1.7948268E2,2.2192065E2,2.5286963E2,1.7163477E2,2.439458E2,2.7544678E1,7.348633E1,1.4565674E2,8.7198524E1,1.2822327E2,1.2137707E2,8.6395134E1,1.3531151E2,1.5752179E2,1.7965015E2,2.2565918E2,1.07335754E2,1.10829346E2,1.3283813E2,1.26010254E2,1.2407178E2,2.0998047E1,6.127296E1,9.3437744E1,6.512988E1,1.12460815E2,1.0017621E2,0E0,2.1105621E1,1.02217285E2,8.288141E1,1.1416676E2,9.695389E0,1.24646736E2,1.6248718E1,1.4162875E2,0E0,7.266815E1,7.0455086E1,1.4999252E2,1.4706738E2,1.6250989E2,1.4927197E2,4.9650887E1,2.530011E1,1.693601E2,1.7535345E2,1.19091E2,1.2680444E2,8.4095215E1,1.0646387E2,8.6459045E1,1.7750387E1,0E0,0E0,0E0,0E0,0E0,0E0,0E0,0E0,0E0,0E0,0E0,0E0,0E0,0E0,0E0,0E0,0E0,0E0,0E0,0E0,0E0,0E0,0E0,0E0,0E0,0E0,0E0,0E0,0E0,0E0,0E0,0E0,0E0,0E0,0E0,0E0,0E0,0E0,0E0,0E0,0E0,0E0,0E0,0E0,0E0,0E0,0E0,0E0,0E0,0E0,0E0,0E0,0E0,0E0,0E0,0E0,0E0,0E0,0E0,0E0],"parents":[2147483647,0,0,1,1,2,2,3,3,4,4,5,5,6,6,7,7,8,8,9,9,10,10,11,11,12,12,13,13,14,14,15,15,16,16,17,17,18,18,19,19,20,20,21,21,22,22,23,23,24,24,25,25,26,26,27,27,28,28,29,29,30,30,31,31,32,32,33,33,34,34,35,35,36,36,38,38,39,39,40,40,41,41,42,42,43,43,44,44,45,45,47,47,48,48,49,49,50,50,51,51,52,52,53,53,54,54,55,55,56,56,57,57,58,58,59,59,60,60,61,61,62,62],"right_children":[2,4,6,8,10,12,14,16,18,20,22,24,26,28,30,32,34,36,38,40,42,44,46,48,50,52,54,56,58,60,62,64,66,68,70,72,74,-1,76,78,80,82,84,86,88,90,-1,92,94,96,98,100,102,104,106,108,110,112,114,116,118,120,122,-1,-1,-1,-1,-1,-1,-1,-1,-1,-1,-1,-1,-1,-1,-1,-1,-1,-1,-1,-1,-1,-1,-1,-1,-1,-1,-1,-1,-1,-1,-1,-1,-1,-1,-1,-1,-1,-1,-1,-1,-1,-1,-1,-1,-1,-1,-1,-1,-1,-1,-1,-1,-1,-1,-1,-1,-1,-1,-1,-1],"split_conditions":[9E0,5E0,1.44E1,3.2E0,4.2941175E0,1.14E1,2.0666666E1,1E0,7.3333335E0,3.12E1,1.3E1,-2.0175438E0,1.6666666E1,3.51E1,2.6666667E0,2.4150944E-1,3E0,4E0,4E-1,7.6666665E0,8.7447464E1,1.23E1,1.0033334E1,8.163945E0,3.26E1,9.5161295E0,1E-1,1.8666666E1,2.5210086E-1,1.7E0,8.6E0,2E-1,2.4E0,2.7333333E0,2.8125E-1,1.1233334E1,8.095238E-1,-1.4083734E-1,6E-1,1.4108527E0,-3.7E0,1.3865547E-1,1E0,-1E-1,-1.4615384E0,-5.4666667E0,5.494093E-1,2.39E1,-4.3385415E0,1.3666667E1,3.6666667E0,2.09E1,3.5333333E0,5E-1,5E-1,1.6E1,3.2380953E0,-1.3333334E0,2E0,2E0,2.1666667E0,3.85E1,3.62E1,-1.952446E-1,-1.4410426E-1,-1.3593797E-1,2.0672612E-1,-1.2125514E-1,-5.5203557E-2,-1.5279076E-1,-5.80209E-2,-7.251879E-2,1.9375162E-1,2.2745995E-1,-1.3129297E-1,2.3464666E-1,6.402977E-1,-4.5842513E-2,-9.484145E-2,4.0620103E-2,-2.8711602E-2,5.548903E-2,-9.341447E-2,-1.23168804E-1,-3.7269795E-1,-3.047127E-1,1.0761541E-1,-1.6348816E-1,-3.46577E-1,-7.266425E-2,3.347438E-2,4.8492154E-1,2.0671904E-1,1.782212E-1,-2.5028744E-1,4.8440594E-2,2.4969904E-1,1.1293348E-1,-3.1920353E-1,-8.349073E-2,1.300582E-1,1.9930303E-1,5.1688665E-1,-3.388992E-2,3.708413E-1,7.744951E-1,3.6937162E-1,2.3968275E-1,1.1780248E-1,4.2017594E-1,9.345537E-2,-2.6336966E-2,2.660174E-1,4.0390977E-1,1.3739046E-1,8.3832186E-1,5.382119E-1,1.15528144E-1,5.4737103E-1,4.0987006E-1,-1.1694256E-1,5.007106E-2,-2.5593016E-1],"split_indices":[1,1,1,1,3,1,0,0,0,7,7,9,0,7,9,21,11,11,16,0,5,7,3,18,7,3,20,0,21,19,20,20,1,19,21,19,3,0,16,9,20,21,8,19,9,19,0,7,9,0,9,7,19,22,22,1,9,17,17,14,19,7,7,0,0,0,0,0,0,0,0,0,0,0,0,0,0,0,0,0,0,0,0,0,0,0,0,0,0,0,0,0,0,0,0,0,0,0,0,0,0,0,0,0,0,0,0,0,0,0,0,0,0,0,0,0,0,0,0,0,0,0,0],"split_type":[0,0,0,0,0,0,0,0,0,0,0,0,0,0,0,0,0,0,0,0,0,0,0,0,0,0,0,0,0,0,0,0,0,0,0,0,0,0,0,0,0,0,0,0,0,0,0,0,0,0,0,0,0,0,0,0,0,0,0,0,0,0,0,0,0,0,0,0,0,0,0,0,0,0,0,0,0,0,0,0,0,0,0,0,0,0,0,0,0,0,0,0,0,0,0,0,0,0,0,0,0,0,0,0,0,0,0,0,0,0,0,0,0,0,0,0,0,0,0,0,0,0,0],"sum_hessian":[1.9164E4,1.3837E4,5.327E3,6.454E3,7.383E3,4.332E3,9.95E2,2.929E3,3.525E3,4.539E3,2.844E3,2.683E3,1.649E3,8.74E2,1.21E2,4.91E2,2.438E3,3.514E3,1.1E1,3.937E3,6.02E2,5.8E1,2.786E3,1.52E2,2.531E3,1.624E3,2.5E1,5.95E2,2.79E2,8.2E1,3.9E1,4.43E2,4.8E1,1.454E3,9.84E2,2.945E3,5.69E2,3E0,8E0,3.004E3,9.33E2,5.92E2,1E1,3.1E1,2.7E1,2.782E3,4E0,1.37E2,1.5E1,1.651E3,8.8E2,1.263E3,3.61E2,1.1E1,1.4E1,5.14E2,8.1E1,1.12E2,1.67E2,5.7E1,2.5E1,3.3E1,6E0,3.09E2,1.34E2,4.3E1,5E0,1.189E3,2.65E2,9.03E2,8.1E1,2.93E3,1.5E1,7E0,5.62E2,5E0,3E0,2.489E3,5.15E2,2.27E2,7.06E2,5.36E2,5.6E1,4E0,6E0,1E1,2.1E1,1.2E1,1.5E1,1.31E2,2.651E3,1E1,1.27E2,5E0,1E1,1.614E3,3.7E1,8.73E2,7E0,3.6E1,1.227E3,3.46E2,1.5E1,5E0,6E0,8E0,6E0,3.36E2,1.78E2,5.7E1,2.4E1,1.6E1,9.6E1,1.45E2,2.2E1,2.6E1,3.1E1,1E1,1.5E1,3E1,3E0,3E0,3E0],"tree_param":{"num_deleted":"0","num_feature":"23","num_nodes":"123","size_leaf_vector":"1"}},{"base_weights":[1.3602207E-2,-6.523458E-1,1.0511817E0,-1.0520142E0,-2.8812006E-1,7.2026515E-1,2.1986048E0,-1.2465115E0,-7.9975545E-1,-4.3404573E-1,1.1680704E-1,4.906353E-1,1.076009E0,1.8659728E0,3.7175765E0,-1.5004157E0,-1.0119967E0,-8.971541E-1,-4.3536055E-1,-5.050293E-1,1.3839824E-2,4.7891238E-1,-6.812053E-2,4.1507488E-1,8.9955956E-1,2.031638E-1,1.1893167E0,1.9362854E0,-4.8540992E-1,2.7658043E0,4.2251344E0,-2.4327953E0,-1.4681818E0,-1.0603484E0,1.9820122E-1,-9.74032E-1,-2.6420316E-1,6.8930334E-1,-7.002922E-1,-7.78092E-1,-3.958419E-1,-1.0898275E0,1.8696336E-1,4.1791138E-1,3.4264243E0,-8.3790976E-1,4.274753E-2,2.0337601E-1,6.2266636E-1,5.6957495E-1,1.5182307E0,7.261452E-1,-9.3119067E-1,1.0810823E0,1.9920954E0,1.259139E0,2.147889E0,2.0077813E0,-1.2524881E0,-6.657089E-1,3.1237721E0,-1.267737E-1,4.3180842E0,-2.6356208E-1,4.828969E-2,-1.5085183E-1,-8.945575E-2,-1.238901E-1,-7.902633E-2,-8.477695E-2,1.4932613E-1,-7.076614E-2,-1.1438797E-1,-2.3269625E-1,-1.157624E-2,2.880369E-2,5.2052045E-1,-5.4855257E-2,-2.646231E-1,-1.0890903E-1,-6.033138E-2,-4.263131E-2,7.924076E-2,-1.8095951E-1,1.958908E-2,-1.6800502E-2,6.825801E-2,-2.916468E-1,4.546434E-2,4.8691884E-1,1.3959229E-1,-2.7141804E-1,-2.803409E-2,-1.0937513E-2,5.9215248E-2,-5.1116854E-2,3.542113E-2,3.7411246E-2,1.0290378E-1,6.59483E-2,-1.8940632E-1,1.3575844E-1,4.2962366E-1,5.172309E-2,4.6733615E-1,7.825875E-2,-1.4457195E-1,7.359713E-2,1.3979253E-1,2.1560596E-1,-8.016149E-2,-1.6474792E-1,1.4982906E-1,1.9173817E-1,2.780932E-1,2.2741467E-2,3.722665E-1,5.281608E-2,-2.503888E-1,-1.427283E-1,9.988665E-2,3.35898E-1,-3.994986E-2,3.6348683E-1,4.9906406E-1],"categories":[],"categories_nodes":[],"categories_segments":[],"categories_sizes":[],"default_left":[0,0,0,0,0,0,0,0,0,0,0,0,0,0,0,0,0,0,0,0,0,0,0,0,0,0,0,0,0,0,0,0,0,0,0,0,0,0,0,0,0,0,0,0,0,0,0,0,0,0,0,0,0,0,0,0,0,0,0,0,0,0,0,0,0,0,0,0,0,0,0,0,0,0,0,0,0,0,0,0,0,0,0,0,0,0,0,0,0,0,0,0,0,0,0,0,0,0,0,0,0,0,0,0,0,0,0,0,0,0,0,0,0,0,0,0,0,0,0,0,0,0,0,0,0],"id":12,"left_children":[1,3,5,7,9,11,13,15,17,19,21,23,25,27,29,31,33,35,37,39,41,43,45,47,49,51,53,55,57,59,61,63,65,67,69,71,73,75,77,79,81,83,85,87,89,91,93,95,97,99,101,103,105,107,109,111,113,115,117,119,121,-1,123,-1,-1,-1,-1,-1,-1,-1,-1,-1,-1,-1,-1,-1,-1,-1,-1,-1,-1,-1,-1,-1,-1,-1,-1,-1,-1,-1,-1,-1,-1,-1,-1,-1,-1,-1,-1,-1,-1,-1,-1,-1,-1,-1,-1,-1,-1,-1,-1,-1,-1,-1,-1,-1,-1,-1,-1,-1,-1,-1,-1,-1,-1],"loss_changes":[1.3325467E4,1.7094224E3,2.8606924E3,2.7355518E2,3.6330414E2,4.774431E2,8.44876E2,1.8639014E2,8.6111084E1,1.4372656E2,1.0915686E2,1.0946283E2,2.2659497E2,2.3023535E2,1.3350488E2,4.1569824E1,9.661218E1,9.3289185E1,1.5452864E2,1.1588306E2,1.183863E2,9.725409E1,9.220264E1,1.3189514E2,1.1202667E2,1.5786594E2,1.7400928E2,1.8981836E2,8.085057E1,1.3498944E2,1.0533862E2,3.0465485E1,3.2354004E1,7.515723E1,8.802457E1,7.664148E1,6.3787846E1,1.7734726E2,1.21949585E2,5.967163E1,1.0128357E2,7.825097E1,9.446369E1,6.734064E1,2.4801361E1,1.4121606E2,7.9009674E1,1.6075534E2,1.5269958E2,8.153045E1,7.928723E1,1.471464E2,7.5267944E1,1.9470557E2,1.1180011E2,2.2697797E2,1.4362158E2,2.9289616E1,7.2825745E1,1.5413179E1,8.2850525E1,0E0,6.9221436E1,0E0,0E0,0E0,0E0,0E0,0E0,0E0,0E0,0E0,0E0,0E0,0E0,0E0,0E0,0E0,0E0,0E0,0E0,0E0,0E0,0E0,0E0,0E0,0E0,0E0,0E0,0E0,0E0,0E0,0E0,0E0,0E0,0E0,0E0,0E0,0E0,0E0,0E0,0E0,0E0,0E0,0E0,0E0,0E0,0E0,0E0,0E0,0E0,0E0,0E0,0E0,0E0,0E0,0E0,0E0,0E0,0E0,0E0,0E0,0E0,0E0,0E0],"parents":[2147483647,0,0,1,1,2,2,3,3,4,4,5,5,6,6,7,7,8,8,9,9,10,10,11,11,12,12,13,13,14,14,15,15,16,16,17,17,18,18,19,19,20,20,21,21,22,22,23,23,24,24,25,25,26,26,27,27,28,28,29,29,30,30,31,31,32,32,33,33,34,34,35,35,36,36,37,37,38,38,39,39,40,40,41,41,42,42,43,43,44,44,45,45,46,46,47,47,48,48,49,49,50,50,51,51,52,52,53,53,54,54,55,55,56,56,57,57,58,58,59,59,60,60,62,62],"right_children":[2,4,6,8,10,12,14,16,18,20,22,24,26,28,30,32,34,36,38,40,42,44,46,48,50,52,54,56,58,60,62,64,66,68,70,72,74,76,78,80,82,84,86,88,90,92,94,96,98,100,102,104,106,108,110,112,114,116,118,120,122,-1,124,-1,-1,-1,-1,-1,-1,-1,-1,-1,-1,-1,-1,-1,-1,-1,-1,-1,-1,-1,-1,-1,-1,-1,-1,-1,-1,-1,-1,-1,-1,-1,-1,-1,-1,-1,-1,-1,-1,-1,-1,-1,-1,-1,-1,-1,-1,-1,-1,-1,-1,-1,-1,-1,-1,-1,-1,-1,-1,-1,-1,-1,-1],"split_conditions":[7.5E0,4.6E0,1.25E1,2.32E0,4.2622952E0,9.9E0,1.7E1,7.894737E-1,2.9166666E-1,3.6290324E0,4E-1,4.769231E0,2E0,4.4067797E-1,1.18529415E1,-1.3333334E0,2.7307692E0,4.8E0,7E-1,2.8125E0,2E0,7.9736843E0,2E0,5.285714E0,3.8285713E0,7.8333336E-1,8.759259E0,7.1919193E0,-2.4E0,-1.627451E0,2.7E0,1E0,8.484849E-1,3.3333334E-1,-1.6E0,1.3432837E-1,2E-1,8E-1,9.5465034E1,3E0,2.3333333E0,3E0,6.585366E1,2E0,-2.4666667E0,1.2142857E0,1E0,1.8571428E0,9.333333E0,3.7894738E0,9.3E0,6.666667E-1,1.2830189E-1,1.1E1,1.7383966E0,3.6290324E0,4.952381E0,1.51E1,1E0,1.3833333E0,3.3333334E-1,-1.267737E-1,7E-1,-2.6356208E-1,4.828969E-2,-1.5085183E-1,-8.945575E-2,-1.238901E-1,-7.902633E-2,-8.477695E-2,1.4932613E-1,-7.076614E-2,-1.1438797E-1,-2.3269625E-1,-1.157624E-2,2.880369E-2,5.2052045E-1,-5.4855257E-2,-2.646231E-1,-1.0890903E-1,-6.033138E-2,-4.263131E-2,7.924076E-2,-1.8095951E-1,1.958908E-2,-1.6800502E-2,6.825801E-2,-2.916468E-1,4.546434E-2,4.8691884E-1,1.3959229E-1,-2.7141804E-1,-2.803409E-2,-1.0937513E-2,5.9215248E-2,-5.1116854E-2,3.542113E-2,3.7411246E-2,1.0290378E-1,6.59483E-2,-1.8940632E-1,1.3575844E-1,4.2962366E-1,5.172309E-2,4.6733615E-1,7.825875E-2,-1.4457195E-1,7.359713E-2,1.3979253E-1,2.1560596E-1,-8.016149E-2,-1.6474792E-1,1.4982906E-1,1.9173817E-1,2.780932E-1,2.2741467E-2,3.722665E-1,5.281608E-2,-2.503888E-1,-1.427283E-1,9.988665E-2,3.35898E-1,-3.994986E-2,3.6348683E-1,4.9906406E-1],"split_indices":[2,2,2,3,3,2,2,4,10,4,22,4,13,21,3,17,4,1,4,3,13,3,13,3,3,10,3,3,20,9,4,12,10,17,20,21,16,16,5,13,17,15,5,0,9,4,17,4,0,3,20,10,21,0,10,4,4,2,8,10,21,0,16,0,0,0,0,0,0,0,0,0,0,0,0,0,0,0,0,0,0,0,0,0,0,0,0,0,0,0,0,0,0,0,0,0,0,0,0,0,0,0,0,0,0,0,0,0,0,0,0,0,0,0,0,0,0,0,0,0,0,0,0,0,0],"split_type":[0,0,0,0,0,0,0,0,0,0,0,0,0,0,0,0,0,0,0,0,0,0,0,0,0,0,0,0,0,0,0,0,0,0,0,0,0,0,0,0,0,0,0,0,0,0,0,0,0,0,0,0,0,0,0,0,0,0,0,0,0,0,0,0,0,0,0,0,0,0,0,0,0,0,0,0,0,0,0,0,0,0,0,0,0,0,0,0,0,0,0,0,0,0,0,0,0,0,0,0,0,0,0,0,0,0,0,0,0,0,0,0,0,0,0,0,0,0,0,0,0,0,0,0,0],"sum_hessian":[1.9283E4,1.1745E4,7.538E3,5.599E3,6.146E3,5.852E3,1.686E3,3.159E3,2.44E3,4.518E3,1.628E3,3.558E3,2.294E3,1.385E3,3.01E2,1.514E3,1.645E3,1.924E3,5.16E2,3.9E3,6.18E2,5.5E2,1.078E3,3.005E3,5.53E2,2.64E2,2.03E3,1.345E3,4E1,1.07E2,1.94E2,4.8E1,1.466E3,1.582E3,6.3E1,1.715E3,2.09E2,9.8E1,4.18E2,1.112E3,2.788E3,8.3E1,5.35E2,5.4E2,1E1,1.35E2,9.43E2,1.489E3,1.516E3,3.62E2,1.91E2,1.81E2,8.3E1,1.791E3,2.39E2,3.22E2,1.023E3,9E0,3.1E1,1E1,9.7E1,3E0,1.91E2,4.5E1,3E0,1.368E3,9.8E1,9.5E2,6.32E2,3.5E1,2.8E1,6.7E2,1.045E3,1.3E1,1.96E2,9.1E1,7E0,3.89E2,2.9E1,3.98E2,7.14E2,2.719E3,6.9E1,5.3E1,3E1,3.12E2,2.23E2,5E0,5.35E2,5E0,5E0,3E1,1.05E2,7.39E2,2.04E2,2.59E2,1.23E3,9.42E2,5.74E2,3.5E2,1.2E1,1.82E2,9E0,1.73E2,8E0,1.9E1,6.4E1,8.59E2,9.32E2,2.26E2,1.3E1,2.4E1,2.98E2,7.53E2,2.7E2,5E0,4E0,1.3E1,1.8E1,7E0,3E0,9.1E1,6E0,9.8E1,9.3E1],"tree_param":{"num_deleted":"0","num_feature":"23","num_nodes":"125","size_leaf_vector":"1"}},{"base_weights":[-1.2686069E-2,-4.9030387E-1,1.1579536E0,-9.5866936E-1,-2.022983E-1,8.627112E-1,2.3635914E0,-1.2700863E0,-8.285329E-1,-3.927746E-1,4.9006272E-2,7.4637556E-1,1.9125233E0,3.7400696E0,1.9167085E0,-1.2786343E0,1.5796208E-1,-9.6980363E-1,-5.951239E-1,-4.6699068E-1,3.5549376E-2,-2.4816401E-2,6.1353E-1,8.3834875E-1,9.444828E-2,1.5756907E0,2.7480407E0,1.8590021E0,4.2617154E0,-9.125157E-1,1.966429E0,-1.2352448E0,-1.8990278E0,-1.0353456E0,-3.9725965E-1,-8.503211E-1,-2.6724824E-1,-6.635007E-1,-3.06338E-1,-1.2687205E0,1.6186805E-1,5.2974667E-2,-5.338069E-1,5.427348E-1,6.4034575E-1,6.799057E-1,1.2309632E0,-4.0165076E-1,1.135678E0,4.235579E-1,2.1176455E0,3.866829E0,1.2587407E0,2.857316E0,-1.3197602E0,1.493288E0,4.5301723E0,1.3818401E-1,-1.6095914E0,3.589561E0,1.873705E0,-1.3269027E-1,-8.458426E-2,-2.100899E-1,-7.268819E-2,-1.1939948E-1,-8.938484E-2,-6.853178E-2,6.9178425E-2,-1.1524297E-1,-5.9562396E-2,1.5782277E-1,-3.7570395E-2,2.0834919E-2,-7.4915946E-2,5.3653687E-2,-3.517392E-2,1.0447562E-1,-1.9530763E-1,6.744708E-2,-1.5295212E-2,-3.5911195E-2,1.2856687E-2,-6.410366E-2,1.2206673E-1,1.08651005E-1,6.86064E-3,1.15645766E-1,6.0747053E-2,9.761273E-2,1.6851713E-1,-2.4175387E-2,-3.2430425E-1,3.3893266E-3,2.2089572E-1,8.911308E-2,-1.8543531E-1,2.2911589E-1,-1.04359984E-1,2.1083167E-1,5.0014466E-1,1.6194955E-1,-3.8109446E-1,1.7930685E-1,4.9305558E-1,-3.408209E-1,2.3642813E-1,4.6652798E-2,5.4586965E-1,7.4307746E-1,4.2385164E-1,-3.0824494E-1,-1.0291432E-2,6.2913376E-1,9.623056E-2,1.5358335E-1,2.411977E-1],"categories":[],"categories_nodes":[],"categories_segments":[],"categories_sizes":[],"default_left":[0,0,0,0,0,0,0,0,0,0,0,0,0,0,0,0,0,0,0,0,0,0,0,0,0,0,0,0,0,0,0,0,0,0,0,0,0,0,0,0,0,0,0,0,0,0,0,0,0,0,0,0,0,0,0,0,0,0,0,0,0,0,0,0,0,0,0,0,0,0,0,0,0,0,0,0,0,0,0,0,0,0,0,0,0,0,0,0,0,0,0,0,0,0,0,0,0,0,0,0,0,0,0,0,0,0,0,0,0,0,0,0,0,0,0,0,0],"id":13,"left_children":[1,3,5,7,9,11,13,15,17,19,21,23,25,27,29,31,-1,33,35,37,39,41,43,45,47,49,51,53,55,57,59,61,63,65,67,69,71,73,75,77,79,81,83,85,-1,87,89,91,93,95,97,99,101,103,105,107,109,-1,111,113,115,-1,-1,-1,-1,-1,-1,-1,-1,-1,-1,-1,-1,-1,-1,-1,-1,-1,-1,-1,-1,-1,-1,-1,-1,-1,-1,-1,-1,-1,-1,-1,-1,-1,-1,-1,-1,-1,-1,-1,-1,-1,-1,-1,-1,-1,-1,-1,-1,-1,-1,-1,-1,-1,-1,-1,-1],"loss_changes":[1.077639E4,1.8462249E3,1.9856494E3,2.0996338E2,4.0587485E2,5.464287E2,6.6767285E2,3.9356934E1,1.2057739E2,1.5337573E2,1.5243661E2,2.421853E2,1.210365E2,2.5444067E2,1.1879712E2,3.8526123E1,0E0,8.537915E1,1.1596643E2,1.2948346E2,1.17564026E2,1.2812633E2,1.692172E2,2.1930933E2,2.593227E2,1.992826E2,2.0622894E2,1.9432886E2,1.479624E2,2.6237066E1,1.15688965E2,4.980664E1,2.137909E1,4.4833008E1,7.482225E1,5.9233704E1,1.2256562E2,1.3822162E2,8.680792E1,1.0187549E2,1.0521219E2,8.743152E1,8.1433075E1,1.0783622E2,0E0,8.631641E1,1.15805176E2,1.533396E2,1.9126953E2,1.1232545E2,1.22092834E2,1.3240149E2,1.08371796E2,9.198303E1,1.2357134E2,7.82913E1,1.2807324E2,0E0,2.5993689E1,2.984455E2,1.3684766E2,0E0,0E0,0E0,0E0,0E0,0E0,0E0,0E0,0E0,0E0,0E0,0E0,0E0,0E0,0E0,0E0,0E0,0E0,0E0,0E0,0E0,0E0,0E0,0E0,0E0,0E0,0E0,0E0,0E0,0E0,0E0,0E0,0E0,0E0,0E0,0E0,0E0,0E0,0E0,0E0,0E0,0E0,0E0,0E0,0E0,0E0,0E0,0E0,0E0,0E0,0E0,0E0,0E0,0E0,0E0,0E0],"parents":[2147483647,0,0,1,1,2,2,3,3,4,4,5,5,6,6,7,7,8,8,9,9,10,10,11,11,12,12,13,13,14,14,15,15,17,17,18,18,19,19,20,20,21,21,22,22,23,23,24,24,25,25,26,26,27,27,28,28,29,29,30,30,31,31,32,32,33,33,34,34,35,35,36,36,37,37,38,38,39,39,40,40,41,41,42,42,43,43,45,45,46,46,47,47,48,48,49,49,50,50,51,51,52,52,53,53,54,54,55,55,56,56,58,58,59,59,60,60],"right_children":[2,4,6,8,10,12,14,16,18,20,22,24,26,28,30,32,-1,34,36,38,40,42,44,46,48,50,52,54,56,58,60,62,64,66,68,70,72,74,76,78,80,82,84,86,-1,88,90,92,94,96,98,100,102,104,106,108,110,-1,112,114,116,-1,-1,-1,-1,-1,-1,-1,-1,-1,-1,-1,-1,-1,-1,-1,-1,-1,-1,-1,-1,-1,-1,-1,-1,-1,-1,-1,-1,-1,-1,-1,-1,-1,-1,-1,-1,-1,-1,-1,-1,-1,-1,-1,-1,-1,-1,-1,-1,-1,-1,-1,-1,-1,-1,-1,-1],"split_conditions":[8.7E0,4.4E0,9.5161295E0,2.4E0,6.6E0,1.42E1,4.205441E1,2.7471263E0,4E0,4.4166665E0,3.7333333E0,7.608859E1,1.6E1,9E-1,-6.3E0,5E0,1.5796208E-1,2.32E1,4E-1,-3E-1,1.3E1,6.585366E1,1.4813657E2,1.13E1,1.9704641E0,3.390513E1,3.3333334E-1,3.1343283E1,1.32E1,-9.433333E0,9.7E0,2E0,1E0,7.777778E1,4.2E0,2.4594595E0,2.8E0,-7.1E0,4.3501278E1,3.8E0,-1.3939394E0,2.17E1,7.6E0,2.58E1,6.4034575E-1,-5.7E0,8E-1,5E0,0E0,3.2004772E1,7.2945185E0,3.2530968E1,9.3E0,3.8300682E1,1E0,1E0,-3.0555556E0,1.3818401E-1,-7.5666666E0,5E-1,1.1333333E1,-1.3269027E-1,-8.458426E-2,-2.100899E-1,-7.268819E-2,-1.1939948E-1,-8.938484E-2,-6.853178E-2,6.9178425E-2,-1.1524297E-1,-5.9562396E-2,1.5782277E-1,-3.7570395E-2,2.0834919E-2,-7.4915946E-2,5.3653687E-2,-3.517392E-2,1.0447562E-1,-1.9530763E-1,6.744708E-2,-1.5295212E-2,-3.5911195E-2,1.2856687E-2,-6.410366E-2,1.2206673E-1,1.08651005E-1,6.86064E-3,1.15645766E-1,6.0747053E-2,9.761273E-2,1.6851713E-1,-2.4175387E-2,-3.2430425E-1,3.3893266E-3,2.2089572E-1,8.911308E-2,-1.8543531E-1,2.2911589E-1,-1.04359984E-1,2.1083167E-1,5.0014466E-1,1.6194955E-1,-3.8109446E-1,1.7930685E-1,4.9305558E-1,-3.408209E-1,2.3642813E-1,4.6652798E-2,5.4586965E-1,7.4307746E-1,4.2385164E-1,-3.0824494E-1,-1.0291432E-2,6.2913376E-1,9.623056E-2,1.5358335E-1,2.411977E-1],"split_indices":[2,2,3,2,2,1,6,9,0,3,19,6,2,20,19,15,0,7,20,19,7,5,6,2,9,5,19,5,1,19,3,15,12,5,2,3,2,20,6,1,9,7,20,7,0,20,19,14,17,5,18,6,20,6,8,12,9,0,19,20,3,0,0,0,0,0,0,0,0,0,0,0,0,0,0,0,0,0,0,0,0,0,0,0,0,0,0,0,0,0,0,0,0,0,0,0,0,0,0,0,0,0,0,0,0,0,0,0,0,0,0,0,0,0,0,0,0],"split_type":[0,0,0,0,0,0,0,0,0,0,0,0,0,0,0,0,0,0,0,0,0,0,0,0,0,0,0,0,0,0,0,0,0,0,0,0,0,0,0,0,0,0,0,0,0,0,0,0,0,0,0,0,0,0,0,0,0,0,0,0,0,0,0,0,0,0,0,0,0,0,0,0,0,0,0,0,0,0,0,0,0,0,0,0,0,0,0,0,0,0,0,0,0,0,0,0,0,0,0,0,0,0,0,0,0,0,0,0,0,0,0,0,0,0,0,0,0],"sum_hessian":[1.9272E4,1.3688E4,5.584E3,5.211E3,8.477E3,4.487E3,1.097E3,1.533E3,3.678E3,4.822E3,3.655E3,4.041E3,4.46E2,2.67E2,8.3E2,1.529E3,4E0,2.289E3,1.389E3,4.11E3,7.12E2,3.233E3,4.22E2,3.541E3,5E2,3.2E2,1.26E2,5.9E1,2.08E2,1.4E1,8.16E2,1.432E3,9.7E1,2.053E3,2.36E2,7.8E2,6.09E2,1.847E3,2.263E3,6.2E1,6.5E2,2.805E3,4.28E2,4.18E2,4E0,2.525E3,1.016E3,3.39E2,1.61E2,1.03E2,2.17E2,7.1E1,5.5E1,4.5E1,1.4E1,1.9E1,1.89E2,3E0,1.1E1,4.2E1,7.74E2,1.157E3,2.75E2,8.2E1,1.5E1,9.64E2,1.089E3,1.87E2,4.9E1,3.55E2,4.25E2,3.3E1,5.76E2,1.65E2,1.682E3,1.15E2,2.148E3,1.4E1,4.8E1,2.47E2,4.03E2,4.34E2,2.371E3,4.04E2,2.4E1,1.94E2,2.24E2,3.31E2,2.194E3,6.53E2,3.63E2,3.22E2,1.7E1,8E1,8.1E1,8.6E1,1.7E1,2.06E2,1.1E1,2.9E1,4.2E1,5.2E1,3E0,3.1E1,1.4E1,9E0,5E0,1.6E1,3E0,1.5E1,1.74E2,5E0,6E0,2E1,2.2E1,4.78E2,2.96E2],"tree_param":{"num_deleted":"0","num_feature":"23","num_nodes":"117","size_leaf_vector":"1"}},{"base_weights":[-2.5865072E-3,-4.1788864E-1,1.0098478E0,-8.0935156E-1,-9.2744224E-2,7.7231073E-1,2.0355675E0,-9.615393E-1,-5.3266704E-1,-1.9535433E-1,2.3537345E-1,5.952517E-1,1.1145725E0,1.7863009E0,3.6232083E0,-8.5531E-1,-1.2798026E0,-5.453621E-1,3.5153801E0,-2.9486245E-1,1.308288E-1,2.1802512E-1,3.274226E0,-2.052276E0,6.14605E-1,9.585112E-1,1.8076261E0,3.6834764E0,1.6364189E0,4.691192E0,2.5770714E0,-1.0370626E0,-5.191268E-1,-1.1348171E0,-1.6458695E0,-4.0845346E-1,-8.47018E-1,6.993385E-2,5.427577E-1,-2.715653E-2,-4.027133E-1,1.6446094E-1,-2.6373425E0,1.4692286E-1,8.083712E-1,-8.939792E-2,5.202597E-1,-3.2302916E0,-3.056279E-1,1.0893111E0,5.2108973E-1,1.3420122E0,7.91725E-1,2.179021E0,1.0680654E-1,3.303996E0,8.714425E-1,1.043867E0,1.9654483E0,5.002848E0,-1.59893E-1,3.0018735E0,3.4516332E-1,-1.20993994E-1,-8.338834E-2,2.6575753E-2,-6.335956E-2,-1.3644499E-1,-6.645741E-2,-1.7696065E-1,-5.8768045E-2,-7.708111E-2,-2.6108915E-2,-1.0789702E-1,-1.797217E-2,-4.25692E-2,2.212539E-2,-2.1972552E-1,-3.8624678E-2,-4.4398863E-2,3.133494E-2,-3.7366077E-2,-3.623229E-1,-1.9154261E-1,1.7729921E-2,5.820668E-1,6.962987E-2,-1.17618896E-1,-3.7189037E-1,6.205323E-2,-1.04315676E-1,1.2242597E-1,-5.4545343E-2,4.6524804E-2,1.3841869E-1,1.02467515E-1,2.5684625E-1,-1.615139E-2,9.3264446E-2,1.467862E-1,2.933328E-1,2.5220463E-1,-5.259183E-2,4.525585E-1,2.1260062E-1,1.1678503E-1,-1.6094886E-1,1.6278078E-1,2.7108353E-1,4.6187502E-1,